,0,1,2,3,4,5,6,7,8,9,10,11,12,13,14,15,16,17,18,19,20,21,22,23,24,25,26,27,28,29,30,31,32,33,34,35,36,37,38,39,40,41,42,43,44,45,46,47,48,49,50,51,52,53,54,55,56,57,58,59,60,61,62,63,64,65,66,67,68,69,70,71,72,73,74,75,76,77,78,79,80,81,82,83,84,85,86,87,88,89,90,91,92,93,94,95,96,97,98,99,100,101,102,103,104,105,106,107,108,109,110,111,112,113,114,115,116,117,118,119,120,121,122,123,124,125,126,127,128,129,130,131,132,133,134,135,136,137,138,139,140,141,142,143,144,145,146,147,148,149,150,151,152,153,154,155,156,157,158,159,160,161,162,163,164,165,166,167,168,169,170,171,172,173,174,175,176,177,178,179,180,181,182,183,184,185,186,187,188,189,190,191,192,193,194,195,196,197,198,199,200,201,202,203,204,205,206,207,208,209,210,211,212,213,214,215,216,217,218,219,220,221,222,223,224,225,226,227,228,229,230,231,232,233,234,235,236,237,238,239,240,241,242,243,244,245,246,247,248,249,250,251,252,253,254,255,256,257,258,259,260,261,262,263,264,265,266,267,268,269,270,271,272,273,274,275,276,277,278,279,280,281,282,283,284,285,286,287,288,289,290,291,292,293,294,295,296,297,298,299,300,301,302,303,304,305,306,307,308,309,310,311,312,313,314,315,316,317,318,319,320,321,322,323,324,325,326,327,328,329,330,331,332,333,334,335,336,337,338,339,340,341,342,343,344,345,346,347,348,349,350,351,352,353,354,355,356,357,358,359,360,361,362,363,364,365,366,367,368,369,370,371,372,373,374,375,376,377,378,379,380,381,382,383,384,385,386,387,388,389,390,391,392,393,394,395,396,397,398,399,400,401,402,403,404,405,406,407,408,409,410,411,412,413,414,415,416,417,418,419,420,421,422,423,424,425,426,427,428,429,430,431,432,433,434,435,436,437,438,439,440,441,442,443,444,445,446,447,448,449,450,451,452,453,454,455,456,457,458,459,460,461,462,463,464,465,466,467,468,469,470,471,472,473,474,475,476,477,478,479,480,481,482,483,484,485,486,487,488,489,490,491,492,493,494,495,496,497,498,499,500,501,502,503,504,505,506,507,508,509,510,511,512,513,514,515,516,517,518,519,520,521,522,523,524,525,526,527,528,529,530,531,532,533,534,535,536,537,538,539,540,541,542,543,544,545,546,547,548,549,550,551,552,553,554,555,556,557,558,559,560,561,562,563,564,565,566,567,568,569,570,571,572,573,574,575,576,577,578,579,580,581,582,583,584,585,586,587,588,589,590,591,592,593,594,595,596,597,598,599,600,601,602,603,604,605,606,607,608,609,610,611,612,613,614,615,616,617,618,619,620,621,622,623,624,625,626,627,628,629,630,631,632,633,634,635,636,637,638,639,640,641,642,643,644,645,646,647,648,649,650,651,652,653,654,655,656,657,658,659,660,661,662,663,664,665,666,667,668,669,670,671,672,673,674,675,676,677,678,679,680,681,682,683,684,685,686,687,688,689,690,691,692,693,694,695,696,697,698,699,700,701,702,703,704,705,706,707,708,709,710,711,712,713,714,715,716,717,718,719,720,721,722,723,724,725,726,727,728,729,730,731,732,733,734,735,736,737,738,739,740,741,742,743,744,745,746,747,748,749,750,751,752,753,754,755,756,757,758,759,760,761,762,763,764,765,766,767,768,769,770,771,772,773,774,775,776,777,778,779,780,781,782,783
0,0.20388971445705484,0.6276711089146364,0.3825335606077792,0.939560312853519,0.38914986607308377,0.7763937606427378,0.9311514711748884,0.3323130761524963,0.03972868656494921,0.25361245492820084,0.7052610147469021,0.4955856253039417,-21622372.339070104,-24101904.64023775,25865720.250374243,1077738.7810225298,0.9104841066943654,0.2920748422171102,0.9985985974427964,0.027520191450505327,0.6844097635883775,0.3205773279695636,0.6546617320457363,0.29888135817788297,0.4026451709342438,0.03307685235263513,0.15283226177974152,0.2170842047542607,0.9035897600744867,0.4963573774946216,0.7740637444383045,0.6273500458035502,-1951705.284997165,-6302038.949725854,-79032241.77007154,-214346849.81237608,-289320677.3542666,-362682717.9350031,-995866325.3738887,-1373160488.9888363,-1634341213.1646314,-1548209645.157926,-937385921.5821455,-820576233.7017331,-731924370.4810237,-1204234625.9152205,-1103980026.2063649,-892330431.7569369,-749446600.6217223,-304381568.41396254,-178621941.95077467,-77701340.8602791,0.8468817302647396,0.4215752827620526,0.4777027532988619,0.054182177898896344,0.4953136979251055,0.08955632133076719,-11129379.37123093,-3380407.8208124056,-65945268.459559724,-31380462.090152115,-275695161.4577494,-667082606.0318801,-808583434.6026298,-1147029412.072023,-3148132467.2060366,-5365520669.749163,-9767858009.1534,-13991398813.95722,-18219999907.97421,-21684536814.655964,-25552567818.773365,-27176182326.05326,-24242344527.817696,-18912614929.522514,-11637456034.149,-6443643632.452998,-3346780184.5566897,-1239335597.4614646,-258236759.98793292,21943852.86406413,0.28281715763053805,0.7986932540727333,0.14764234375835217,0.021455272709916984,-19368395.686928924,-25129395.78376494,-116523538.7672363,130962837.0593675,468643514.0614134,1487979925.7946765,4083660012.7395515,7035864789.0701685,6956743783.367872,6807039180.467347,5651452693.620608,1136931997.793192,-9097248573.818256,-20245422496.47446,-29453606525.36984,-37897806847.120155,-39680139046.43841,-32935349518.90251,-21904719510.968853,-13612794318.10714,-7285284010.676795,-3425046817.9695134,-1486450649.7387097,-79203461.973567,-46372168.92523595,0.5070628125683836,0.4984296240047975,-316894.48876562354,18641307.73707391,75322272.222894,249312050.8946728,1889375273.2522125,4517986131.22432,8578850521.516349,15339235380.346973,22333882531.447002,25514197334.15333,31506863097.617214,32571078736.47786,29357254451.43979,22818497190.308056,14481441677.239065,886735428.7935857,-13536631228.945757,-21265353627.475986,-22013414883.502235,-18334153973.004276,-15673153654.351686,-12035880857.952662,-7156594910.510332,-2102372392.0622737,-201475504.92391276,-21161344.95184216,-40631845.768043615,0.4547479049562555,0.6490620288176534,-40167322.266002335,372046488.4436822,1585012970.4563348,5341131580.4517765,10081511962.027594,16924163439.747885,24360421755.664158,29274358069.511185,31823721583.47321,34572390411.254456,31669807427.093002,29234491103.45139,24357367386.071205,19684314585.20741,13440907648.05624,8683844546.385345,3088485704.400259,-1427334334.387762,-4079665157.41129,-8015574868.159887,-10662928345.429085,-11358967250.692833,-6031798691.162794,-718551639.4782522,62952600.93696971,-68168730.51788974,0.17172050540561967,-377505.5353660779,-4445941.291399215,1229308149.0791118,3598284231.6769576,8133457097.176236,14831396442.793564,20795252062.312565,26414533709.375153,26775500050.19321,25315042919.416805,24273945736.148167,21535979485.776627,20467698012.840683,18391045363.16006,20217217567.88974,21753368712.51351,20739823143.350124,19749466597.614002,18529886865.650326,12702433636.274153,5374698117.704191,-4000565992.695212,-9639845564.017677,-5546804617.507872,-916173494.9265975,54810924.36368433,-50840576.38884489,-732901.3584825961,11446512.522008024,-30678615.34101116,1452412630.2289956,5594237155.990409,10857438174.153725,17715709145.919548,19586344968.229347,20174230625.433414,16023713020.894094,15468257974.297985,18327653061.402946,20027571349.084133,18518652091.50149,16465061671.161167,18258928836.26671,19750780478.563087,19857099369.530087,23644976120.258358,24650807720.52524,24034308010.168022,15147171150.847305,4764526381.399267,-3118879517.848246,-2934031106.5510235,-89514735.21501665,130639768.20397624,62564746.303206824,-13310277.613502586,-14578417.693765108,-39485730.692795485,1456299290.2387135,6735614695.099342,12434024218.741093,17331441891.738064,16433653993.567852,10964396761.58145,8449609536.189467,12258380070.046759,14524739842.550768,15649146768.860828,9613479244.568956,14174111372.896315,26373493517.831505,31607929579.160225,29420364185.081688,31164820279.830154,31472096896.48931,24328341687.644352,18182421183.376026,11515935103.760622,2237831997.0143294,801101358.0723302,1721027208.8953207,408329257.8858832,72714155.82491693,6918693.69119325,-4878012.062487237,37110692.18154123,1876657714.342577,6613298263.652744,12056874733.243912,12617260763.186579,6094677295.488603,289378933.264889,-423139236.9881032,-949058973.6766064,-2642844344.941018,-11746739188.973291,-15383740908.755558,4503855281.713257,31589850380.494274,43464456584.01985,40485850126.84453,36822362456.17321,31498383611.955723,22300965766.333736,17354573836.498108,12353340118.44918,3773725839.7384777,2690899755.430566,2326764824.153656,626071709.0024451,70405548.48481913,7440902.136800924,8589011.865250466,130943492.11559485,1789383358.0915363,4991949121.061465,6479599059.324489,3474779572.7316384,-7502783664.850201,-14908768396.246532,-17550837046.090748,-21857659037.42952,-31988185014.719963,-41819263550.58531,-31832397051.84125,-316688893.4632329,29643482831.213192,42474154408.12127,39036000738.25578,38644231089.843475,32257597295.013294,23143279038.06258,13611732012.380352,5251529911.931595,-62704039.130704984,1524384339.9677823,3011228948.3951693,698644340.736364,138029298.94637105,-3994938.1177051878,71360392.12093262,228055244.1794451,1083800905.594284,2164913152.185571,-1878669307.9498668,-11258897656.898634,-24971383555.504726,-34956776299.835304,-38191800343.914406,-42392331950.64549,-52790909286.05761,-49600519129.492805,-29549306008.50453,-5492588161.674311,19417553889.384476,25131193974.160503,26606672798.948666,30750694885.52229,27762225162.678986,15411947630.653805,409185344.5113903,-10501444895.742273,-11209377997.701534,-2269911408.2066503,2127996940.9765496,807615630.0065142,15398886.671199253,-526352.1556806879,78603141.61306705,235886111.43208545,111052784.96535033,-1061343778.4965253,-11575429150.589209,-29465882473.41996,-44189724416.52426,-51954618009.506996,-52289642098.54066,-57792849750.54731,-63031016162.37665,-44596758662.217575,-25920689368.80791,-16787985259.369925,-4167861486.7782474,1323109084.4900484,4794443833.515471,9940288239.811787,9453365460.092268,-4943577335.986268,-22919884849.042625,-30965071780.54944,-25410716957.932934,-8146266447.206451,1782746124.7135098,887152828.5502058,56629295.901446335,-493532.1419105107,16403106.701918673,93949122.57688047,-243289940.78435394,-4517543470.1895275,-21182169016.498672,-41931867896.27066,-57563902486.36538,-61345682335.611946,-62185591144.043526,-65789949254.06658,-52638995637.5991,-21004067321.478436,-15683230545.328201,-23704520140.77116,-22186542917.701992,-14321824506.746994,-8703397862.932821,-9492280883.352303,-16479839583.55406,-30321492117.752968,-47339225006.13257,-49457492806.3764,-34574302461.09022,-11938846992.939407,1826706760.998286,1546761446.3092093,363391828.42268914,-10368030.15029099,-21041705.323795903,-19652643.266674813,-490569569.8048352,-4697042834.001942,-23361963132.54645,-42378922684.760254,-55320902372.39516,-61897505027.1329,-61798993039.005135,-56297224785.52464,-27602023615.794853,8828754358.99268,-610373069.8330208,-14527006984.291056,-18286934251.268307,-9658890755.941156,-8746374998.495512,-12856927294.431665,-27953704556.083523,-45649201572.86474,-57082112678.61124,-55203937695.70305,-34750065344.634636,-10481795928.742874,2772119934.2926373,2508576553.6370564,67456229.25092362,-3050282.569708739,-38013602.33510403,-75133379.30292667,856074819.0908076,115642047.49193305,-14165985783.815117,-27349471275.565388,-39324373720.6685,-50882985744.37235,-54629099926.82752,-39982605506.27632,-1124951883.203249,25944188911.340683,10260748509.788269,-7412361127.884252,-4102052723.5524693,7640965629.67083,3488971476.179378,-6577127301.544708,-22059289019.544483,-41253957252.84999,-51343180212.39775,-41299661976.174736,-24082029798.893044,-4144852928.2086654,5056230955.09321,3524164805.7257466,382026112.16671973,1968910.0143456974,-23568961.919517975,21195459.68979732,3845089653.3404264,8025787399.064738,1745112601.5956497,-4916318074.647187,-19106791607.622383,-35075824774.53355,-43063296802.667305,-29780273994.98688,6169600472.706649,30063312297.66906,15426233535.533987,4187708322.988163,18771890498.503536,32679599271.716434,23404663792.315002,1677883858.8094525,-18537484559.77482,-33265281999.657936,-29580191783.51981,-18631252392.852093,-5026804808.897829,6132940396.63097,10020048078.82717,4114870139.4964447,455302562.9279025,0.20248137752063955,-33182752.337086823,229133542.48401585,6814758490.9633875,16688354862.723907,18488302994.82884,14543456461.78268,164975234.9441083,-18796605417.501137,-33181359837.42682,-33069249165.19268,-8314923477.516897,15563000533.0409,13211005532.15636,17540299139.76358,37647659649.68462,43302619423.451416,21029540206.786068,-6403104372.095776,-25620786163.815453,-26800962834.751747,-9767293227.409327,5101185904.583712,12186532727.47852,16966723435.515198,12685759823.128506,3657551120.28202,244071182.60300094,-1068110.4178968745,-12755307.184510272,243445390.40556195,8200314575.189246,22146712195.804535,29453819546.145493,29189937823.70868,19902642966.22239,755178709.4926339,-21828699450.939445,-33762681048.705563,-25356528292.97164,-3225117436.5191526,9505405122.396862,19153790202.066452,28429429224.204803,20469108131.08166,-3308523241.9505277,-25871866093.153362,-25527207478.454224,-10709210655.934484,9916702962.831303,23267552400.759003,24406544418.352413,21395754347.754875,10628361063.348534,2219943414.253372,322437413.31611013,-1552354.1592766983,22438431.30855682,517439042.7122595,8127143148.068763,22026441467.64492,31339000702.43615,35524225453.497856,36048870498.58927,25330908751.954784,485769830.81643647,-25862981921.421684,-32284986302.179264,-22756930176.72374,-10550821399.557564,-5401207515.260308,-8855520770.403584,-19556087990.148254,-29085500068.863014,-28229102138.52188,-12411182271.286867,8711237219.320038,24660745151.595955,30652158490.716557,27760152555.696095,18273542838.99704,8184825729.98555,1843466101.824593,173169243.67227963,0.039012325508881895,70893664.69605553,603893068.2714909,6821214056.877454,18620015421.828773,26947256410.295586,35648851630.48134,42424448371.373405,38002862480.288795,19247112647.263847,-11668743698.185715,-32855862894.33971,-42495657033.56524,-44542939372.91284,-47335995303.232956,-47228520904.639275,-40163562864.64082,-27755669416.278065,-7051381682.365643,11798449928.14098,26961456859.972103,32727904301.47901,30447131570.28293,22971388448.12491,12932949267.06631,4753775741.196298,893379244.0901502,-10062873.283556089,-2357030.951804623,5903970.819494778,405351870.77569824,4403351827.804794,11193994946.816101,17737861268.99168,24771537131.679466,31782149950.563316,30193501706.248062,23290731385.807007,4822980023.0603075,-17318328015.952213,-37733454762.5434,-51688283788.445915,-54662026033.678604,-44178138635.2212,-21667179936.974037,-939474857.8923144,16539944640.709673,25227559776.902683,30262502154.5315,28457870513.03677,22121269199.651546,13962334646.66912,6821850134.693122,2725592449.951707,328382658.9906565,217733.47493240083,-2283372.965904502,-1023540.2793686123,240395770.2900516,2365414998.9486003,5284848811.998841,7462834743.949722,10893691976.316904,11986660394.55755,10389185076.415115,10340935827.196081,12266640044.26652,13570729032.757063,5387903263.4636135,-2016338372.8990126,-7656747865.594644,-4911915746.673052,5638832563.132799,14687123324.430216,18874062982.598034,20097001621.989975,19258738951.748604,16801870037.431076,12617982310.041586,7228702190.835286,2851147003.464413,984542478.459704,19385092.666511554,401969.13003140106,0.5664470896998256,0.722866077741411,79161067.97579893,1054793649.0069741,2041626713.5748384,973022571.5175031,-570111318.1400337,-4172805975.755048,-9465171803.8204,-10544849031.93144,-8195293130.715412,-4041922903.801381,185150130.79782456,3514418797.128364,1719802496.865015,-381391211.29299116,1229125089.5288763,3985060517.7317505,4429268650.316271,4250429726.503512,4870354252.904264,5191957102.244152,3837835597.3500752,2421320261.8862753,1115054576.553826,371597393.8490044,56637906.23807518,0.7066605321527903,0.2770918797765183,0.2631720194173436,47145666.73792445,170081379.79446948,602193194.2228538,568500448.9372201,44034579.70573629,822417662.4851593,1684841898.129337,1031208829.1213088,-1247563966.482862,-2340027395.8044286,-3107546822.3795824,-861829178.228745,-1440786504.6605792,-3345942811.523728,-3512711058.5549674,-4518889325.470396,-4980608667.68247,-3914471425.6714606,-2025008903.3371904,-1055826709.9955094,-569341968.7810842,-50346097.15065253,396328815.0384162,150982316.26047713,17208144.56631287,0.1263554115912794,0.8123117377667407,0.12992005390734007,-3612746.4813609323,-3786519.9644218204,252977694.97845063,504892938.2895021,1073803892.1868603,2003439711.3918598,3765435396.3884163,4868565379.653552,4069025874.8580236,3105800668.0736227,2153657775.746646,2967076742.2357407,3320930904.588644,2689102621.3062124,1156218756.9206796,-1089341223.2566087,-2286326915.272093,-2791937362.098607,-2488141536.2569995,-2023894722.1697557,-1119196299.936228,-456862033.4574118,-24605477.231045194,49909830.98635893,19809276.323040124,0.11657293533945556,0.9543344794558027,0.36837180605921394,0.43699904584264915,5701856.636513508,68696835.30244352,-13086858.884947756,-150931036.9778178,80142083.32435367,239033972.05805746,-483567387.17436004,-2478357813.3659854,-3378897384.5480475,-3433513355.197818,-2268675460.4055443,-1631468790.3083086,-676659982.7971956,-759605860.3459456,-627615557.8753299,-664409938.762836,-610625512.7775995,-610083099.4544262,-257095135.9637496,-25871413.44523739,-57218924.55963111,2906929.15813224,-2424241.9503531507,0.7539932063204616,0.7646711795127317,0.9635981370724704,0.8494834227534417,0.05715032270551612,0.04628786756919756,-2475122.6221924955,-18236697.079539042,-39173829.74994407,-28380457.102333624,28906783.63695062,38046932.858650155,57346595.33362823,-16268291.788299503,41366935.54676089,189628190.1952512,79189519.37161167,29339283.758999605,-25846545.500822607,-44803751.38753894,11609385.381300569,-59072294.642280094,-62296665.59340767,-24612938.445350908,-1834114.6150911099,6002810.231942675,0.7148908916092264,0.9380612126986018,0.29536370383720634,0.42274760621591545
1,0.04205586391771954,0.7084858597798617,0.055635946653532775,0.24385808285724486,0.6137397006296317,0.8350133861935232,0.15873440073603362,0.7332949205713413,0.9019748618099176,0.21206367906816526,0.30852456589376587,0.6210355388567593,9503437.555751652,-38222488.516618855,-65691030.402774885,-2737125.5001427485,0.7117915915898181,0.11999587458313443,0.8548654112071477,0.6251168905235184,0.3013090970692074,0.6942658925680849,0.949569060772091,0.05143528174930556,0.5788741995748955,0.29692287220466695,0.8923635513139428,0.17611664319901466,0.24352333802959247,0.07144832415381419,0.03702471027831067,0.09959232087400582,694544.729981042,2845908.7944269176,40116177.02507377,112795905.38593517,145537312.87089482,339614238.19874793,478499531.0088003,541509219.8985314,534505251.1088519,278865842.28961873,434551119.3802119,387897181.5662367,-254057315.25316948,163171266.49374148,268512177.93440455,192871727.39609566,191207077.7379666,176033431.98092136,37654619.88939558,-9305535.088166147,0.21471728838314175,0.9253226285955943,0.48257762569972196,0.903436278432338,0.5609177505546807,0.9201674492198265,6241903.385777824,-969885.6237994882,50907726.66585851,33629490.49516709,299701980.0915242,557394114.4692484,725793797.7333208,1410542923.8936496,1888315931.14116,1738760689.4250512,2683519327.277308,4163217309.2891064,6160838599.099836,8524040140.39894,11207067685.595932,11892400693.535753,11600863146.895536,9834885976.115088,6772185993.730098,3750129754.853634,1747921172.7905853,208232416.15400842,-132154741.61335653,-86328318.66722606,0.4417652299657462,0.8880746253842008,0.05900686652980691,0.9742231591886589,24359674.706244294,26464740.39679147,28682243.881337307,-124188729.38067283,-699222444.1176858,-2477002036.2317147,-5769174605.789829,-11814838806.226454,-17839813194.653526,-24271758669.3367,-28482240137.774998,-29391507917.025745,-23952413207.844402,-16079945112.378502,-8551995684.539134,370798503.03406644,8273509858.906147,11018433635.457926,10433101583.92463,6457898705.245735,2909648003.0982213,626093583.9262079,-166374632.55775964,-89288719.89865373,-21179435.48771977,0.10417410825970552,0.07996214688754011,2675519.394246109,37869832.35085244,31067482.841550257,108154974.85286747,-1155722853.423902,-5185611514.842267,-12522240731.67895,-22974774548.030746,-37538642586.71283,-52478070898.31829,-66860524801.58189,-78138047637.02689,-80947445122.45328,-78331470851.5762,-68083429827.976555,-57203015738.06227,-34331635056.461277,-11210288837.453539,2627451182.832251,6431249944.301495,6074563465.194551,3741130063.9817867,1327587102.4567778,8052798.591131534,-390299247.0065317,-53238212.01267231,-22082254.764308624,0.8086942693455904,0.9442008807734121,48136768.182330385,78910097.19452032,32085023.50916318,-3124568489.6145716,-11990514361.86863,-27338478302.64454,-46287933945.81181,-68068231666.6729,-87397364242.69534,-100123341569.07152,-102765887837.52953,-97484072491.59393,-93615962572.06654,-90385265469.69641,-84272369775.59038,-71260948817.33598,-50046765983.56591,-31370053768.927048,-19096603440.144993,-13030556682.037884,-7408439250.69846,-4258131053.723429,-2543327758.894251,-1223669245.1804302,-107386839.37181751,-28292836.311224658,0.31984418220462707,1739819.280222169,29328681.160409346,173152520.3293219,-44863178.115067765,-5049724117.5184765,-18067414887.75086,-37890736664.680885,-55229863692.32715,-71403604551.36212,-79397547486.03952,-76851870008.8188,-63925719104.62977,-45290725792.11259,-30156173698.551086,-27691667904.97023,-34186633213.656567,-44310243056.15984,-48545224813.38551,-45781251387.111176,-39080907868.22069,-30598793077.648735,-21660866115.120968,-11310505105.258299,-5699144338.766557,-2383045407.9025526,-460193409.08113253,-82969408.44560839,502239.9858269401,74781360.14371677,-53690817.89145456,384389590.8172957,679812.4742245311,-5991151136.8319235,-19884596989.263153,-31665594837.012684,-41264969905.98814,-46929490502.47061,-45726653682.18113,-32335292860.728825,-8347242051.377389,16743386180.631676,34025966476.00178,37313156593.029724,21967584367.32742,-7253704423.372156,-33291137267.67095,-41951375786.98409,-40927421782.58877,-38702497584.40189,-29752747053.045357,-14469233435.21321,-7062439843.547802,-3279731835.226734,-626938551.5806506,-27844598.91386418,-7342144.492048249,20280093.036372982,176613328.95227852,1058286950.2702515,1213075855.1697693,-5543510961.505352,-15330786314.232397,-18155694942.39962,-19868948750.5419,-21636767314.690376,-17934933416.574627,-2081252096.4072928,20654678746.45465,41922087710.7406,49445227844.59597,46376446895.902725,24456257458.668427,-9038345922.958483,-33446985015.137863,-44230359755.06422,-44196624134.841484,-39611585362.15768,-30564032866.405804,-15516265396.817984,-5348594048.599562,-2191915100.96251,-452568517.1417723,-37620634.50501471,-497084.40617895103,98884885.60824864,358421559.95467085,1168018667.9283578,969658025.9478853,-3245858260.0575624,-4448030257.029763,-180420447.42187986,2879782523.634553,1029958898.8659914,2471909568.7142496,13641179496.187962,31277256935.112892,45289600777.4485,52280337263.066055,42952308624.49037,11163797568.103437,-20252907208.825474,-40990806780.758286,-44566539163.21867,-38938565909.23853,-34006347991.20045,-26924261264.377403,-13410060118.734543,-3317064852.9241095,-825643360.0830035,-183961795.20190412,2736995.8901098506,-1425757.9046733289,108849691.74134763,432584016.4271082,1147857707.4246497,2790198073.369563,2981898054.1115546,7165841981.8068,17643293859.00654,20013269844.905605,18084777945.652878,23294417289.209667,32167318433.87921,45642892479.18215,64232221150.76979,72633205339.07259,49812377469.55084,6687376516.927123,-26674642445.009274,-39693472507.00343,-33771993220.79734,-24690890848.27495,-20650523582.999603,-15514412893.016731,-7971851049.325699,-2604907293.488329,-126253871.08716011,-187532058.66689247,6687343.015578082,2756933.5575907324,99114359.18841355,511679258.3399145,1565990003.7622955,4527306938.972274,10701190448.741823,22228970245.929855,33185685565.817944,37879175621.972145,38901037415.24977,45143325144.85202,49895713692.166306,57796387620.996284,81470745433.06978,93692952918.78546,58801812836.17928,9474201946.78031,-19043174418.547947,-23064824804.40857,-17537316986.883736,-4963361014.791667,-593765232.7504596,439728344.8757917,795027949.8564316,-902433322.392707,-649953996.4000291,-112682626.8905422,26501112.574159645,2826359.5724882134,76187041.80203192,350353248.04497707,2068153752.798905,5902399784.300828,16450867928.461521,31164234275.592384,43860863674.33262,49621772542.25034,53658440810.259155,51586646071.721,42538360629.68322,46825805154.54652,80470378122.93578,94811192975.39938,59974314327.06872,16237373962.53933,-7218845966.807649,-8660631799.489933,357744797.437749,14078861855.416136,20336509182.671608,18062763791.94653,10701635287.504763,1701994025.8710406,-1553288578.5392554,-696326253.6346114,-13094874.446145555,279140.59764874616,26525271.02567741,175309005.9299503,1914399403.761317,6828690643.497263,18669384352.103916,32336654200.34369,44667661303.90322,54010159429.71677,50223534564.23595,30898849319.12342,6282493894.10009,13898065651.031683,56209225333.7894,68971373270.9892,51976218182.969086,17541800652.638386,-2438706794.1421137,3720792431.6269035,15721302718.960157,30083547819.706604,37672271953.57799,31002619260.104664,16753303306.607203,3711153647.692348,-2628068056.536725,-1771175726.656687,-368307792.0070281,-11985751.209377002,89303688.12669381,153115220.1593485,1580376054.3425508,5554743820.837404,14541864725.121439,25516090903.239853,34555295147.90418,38421921960.972534,23705295306.406136,-14103781792.885868,-45833788103.992294,-29181374000.17368,14605732135.589052,30945760358.965454,29821880270.057346,4483572185.137354,587841557.6811209,9753835903.426243,25416407670.381973,41281928900.420815,48848636326.03012,38387782877.32918,19726492664.690853,4059995505.831135,-3802029402.5432673,-2588365150.541622,-89284617.21407463,-3833656.6239778623,119712607.30880314,289152091.569069,893291275.8848363,2408089547.5575833,3309142058.599164,8549363821.301818,14579588762.390226,8972137769.82809,-15532602500.903542,-60455090753.76361,-86254305288.93141,-65968972907.23137,-31476483351.10178,-8905605748.91372,-6221188641.082219,-20444770991.01953,-11125385492.764776,7047645035.606069,27639711303.240314,49942097080.40193,52534045365.05621,36987396218.18774,13461996526.632473,-3199981507.5857086,-8160356183.692173,-3899429315.608586,-404890038.3028572,519320.1633075527,82926980.47400434,772267119.611125,347604114.96433264,-3796841292.420861,-11260129271.310959,-17209315819.680588,-13251686013.265553,-19165696651.830296,-50223378702.08215,-93250262606.00961,-112298882215.57762,-93265393516.75027,-60803039210.05309,-39816487061.20425,-49928638119.615036,-52540258813.671646,-32140109517.444294,-5315801052.645041,23375255757.56251,42303878718.572624,36994803852.64929,16353253835.158604,-7612477432.104061,-18495641230.59578,-16818271585.292694,-5352372082.808277,-417031998.8944624,0.48665794283423536,92546902.9731293,825687960.9424275,-1250661324.408251,-12369468508.765024,-30816368485.16969,-46198760093.175064,-46003790897.79418,-45852715303.76915,-69011762957.70815,-100611693448.69832,-116027913332.86176,-94602162204.94397,-66121372374.71149,-59306491058.77474,-73399329985.1612,-67284817083.761795,-40293591274.24293,-7840324641.595628,17272506089.13125,20994974039.927906,5944635328.545305,-18352145261.34765,-36038235725.983444,-38484256185.97574,-23694256173.478283,-5557251396.99721,-300180926.0594102,-2330663.9842916117,45011166.190727234,1243921625.187694,-2642054803.2794743,-21266573804.992847,-50940731069.22188,-74103227859.70926,-76943044692.97978,-68498541883.47846,-77193337813.69986,-98013705247.38445,-99731924752.04291,-84516827632.90039,-64360907577.29545,-61908221197.65047,-64597284354.795105,-54529736567.71101,-29523029218.868443,-4697238523.991642,2696582013.1871276,-12606466365.161205,-37770653745.53982,-59007254507.49078,-67540454137.2601,-53263257017.12132,-23567548529.357437,-3259958405.2965403,-223497042.5014645,1784216.9203047967,69228552.70911996,1804186293.9786043,-2888921798.168693,-25750090472.786358,-59582553601.64732,-91172086319.94095,-103179428320.61385,-94525749913.0873,-88495035321.55519,-81033431090.13316,-69408123906.78624,-47809931103.52604,-29974920921.115887,-25053956165.655624,-23707293358.05473,-16387936597.666897,-9216070853.030489,-9688519845.80142,-23885273406.376244,-53168005817.64245,-79120642602.85669,-89762750367.0706,-80107118932.94363,-51432965935.98605,-20535369344.196175,-3287875791.498084,-92417814.10359749,0.6514900464122945,73023613.29842313,1242427137.601638,-3566694512.3398995,-26084060980.3286,-56289343516.344154,-91087957293.59253,-111357759306.32599,-110540045634.32346,-94510896660.1024,-61262450574.392494,-26544645932.705894,4288825189.0743976,25587268960.46131,30670770624.39089,25072226967.02529,14742766669.03053,-3008681684.5222273,-29984544314.358162,-58594887530.393555,-84644276417.53535,-98609055688.9185,-92059793113.45302,-70239061939.43555,-41885289161.52314,-13808001531.007732,-2263501129.98315,419486.09953304,2137696.8446097015,-616094.4896600713,382476619.80162275,-3237413808.593929,-19353044600.618435,-42378061698.85574,-70682280091.0519,-93317551285.61575,-100238059802.0648,-87562426669.80762,-48549720436.23101,-6807881639.84115,25638919060.154232,43030128843.08403,45994398931.92001,32419270234.1121,9763017159.89229,-20742581849.147385,-52907684923.86593,-75610435582.16966,-85411920400.86345,-84032269646.0363,-70197893520.02783,-49213297929.66648,-25683350542.541702,-7702161808.6080675,-1008378454.4361806,113621.11882666187,2070893.5469641495,83768.14931420815,306235407.4315834,-1042301952.2824196,-8414290492.1518545,-20289955786.83599,-37415299444.77833,-51373716556.14286,-57320482628.57884,-48132677447.77767,-28871642325.369408,-8874592660.853586,6093963292.600675,14811555307.98468,16743492444.237371,7967162956.631324,-6284373349.016681,-23347402852.100166,-43424148899.59716,-52467871192.481895,-55206439680.24279,-50569668307.613075,-39403124381.91258,-24927084768.45997,-11291243783.128256,-2535785799.839748,-43717087.90926666,209761.82706997916,0.9729569446069328,0.9398208055024414,193521644.62412024,613331454.6073055,986146330.9748281,770457907.0233208,384797913.603539,2311399464.2526717,8191690370.080916,15088180564.33914,20929193632.95458,19395911100.869995,15694173466.130758,13668970565.493793,11722739905.525227,11476025382.586182,7378979829.435464,2691229966.052187,-5058934320.316068,-9820583490.4076,-12825873150.069527,-13872695459.736057,-11616631035.380016,-7413974811.664309,-2517842780.2281814,-618204437.0476893,47664758.628406405,0.5266885729518241,0.07224525930933423,0.9817388110937174,22655372.998020727,527584306.3707599,2261748730.4358196,5870869238.636678,10779620711.587362,16346728068.815287,22425701517.129948,25710405288.14201,23090152662.610153,15818758874.370918,8217630493.117568,5029364667.5203495,5481793606.219538,7709465195.572749,9556681018.612593,12578531599.926645,11739364184.518084,11533572535.451262,7958014340.002137,4596737226.720278,1280600560.3341858,151499675.0829952,-665496765.3802382,-361550459.1873063,-62051519.790993035,0.30486648237293557,0.788847844428139,0.8521457066678777,1629961.590424376,106546787.06827253,727931867.079917,2463774941.5969234,5320360817.429745,9544072158.704193,14126188621.381767,14819163438.871958,12381628627.679968,11428358033.050303,9861959031.271091,7837154461.876341,7143368489.38667,7706428346.283814,9282286982.340988,11113486953.347948,11399592833.641222,10124622628.533382,7161954960.320708,4684041375.722831,2273656027.382191,972281877.3337166,237701405.7739261,-36573132.84662494,-67157298.4857102,0.08360785784652491,0.30246388838276395,0.9434893943637249,0.6891451722355323,2679348.439093319,167001385.58610547,551479305.9208186,1552691259.7274692,3087544826.1904693,4369739939.8200865,4040346488.597983,2974096217.147169,2033801744.6092944,1244328895.3441777,1288041370.348657,1739146988.6971445,2043712316.8733401,2050566713.349509,1978632026.071768,2271649080.906433,2209806403.69378,1513593662.924815,802154732.5547913,268560714.98054373,46263512.740424015,8145512.162970407,5221294.83901615,0.7578857262799329,0.04748476032970039,0.3635950073159201,0.8435869639141599,0.01223256888541746,0.9475839518070187,4047471.5469832323,15387137.713074993,39771777.50025036,111296502.30632487,129842311.63545793,114870367.2364554,148781162.11963883,173108557.65210542,247527538.5221934,302706797.1486771,354836579.9598412,345932250.4720453,289553035.88513887,171759086.63348192,129562087.48882718,71747202.0969749,72497607.57287787,57980583.23280343,81917425.3483277,14710149.373933012,0.2209447009741038,0.4062323836079963,0.16716524518188236,0.623796474704533
2,0.7241818264027471,0.3979866209373687,0.23232435466975376,0.43195487154557977,0.7724148835452331,0.2574753383349361,0.12023784463725928,0.14660564323219483,0.6828124391580251,0.6924612708612546,0.3994897847121608,0.32971851146134634,-19460450.03706446,-45554152.52960208,-3274412.6246810392,-136432.98900452675,0.6946748897614683,0.8589496735688701,0.3969520173642912,0.8619909951423748,0.30874387995963504,0.5021917150756492,0.9173085312205231,0.8978172820428706,0.08705720598884681,0.5066316775181023,0.8531342651618476,0.7138416793272079,0.4311833839622542,0.90433485618032,0.8569896794588482,0.5193853092091608,-1784658.8515378505,-6679842.110244183,-119795451.45039937,-300371172.71020216,-471771224.02294725,-517485126.6986152,-1188339508.4961236,-1550709901.48063,-1656674842.233007,-1467665220.1920764,-884572952.8229009,-681952733.2993349,-1048813134.3148437,-1229989870.7850246,-966994570.1477523,-713552458.1942791,-575252911.2484416,-266121145.25261658,-170772002.86994496,-69211562.31104383,0.23539315487022583,0.38713436692019554,0.1953526504048465,0.09678980106226864,0.18764834643613515,0.923180225075444,-7335884.249047513,1311486.5189810754,-41268482.64091792,-42315187.145716816,-400882784.30028754,-1045174063.9991341,-1798714806.7347925,-2949748452.3925033,-5779867806.091706,-8523675195.285194,-12724776216.078424,-16343201096.816101,-19816168222.205673,-21934431333.529663,-24549839081.35003,-25157274788.44633,-21840637314.60764,-16229272560.61461,-9613473484.977015,-5311843756.96263,-2804060756.9328938,-1100669462.0049014,-318263399.723792,-32908971.66842933,0.6565094929787375,0.2969072623826813,0.499391203753644,0.5499951376738048,2682129.1258020457,-11238978.828287305,-119491821.45161934,-126842223.86658803,-640532155.8640108,-1633834727.0060682,-2632946993.2714615,-4891111728.370161,-9449744888.858305,-13812417250.866209,-18820720643.23993,-24978189241.251972,-33752510065.96407,-41461522625.84494,-47481151006.41813,-51265200294.54113,-47560020490.144264,-36104389968.47739,-22404701076.867825,-13404154737.010157,-7153860955.613752,-3371872023.4155903,-1622396464.9543707,-157168721.517155,-58551874.85130579,0.8615200262398397,0.7410931198385378,532006.4398601191,65719295.201546185,71672919.6811308,89321480.38148072,459050430.7879533,433428031.63877004,-675166096.8803349,-1039137147.2408112,-3203643991.479261,-7043476631.574711,-5963490900.561779,-5232092825.413503,-5128235094.466986,-8714075884.655521,-12191767112.757557,-20367560569.040043,-23231596731.88396,-20388087964.237465,-12600892280.89529,-7698669093.700466,-6648363229.843217,-5937346968.429036,-5151069764.592386,-2645877961.1906223,-726787797.6933786,-80950383.44874299,-49738953.51654826,0.7427579477961692,0.035112758897401175,-24341810.745980896,368590775.5807827,1083094565.4132068,2455569980.728249,2486337561.025276,809049851.625203,-2751393955.783608,-6705643357.525924,-9908504820.641901,-6675566191.675127,-1890387560.0271637,8028276739.681232,11668711957.870316,13171864046.896435,14575043860.224064,16290198474.588917,17117940234.755144,15040584940.191763,9747659211.38037,2172469287.266893,-4879728703.405862,-9150941000.493914,-7403114210.408076,-2506328256.4753976,-514959117.7115904,-79545869.18246321,0.7161477009610548,579309.7346011265,-5016012.222668078,1070653246.8282934,2867181489.493034,4208088026.115808,3652146817.6414084,-138625910.50670636,-4063723233.955978,-9581741818.775942,-11284924395.336334,-7667310572.87468,-991429968.8061849,8347320016.317017,9740058170.955824,14421344891.965649,25394279409.517002,33820544336.80124,37155501500.34909,33819095291.58892,24046487136.993164,12270554015.096928,-1389811067.4831312,-12235781678.37716,-12846424291.7908,-5907776628.67912,-1264829390.6771061,-198530643.7458802,57164.02781970217,23034054.25647115,10265763.284556283,1369539136.3614757,4466217736.057268,5588235990.130344,3686248050.7824173,-1499883676.9733052,-7349089526.249661,-11735862866.341557,-13760948928.785332,-11747981665.006659,-4124365158.412528,1221898592.2133305,2582497110.407312,12312344752.910234,28792390906.28187,39793240492.8066,43728157300.64586,42525844666.88227,33204764329.67886,20033502628.649548,5764915739.008905,-9968045728.02022,-16612187396.884083,-8748637538.232264,-1766616066.7575753,-128121842.5588568,11392615.608491832,4055890.6801012675,183024589.93324822,1691676528.111971,5290306575.729624,5752799501.297974,2864834319.9081917,-2536314151.492223,-9062823728.563126,-13458022129.51229,-15679174642.713497,-15981197702.161917,-9717776947.076567,-6260701637.367603,4022529781.4165783,25534997369.584927,40267242805.81036,45652190080.836945,48995136866.41938,47060226094.183266,39613532752.2603,29459998775.064117,16780696062.071522,-2247959033.010154,-12905395666.577448,-8384545313.29466,-1540807343.8683243,-78941098.03899376,8124523.0460159,51049058.16376062,303796797.35033125,1849522831.998486,4406484395.217608,4587308745.243979,932753158.3816186,-3998224655.1450624,-10777086599.066906,-14923950911.629559,-19490443836.922817,-22972288442.795498,-20732267636.491257,-9405114425.390476,18021695735.73175,48219192352.83616,55915930854.21182,52544708354.471146,51031639703.44648,50357465122.55263,46516422484.53859,39644726713.443344,28105938301.00686,8095473140.764656,-5965900076.446251,-6100370128.976973,-1223965736.2456424,-18288709.748451736,10733549.907474546,103604411.70369904,451879765.095764,1734358768.0048203,3496565062.1683235,2522495002.1145797,-1259574291.4576223,-6104084249.644928,-13968145595.935,-19511578349.88761,-24973635362.36318,-29916756653.584366,-27145094378.816456,-2796202556.462537,40886474192.05944,62938037933.6405,56475082846.530464,47233635956.89494,46416083109.09328,49107426509.4522,48354815020.04063,44531364960.38003,34996040109.251366,16933160854.766659,1032270279.328447,-2757614278.278107,-789995116.7171926,80490398.3863033,6790382.556453376,139003284.76276943,527792484.8670361,1435674939.4262211,2120325232.996376,136489687.21762848,-2752469522.5584726,-8354786013.790131,-15972188055.513565,-23850769397.942036,-26041706197.616917,-33213110085.68603,-28805440264.85538,6024130817.916643,49229877005.08155,53979420313.241684,32648948785.52868,23861200782.83502,28460664675.2205,32581297355.093765,35666109408.10718,35520753206.154335,29794567544.403076,16602822973.612099,4037293725.8378825,-967466387.4443058,-64060935.02931525,-6658669.203819467,5112805.842259058,102409938.76491295,406739644.10472864,692941088.8223163,515154030.7183848,-1357686590.6790183,-3917412797.107252,-8493030847.255105,-16418019722.308823,-21972837222.597775,-30449227117.29207,-46084369834.427376,-34632277964.9626,7267273108.3008175,34216972049.850754,19282210042.455822,-5542780294.748128,-14522013533.684334,-8101317978.812504,617107860.6543543,10310669131.186247,16630404971.857504,17699351248.32588,10413992894.339106,2291132456.135769,-320909759.9931673,162555319.67724663,31489488.422207925,14749.95061856485,37685241.47468121,179680628.2073435,195306119.66021386,-67125548.78330155,-261144060.2258663,-1083125867.7248924,-4504711384.751428,-11349089224.799809,-24197573801.20838,-46034903784.8779,-59824160524.36415,-35987316641.21808,4331159915.356923,5891079169.91739,-17899356823.529186,-44227929349.18307,-49067582123.092354,-38997991290.910934,-25741931561.62236,-8776646388.594604,2035828681.9561226,5436539661.179404,2304460596.915449,-2054614054.9670045,-863673948.2087523,256949041.35575742,88772460.77217402,-13744356.433272664,28408568.85421753,22720022.223219365,-15462781.16436425,1649723880.1984615,5335398370.010693,7729497295.292818,6770202876.783883,-3833368220.5847287,-27074828102.48474,-55788985129.635414,-62860708474.65801,-25153747914.10671,2967708068.642,-10110110124.95723,-35072128951.63014,-61042006873.1624,-57817171699.101494,-42519396009.60401,-27735131431.254738,-13908032033.913088,-3918516786.6474566,-2033422382.2147784,-2056273566.4437284,-2944214804.750192,-1352714741.8263102,576167964.4284776,8197223.446319905,-4161262.035416732,26331201.543507997,52894798.99252337,592351297.0371133,5400281982.118243,13810008256.768932,18638963617.947124,17549510458.10772,318303705.4243798,-30549970029.145546,-58740960893.99449,-51508417219.2429,-13307595527.964125,-1176103339.5104952,-15769912595.078081,-39228544680.271645,-53414335469.35607,-44853669894.21144,-30798315975.817795,-19029370092.680084,-10861078963.987755,-8076554350.018666,-4092356262.4286733,-3450127382.7051044,-3528742550.1433425,-2028775073.0519075,652085281.4676346,73127108.93874803,1937728.3196060208,24411719.98859953,275340510.44231766,1687329924.1823945,8917292054.081436,22317391183.13415,26265176688.958813,19574558945.035492,-2188444313.285747,-38150524409.52135,-62242158748.9462,-49155371761.01756,-16325176574.920748,-6832351988.069479,-15657958154.056595,-30722509938.846725,-29048804518.864273,-23969972633.50278,-23442629059.64115,-20193539865.54103,-15879410410.659681,-9939920559.220533,-6549518722.4330225,-4319783883.044753,-4203816751.6784735,-2058045757.5608652,627502943.8613335,151312833.92334166,0.7848601690082178,30022095.377025083,385067144.3586609,2750688535.5575366,12018989050.863016,26185500729.449364,25261410320.922325,12608442235.456001,-12776358750.990698,-47641178289.2001,-70655377419.84752,-62422845539.99183,-30079019636.90661,-14852916765.884392,-15849437336.13806,-17402332847.336643,-15219597172.590313,-23680072909.398182,-33513591486.449898,-35127351849.18972,-28394338270.159412,-15906907282.534391,-6989455775.738285,-6244772227.46499,-4787996479.771635,-1720422736.3521574,320637366.0932341,55453047.03563017,-1237465.8538537119,12152984.740131121,516396370.33285064,3134010272.462228,12190204637.933884,23209559939.853554,19257669432.663906,7450099003.716631,-14518822222.121567,-49972724737.10995,-79731178940.99963,-79008264886.44028,-51968562297.667595,-27621637095.93641,-19402317012.01023,-18538773220.5371,-27162249589.95268,-40622500893.54835,-49902095449.1276,-42295870037.1795,-29629992589.129757,-16577683716.704132,-8621239152.981028,-9046622775.770802,-5854354105.159413,-1578353602.2857976,359306904.75817233,147081555.87914866,389910.256437792,58911601.040439814,754709523.87288,3164552739.876558,10358693535.208815,17701383085.296967,14606886369.493547,9036651221.220592,-5364623343.667673,-33392233628.583763,-67834112810.74044,-79522596412.6107,-63046465809.32179,-38554468100.74385,-28158440959.772015,-33229107585.528683,-42381278158.77627,-49819269793.3167,-46740199281.99319,-34431397267.811035,-23061272001.592937,-12700827237.952948,-10525582664.519453,-9971897450.44697,-5779022552.502967,-1201089405.030195,218387353.92405677,90664427.76159836,0.4900958473014817,112061408.34619115,669582759.9225237,2369952114.086212,7294948602.460047,13059530989.607527,13572667666.967878,13870965185.191269,10312590915.736116,-5129299981.568241,-32392823680.015617,-51409742674.65274,-54948759114.38048,-45784656658.62933,-42226947875.454994,-42488518388.238,-40118065735.56669,-34445739682.369156,-27097666908.100105,-18457642008.381348,-10562447743.153818,-8683330278.723612,-10774208446.816496,-9546891284.25129,-5558917589.137954,-1325092326.236044,-107754503.82323453,-4386852.616551946,438900.0035780336,13868478.107570825,348016529.9715375,1394943239.156751,4119962720.7964554,9664363675.818323,13095850645.062733,15646789656.927097,19100301334.466076,19919097453.369957,11850973993.818985,-5704675702.288804,-23159609687.922714,-31967622943.911854,-29984958813.64501,-21483980244.383686,-11044896282.391073,-5757077555.243665,-3422449246.2562733,-3149389884.225656,-4218403345.02943,-9191277754.764713,-11065447512.40217,-8137421310.587582,-3828666587.099826,-783614930.9695107,-104869732.65019059,2478792.3519886564,425184.7873448663,200700.4179302824,284364344.14047956,978213834.8047897,1838910711.2896428,6934401228.876644,11541187793.226301,14798745497.46614,20276691889.346535,31594312016.453075,42892467772.98585,46746850032.40409,37802584859.77991,30981478374.471626,26581004601.576725,24794616175.743496,24298051122.39963,21195961847.880413,11266865614.249062,3869971455.923245,-4288475496.5013685,-7849004807.276381,-6825502512.303268,-4214853231.880282,-1901932523.7083151,-273801050.9885294,44355137.53657571,4576232.41723064,0.20978484996320668,0.9379724474027804,121385135.53474742,679358702.2069725,1590919615.093281,3763553449.019175,6744407790.687041,9827062294.522917,13345296651.353645,21427305099.09237,31157753618.66358,38717429640.68774,41296374144.774445,37868081865.844444,32064697987.88279,28699594446.475483,24046828303.742214,19065602721.47669,9682512986.96189,2449938594.975453,-1409418934.3017178,-2684968714.1570077,-2651225785.632498,-1488198465.2507126,-348641516.2158245,-35206890.08613495,124841883.25770861,0.640590597417376,0.1625727378071502,0.38771201769624153,27869305.984139558,222608099.90207452,802850033.5565645,2038226837.9276567,2936289714.450765,2408933704.224646,2185969864.5899544,430613829.2170207,-1006265992.258092,-2724005172.7952013,-5508053947.654238,-6005211215.483289,-3883255083.7045035,-1334368315.417956,778304875.9349662,3090826793.7141147,2202008347.63695,1323996337.0580616,332084715.09920454,-342676726.9893282,-706383301.6764278,-405703955.04915595,-210642777.27151608,-46882777.404657565,-6377252.63934859,0.7437650980171747,0.6935746097264306,0.18381316146812787,-2031174.6233727264,-16581707.597672347,10686251.780072425,242388914.1680958,648213845.7504518,635683743.5704734,824837829.965949,-740816027.1880561,-3619388075.6377535,-5177284718.708267,-7073958976.24613,-6770098405.720186,-4669450012.149867,-3448422404.343191,-2119096859.1461334,-1377828873.566646,-541943581.2154508,-832717616.410751,-1415571669.1411972,-1261698050.6386712,-697692657.1340271,-324773243.71768886,-74572242.64457485,4960491.0980686955,-7870716.116885018,0.9211458483187867,0.9999675985449976,0.3002756536524692,0.6364958188438204,1033510.1666651984,-13541593.326030232,18824727.81584888,122030955.35505646,524775981.9750064,813525384.7602223,567045943.3795185,109242694.63565569,-464517932.20340824,-1360397299.8620913,-1317970864.1761994,-978737038.7833413,-426317731.3305125,-481111481.27351785,-257830584.5054122,-303429762.193612,-399773592.1732962,-695294059.3506447,-414150094.18942463,-165858340.34358326,-52975042.38958689,-910713.680746895,588472.0955998941,0.06309954312315036,0.3841115352314287,0.578131502379691,0.10313940945411804,0.4942597922086114,0.8736909686900318,630113.1562216949,-937527.9536881689,-5160535.575617259,8405646.083971139,69504841.08461839,77148345.74298573,61878727.475457,154430134.65174022,255063070.28443554,452808525.5820128,469705638.56516546,440725436.1618642,343343770.9750012,290589570.5184194,164734610.56165728,25445991.251153685,-42571123.02379874,-24916307.43657245,-34226176.93946836,-3699254.7271792893,0.24013734866163028,0.5914957604916015,0.897453854132719,0.777030660357738
3,0.720214632806559,0.531430272315044,0.7014765650107074,0.45540819029929,0.5348125468029887,0.12932657737347242,0.7130161656894027,0.9616451599649445,0.9616964615707854,0.5452877160576964,0.14069157960245116,0.4450734853742676,-18233224.204210218,-48242927.101673886,-9256845.871361515,-385701.8983802072,0.42224714307733313,0.4165767940837154,0.2192259968281869,0.588065074546589,0.06600553589723324,0.11852619424933242,0.7421551293486809,0.741668544748245,0.3244997731745868,0.22525370135962774,0.960372682942963,0.9423184630362742,0.223913524770328,0.33473327068434244,0.8134952376704533,0.8225719605314665,-1633149.6721623652,-5904706.873522963,-103694417.76934719,-227984073.11109096,-261077280.75072858,-212820262.36131385,-546943261.8264098,-935691239.6361231,-1179454952.0585253,-1118753891.562855,-421866498.8388369,-361793616.26905835,-710090144.430269,-787572064.1691151,-650728744.4593081,-548693856.3821434,-419190526.3412716,-105518493.6940646,-95031207.9483759,-56504820.71969906,0.962751925407355,0.10200593692988658,0.9288229667206581,0.2245317625144021,0.7588532384788848,0.746482278198213,-3788745.376484436,-4928989.906800105,-17469937.171157375,-5573039.29324911,-97087104.25707999,-442172052.1509227,-589280549.2534192,-391220962.9019984,-1603910594.8500788,-3418178029.0976014,-5671876074.400641,-7351000950.897714,-8727332220.957289,-9544319210.215734,-10809477857.615099,-11933563981.6459,-10400771498.544773,-7404647534.494026,-3970296755.422459,-2303446362.0227227,-1318347550.4056454,-749768805.7501911,-268281771.2362184,-38549788.167004,0.9852430903654479,0.9990725087933214,0.8572479302440285,0.12862912491857337,10538754.266677039,-506197.9143627558,-50903978.957954966,-144982770.5317674,-239045985.38764414,-799489525.8359693,-1142394401.6839576,-2130486023.1104207,-5620067384.351562,-10352193531.49221,-14327935129.488974,-17350863066.835888,-21614824081.70559,-24987299067.67452,-28343311561.01224,-30917384580.28041,-27536241151.371223,-20416667790.07502,-11555300994.501457,-6696244520.255179,-3661229838.07379,-2125222970.6943064,-1265844877.9515784,-173354907.4223844,-55942946.22920523,0.4404017213477833,0.905585275008698,-1853220.5832626629,66639715.6492716,30916422.965417832,-38933276.53642144,-612843979.3383439,-2289298743.591738,-5697140888.594707,-9351943440.20382,-15220727000.621311,-23640127818.87265,-27783348103.180164,-28793810535.26237,-28434653275.828995,-27154267573.793232,-26916982771.773266,-28822318439.942097,-26437188710.194702,-20130754537.022182,-10577385665.730434,-1682628508.3093376,273950213.4651015,-624240110.2279633,-468487604.5669419,-561744248.0495135,-372645463.46260196,-52155994.57201917,-37222036.9733992,0.18258197963359424,0.4979994344512285,7094272.174202158,-125840375.36954305,-632787761.8534008,-2245244986.592596,-7043331837.244115,-14478366947.809387,-23785878725.703583,-34682185821.711914,-45623620165.89479,-48861548763.40915,-45211313422.040596,-38744882999.237404,-32774546811.5103,-30163616825.86604,-24545003627.256584,-13278888726.607662,-3324173755.1664524,4709874060.585485,11412340943.823046,11568459585.206951,9612070151.86726,5329930645.222069,831242898.9239368,-167688625.22619566,24341108.54039197,-60202210.32300681,0.5069643259947334,-284146.5011434664,-36824967.23098214,-514602610.919274,-1675520708.0980928,-4833497945.030934,-11098550992.701385,-19535238948.354626,-28845730388.288322,-39298209245.83639,-44937932348.99501,-45852470733.55655,-45557082051.74173,-49225674528.415665,-57727395611.297676,-61002275104.126335,-52886688028.65504,-36059931964.2658,-16885977155.637451,3582773746.1982656,11248112043.165737,15339855098.737915,15255577895.75484,12136427819.707195,4677449304.827024,657937339.0428174,239515369.9268994,-34507330.15336519,819890.9140997725,31851493.61250364,292652200.4171809,137961554.30647138,-931261171.634369,-2744422592.897273,-5339765740.118675,-7628774226.322758,-10913277768.916307,-16180230052.830128,-18985764526.561752,-22325686568.855083,-27019222939.102955,-38421309590.00072,-59464886461.51745,-65487063037.54698,-53412579412.846924,-34935455475.957344,-12545980378.32803,4514095759.477747,16190967313.365562,19451541701.767036,19714116233.716053,16782229490.794369,8054871840.268087,1620738482.8326292,409011050.51983815,90263184.17441678,-20169624.856280092,246194141.07637364,1236039679.8424537,2184186093.2520227,3470088253.5990114,4839813358.042978,7730486594.308566,13990467882.718227,14004552311.227596,14954830642.318802,10994369628.3941,5712975517.426489,1439440373.368798,-10333774043.463856,-24612698903.850975,-22444865394.58485,-12386157030.195292,-1048303630.5109239,7924522713.652674,12944916327.350351,12976211005.679756,15943596590.991472,17095978193.214146,13412196088.956167,7838100845.24764,2109866470.1707683,554918428.0392787,126216015.27023402,13195127.038482154,412221583.755603,1720665960.78521,3933957312.9929714,7801988701.830104,12751350701.649487,18340390754.37321,26721389064.88829,33284042939.187256,33859355328.80251,25843672388.39019,17730534645.744286,8008144298.985911,-2061025801.7641919,-1118317060.3672075,12309489415.124435,19732013374.54075,19485391241.43322,16012534454.843637,14388830092.317896,11250802700.74053,11784067567.609604,10060702407.591875,5338633092.977919,3445424453.588155,1905571397.347184,746555907.3927485,40189318.08350337,20877270.72938307,594747914.3626827,2042535005.855459,4230299249.3292117,10214173341.588787,15583330420.239496,21604969151.625084,29749327523.45276,34950142396.045845,32925158430.915127,24629295604.176395,6431825717.5929,-6159259875.687103,-8123512354.946151,10632169776.188875,25361096095.26258,20330008864.778122,12623263734.303087,15860218725.626421,22145860681.353073,19767323976.845413,13400113371.098368,4305321103.469376,-2912527976.876115,557265516.8125201,3031022556.220029,661162368.81777,149862039.98783395,27996529.907819536,567556470.6430255,2265168333.9057927,4327713506.908743,9506661035.907322,12983452333.15186,16820241132.440466,22385154594.789543,24933749700.494717,19521570602.002426,4423990344.684595,-17877176020.186707,-27527876536.50665,-13082979793.935568,19847661432.13978,24662025438.37049,8903490584.174946,3070503402.659317,18140647409.31319,27766225234.75047,27529216777.586323,14677881540.902508,-3374226736.558916,-10619196356.54405,-1990463024.35272,2445925317.607291,960354173.099934,62175101.55040102,14557739.73080254,415048408.54875827,1815957893.6665287,3810396090.880576,7001469209.893656,6303076829.316189,6270611211.00781,11649382190.332802,9295725773.941751,-6236766349.405355,-34097879555.211838,-60273036568.43845,-56080850008.59549,-18148654494.66263,11465775126.817692,3444402989.934846,-13132773555.329784,-13602815897.02882,4864799423.926492,20768032296.86154,22417338521.854004,5743384322.063493,-14857636188.300829,-18738184115.813892,-6531062854.615866,1276642199.2121577,488427595.51708984,58138287.792852744,366573.95328752155,175919528.3999565,1021660480.4007626,2673812074.9815917,3887513082.1249003,-935453060.911565,-1554736036.466287,-1454417936.822223,-10897298187.9282,-40637869426.65949,-79718993084.4957,-99362772512.6498,-70245100876.1604,-18518862205.013916,-5643919971.462138,-11543231779.484724,-29284298788.131714,-32337751465.64195,-16559122985.604273,-762278062.7490098,4106711384.3687553,-12491657260.232035,-24862282306.32473,-23414612246.026714,-9557808293.51331,266473697.24454144,166962061.60758552,66433743.034568876,-9022015.157002939,51893382.55447782,519069576.51649827,1564735146.9498,3032357783.603693,-3690447178.8123956,-3801316770.3157363,-7871677530.376604,-28891674993.928047,-70329543884.16203,-110759896127.06883,-107305211208.78242,-51735696442.99074,-272643947.94234324,9866190898.158707,6352132084.070629,-19415700768.015217,-32410095408.42877,-28866819485.41109,-22081939351.19459,-24535863865.10159,-28654977946.25842,-28467032134.724022,-20723412174.77605,-8994137208.625937,-113176311.779522,143622248.18175128,-7484098.107693636,-1951642.9068852786,-17871043.169825934,156196988.86903065,1457800366.082661,2678464577.285948,-3839474804.5421543,-1175584684.758037,-5267320880.247595,-29952421964.947845,-72561791962.16714,-99509769411.63649,-69076436664.61938,-2675741200.9117255,40052788196.97157,55112154443.96991,45554677712.93677,10782434274.291946,-16280902239.725664,-29923075444.811516,-40783724936.6223,-44337724448.42924,-36207524900.72574,-24036809255.53926,-16641976469.607746,-8371237429.0844555,-752597816.8332044,85323202.07707079,-3401327.8849287587,5728389.256114877,-31571535.660711177,-169618911.32138458,1417857989.0630596,1688849396.945132,-4726236542.909627,-2540798485.630416,-2338203704.3384166,-17180093785.35898,-45958259282.16818,-53386345311.71302,-12880732321.210638,49059178562.42119,84891931436.66074,94338937522.04875,71870627683.41399,38793220424.188736,-589122423.4885552,-38769890428.34674,-58985062667.975395,-57043553760.173904,-37123665702.753624,-23501571663.618725,-15588454865.891525,-7530671727.727948,-1576540388.839118,-55722641.02514418,44921597.73357558,0.7968626324264477,-7066429.449176239,-293534328.2882387,238420752.6803387,-847654821.3563818,-9651506075.046782,-12560416647.112509,-8568541956.98835,-7183552497.2948065,-13283963051.622953,-8950835154.395798,25684962965.907417,75504352703.06067,101799953740.9061,100234041443.12025,72042363464.58003,38416315856.851875,-13898197340.80494,-57329853663.942276,-75529676709.70934,-61788500638.14001,-39894599221.85533,-26964510540.413563,-16207965480.718376,-6788186105.710095,-2029532838.45662,-218650669.3247953,-81890782.09636915,-3257064.9897674895,-12750794.090967048,-541843202.454678,-1851441002.3997552,-6754729790.580236,-18404622081.142147,-27794159148.76828,-20215202482.207115,-9031811157.653828,-5658442906.157679,-2251314145.6139727,20372825847.96976,55931215566.66984,76599993632.00189,70510886323.95964,45853280462.04615,4895211675.703062,-44095174098.3143,-77286205751.07906,-78115530327.67345,-58826613944.65759,-42348422140.321365,-27950985585.65614,-16024843474.8749,-6916943976.252624,-2171202492.703993,63395849.87934946,96703349.89233662,406181.86028344336,-13531691.02502625,-659351115.5607128,-3879361660.9630837,-12472360392.163742,-26923217207.70305,-38003108442.63164,-32792678576.436394,-22296465336.743584,-19121851907.373726,-21222260980.333935,-9373355947.712467,14152804993.554049,30864959734.26543,25405429050.931126,966473269.6245446,-35329166994.88191,-66880710840.9479,-77022083450.97766,-64867686979.680885,-50618156310.19854,-39212561522.77985,-25615736617.169975,-11698887248.535353,-5560951838.069169,-2114799393.6734922,-117289499.6725887,68866162.27214222,0.8703025858360246,-71027241.20036986,-985359667.4703275,-5722215075.072504,-15950049770.0052,-30322961247.142235,-35386798913.90244,-32534471254.948776,-30605877907.58437,-31784660778.276295,-36084091403.6784,-33541642477.134384,-23262981949.42915,-19132706907.086235,-27569964669.602524,-45232095678.489204,-58033023843.949684,-63395854330.31466,-56688494836.37211,-45793864039.7689,-38218537321.42305,-28496289898.11996,-15660910708.466877,-7216685098.954443,-4840595032.066009,-1778157513.7474527,-225095850.95984444,-4812411.467277026,1139014.3476851739,-63763204.61364549,-1158156710.4927795,-5155294353.134204,-14696688531.508564,-24310015352.665646,-27904365825.85813,-26911669534.791798,-29926271644.634296,-32277910926.90702,-34197793943.958828,-37369627899.790054,-40668513262.21593,-48058909378.11291,-53578074369.60785,-53477494829.25166,-45876315600.914764,-35686652662.0502,-29629937676.93585,-27636447258.461895,-20974403007.44625,-13224696219.97308,-6869856897.081113,-5033131486.491873,-3382839774.772227,-866592904.636509,-197124625.23136464,-1737913.6948274085,1103420.2515205157,-4064978.065716413,-903593366.3889468,-3385006416.020287,-9286671508.035084,-15509081267.863598,-19773511818.329548,-19669371035.165882,-20978721495.35774,-23843769337.713104,-22260681446.543724,-23422603933.04697,-27056704173.724197,-29878804338.141052,-23942846422.621723,-14521013146.618986,-6106493154.454012,579010290.6677551,-3657234695.4473543,-6916738137.193123,-5350587296.453788,-2933535635.568138,-3000646523.724424,-3019854633.2710304,-1647079371.9920506,-173852368.80604517,29626968.550523385,-3208455.5137762893,0.7058239997068612,0.22900785384009537,-309630841.5158298,-1513191905.178882,-4604288564.035483,-8201021185.27163,-11155651581.793669,-11881963892.194048,-9008043772.300333,-7573853748.449558,-7827291050.129032,-6585834106.508768,-1772447041.817638,4037258318.026821,11892490314.221209,22048743450.62542,22816142325.660145,18500344309.66616,9344037841.78939,4729647418.785,3380805587.270519,1214831401.3788676,-1450955990.2458398,-1641536727.982293,-521488378.0985214,-58116147.50769915,101953341.980277,0.7468354679951844,0.3654142013775675,0.47209213200651445,-48503902.88750686,-683731578.0759368,-2149088697.720752,-3574402136.486293,-5644194038.366277,-6637257538.147404,-4161214603.937649,-2568389013.9709125,-4632455262.748145,-5418370699.292884,-5853286378.28143,-2941465114.3529162,4333459100.802387,7792282681.531952,5014598940.82472,1313255427.0427318,-641401812.2802937,38558714.00873317,-1310268270.582447,-1021877022.2706841,-1314240204.4180286,-1001400981.7842356,-316595459.2480703,21450352.9438275,-7941276.741677606,0.6988579491998611,0.044166407068805924,0.39166550794562605,-16509472.976595504,14799886.92283973,-418390930.8769221,-984311003.3654292,-1088230530.1136112,-310430194.1402951,341727931.48085433,-1229952009.4705684,-6266606410.775166,-9722880932.459272,-13269421138.41446,-12430441250.138247,-7964398977.1731,-6852768185.795785,-8657951553.572094,-10281100512.506136,-10249122415.477879,-8228280231.5579,-5801304008.918092,-3452047660.034488,-1485070182.99488,-533063012.51904845,-135205848.4599757,-724203.6197212705,-9312849.062694829,0.8200789273161482,0.9871578674368927,0.3205689403080243,0.33579122524836535,-6444169.804740491,-254959411.32677186,-293252835.38317794,12209452.31457685,1682360253.7824836,3211142287.675839,2755351625.5695624,1703479350.5626519,919843752.3371166,-409445821.16012317,198229177.15045756,1192736012.8837302,2634396259.4877205,787776740.8316016,-747095394.098083,-1876805028.3648105,-2401060164.285607,-2417578096.2789636,-737847231.6016676,-29361405.516877834,-33562598.11344963,-472144.49080841313,503503.00364754745,0.02852910826077648,0.2292517313723289,0.8154220328432875,0.35510264813909276,0.995242408736397,0.2695175607775461,3287060.91951262,26806002.259177953,59108209.7194313,85255927.39713679,187571779.1597852,295104616.4388824,346613554.1067942,596408819.5274963,959937638.6762294,1569450992.0731382,1741935661.1417255,1952719958.506102,1975793504.8980198,1609296718.3301957,904778330.2453506,272937067.92663836,958062.2372245402,45691501.146775186,131489751.84399582,31564951.147361428,0.8558766806247277,0.8957883569216477,0.6212213430141507,0.14108529658346003
4,0.05762219996792384,0.6131979279918467,0.6404542154849885,0.013317817846774327,0.6807578461402809,0.4065234768639667,0.7520747637246011,0.5939284862840809,0.8088655069313324,0.06827780371649184,0.31728599946370106,0.9350297472257004,-1699997.0733552726,-19256373.019905776,-17286331.277933758,-720263.6504206451,0.3745945439783167,0.40452916759689883,0.4869383849247463,0.08100201887881187,0.5057876298623168,0.7815756985769955,0.2531547946432232,0.7769187270715258,0.7594647840587138,0.026854562831413298,0.23151529348364874,0.2844812312836179,0.05028726400388406,0.34744338925461704,0.2379546189915014,0.7361753883994361,122814.63056361451,-460252.271018845,-56577672.150941625,-111334195.25904359,-51847688.29472755,-77873109.43268245,-111343272.39280626,-294066700.2823689,-499195500.4865655,-322599675.0653062,-333723310.16550833,-483692850.20936453,-348674728.60069215,-207468426.46824592,-137150476.6862843,-132823009.69672963,-78861301.17140923,13120909.976464309,-16171526.276404498,-18747849.56831555,0.5685340640194663,0.7981106824043298,0.9907312692533521,0.9672905738894836,0.5853420496111571,0.6971667420179396,-701754.3522745725,-3346772.7840852053,-1352939.1167226355,3743719.378315124,1219265.0752192573,-148129836.06073105,-205419856.00185686,-75989788.26062092,-120574107.25790751,-543973676.9751228,-967145130.0938672,-1185699980.9821634,-1280987435.286011,-1822017902.196498,-1438710474.532203,-498961908.48110837,639150973.9764569,843226485.2339773,967728420.7288278,662559616.2238561,301811800.2736485,-37472567.68573162,-56508218.11261869,-30222881.877532147,0.396318688665679,0.730188998538311,0.08126776530322433,0.8326801877259384,-16118518.994795881,-9518603.887932304,2251944.376542111,-158885271.74904752,-155739689.078958,-264710627.8390041,-222216557.00956136,-905110586.5869559,-1722283973.938691,-3514554145.754295,-4828914475.452399,-5972745627.412011,-6604737002.977227,-6813508895.948465,-4986548894.684933,-2252618938.1654716,189745338.24622515,1418593248.261321,2149774610.92798,1881844561.446539,1389684021.2829688,759543460.2901944,400525671.7403459,27863513.270630363,10332698.009069871,0.6995597176823198,0.9583784324430009,-2588681.015714772,-52218838.25834233,-51782914.976007394,-88293693.48478545,-634618322.6188879,-1888322144.7776768,-3093393088.2151046,-5126697510.711333,-8117292372.184214,-11525055421.161753,-15066702608.150763,-19247347634.827583,-20814028483.170998,-20026788882.966866,-19203782800.640358,-16624200284.730265,-14899793060.594791,-12468688817.637306,-11305144370.813349,-6530308393.977904,-3663481379.441211,-1094223427.1882575,1499143759.5460923,1793928019.4655666,535439751.07414937,36078449.28599412,4635814.911281064,0.023428645298178674,0.16502032779281217,-16496011.851239525,-341702222.1424407,-1156162917.3055446,-3379308976.5282364,-6272679186.53145,-8808223017.585775,-11850468666.206944,-13910070767.735811,-14111789448.956615,-12822112755.750294,-12638972633.05069,-14471362205.847383,-13620511524.3237,-11268186814.735298,-8011448870.596458,-3586116792.5044656,-3313957870.6025147,-3596164665.7018294,-3323012044.1248183,-2314674703.708366,1810173718.4177666,3985231493.3566756,3249159982.241406,1413254281.1303332,216371577.69122645,-5997593.703860703,0.9165520216679298,36880.12313674494,-115198967.49502744,-1221326831.0578055,-3416970661.967843,-7100720767.715405,-10496214503.02628,-12793359908.957306,-12665545058.80724,-9213926875.326366,-4087787451.35055,-397790270.3533128,-435934076.01678896,-5288720831.69999,-3659323648.511959,2097925537.8902295,3781405293.2482305,4166179405.69266,1079489367.5645375,1346016475.17383,-311765100.02151614,1865138558.2736375,6976430879.356305,10209929223.83988,7594476887.260985,2889441007.6753473,337992265.1117462,39660540.63890535,-946458.2345424275,-30858748.445730936,-410623591.29868954,-2370195153.508345,-6933554239.6304865,-11030828265.503239,-12599036742.788404,-10513353140.730848,-5758980967.878843,-1077383498.0745313,3131661084.232524,3929562137.646053,-2839656270.504217,-8981954277.698286,-7228592190.146226,-1259176663.1391816,-1003611368.7388703,-5841674289.40699,-5164826761.363995,-7957215544.881407,-2874991520.557741,1126214113.1590679,6731118050.693679,13749680912.818132,12171824632.137247,4374607968.859487,372162009.7447552,73891916.17172162,-15826024.794940928,-221567993.34293005,-1315095568.4891968,-4586331073.209095,-9945758918.78977,-12656222010.893673,-10735952793.249004,-5758096867.16899,-805656620.0201681,2878040384.514021,1308589637.7131639,-2078591168.2194042,-10213467460.879402,-17130061892.370195,-23318601216.997826,-22932870332.475662,-16024629038.988054,-16472459747.81649,-14375806534.353558,-11048587329.004576,-7377292036.586735,-1362146578.90294,6126372362.129426,13636887014.330177,13707769662.8881,5673352125.125255,582089122.0031676,65791435.53440286,-26071163.11839896,-374400590.54525906,-1916174089.898962,-5973502269.085941,-10612106349.271828,-10636086839.5133,-5029741880.65659,-29387560.87694086,6049687981.575169,7538007350.855895,4606268504.833333,2392907551.027807,-4535336541.193632,-19628715842.894238,-40881597134.61964,-46653241423.80704,-32711463986.280834,-20427121531.746807,-17536917875.71256,-13859080162.776014,-10059815643.453089,-4362515131.766925,415657352.0516379,7546430586.10203,10066420789.400438,4921194104.463346,801340919.4068191,-46945342.728761844,-39318577.83392964,-513774089.9406277,-2158656869.6328506,-5948015449.376567,-7897074854.737413,-6089229519.10709,1903522971.5783658,8122507640.404765,13635356413.991598,13930583778.438171,13680471128.632635,13914778246.679306,13125821445.91293,-9324808166.127588,-48990352007.78627,-55944918889.84027,-32439833162.109417,-17394201699.630497,-13157871028.642382,-12383490014.300138,-10413974979.982208,-8902249195.52814,-8046484809.633371,-1669093022.610106,3760446256.5787635,3385211868.534342,653921208.2403045,-6369009.067830165,-29906253.407441366,-502952202.43226314,-2169274342.1671333,-4645913634.831559,-4538154853.239204,318625368.4703975,8545985715.688556,15224334150.100489,16923795666.347433,15628844943.463339,14388000124.061249,20478555840.82326,29005015399.89635,4341324782.62001,-38872969605.20662,-33890218737.16386,-6972612828.878108,40161517.310470164,-5776432748.818934,-6640485400.436828,-5503171768.376661,-9587393198.85385,-13445505563.776922,-9327160971.732126,-870723466.844328,1515079751.7845218,555336433.9025915,13483508.39628926,-20767299.826688197,-351026477.24710363,-1512223791.0816598,-2477053005.0523973,-1427172549.2979105,3630523058.326835,10256641290.534115,14608383642.176416,13027218932.671003,8325202512.792204,4601031494.545731,17688333009.900196,34797280034.03313,11563209328.559988,-20392661485.173103,-2521109668.834767,14522838101.126358,11381921196.664263,340986847.32944256,1381479412.9371777,-1443906622.1288967,-9224366476.583942,-15934675306.292686,-12963490657.235996,-4655643995.185421,233252882.91448686,31541419.033454515,-25046819.537686855,-330711.09626941645,-137183489.14103377,-841332354.0467061,-1017346827.0576634,702967663.0251685,3371349260.218656,7002507738.457482,9001276401.44794,5529138002.80219,-1002982549.746233,113981064.89090034,20987938829.733234,36525223094.61438,9250812074.08935,-3718132593.8957696,12606906029.252552,23858812264.304947,12810884115.315788,222621722.682847,-95032859.47000295,-6527013180.37395,-15529892543.640593,-18465140544.34836,-14500540289.650455,-6215788597.956401,-95093381.46537147,-92819674.45019133,-55635899.78134144,-1276205.3661046317,-39629529.8404257,-309260365.1728264,-219284214.98269784,1209222634.3643444,78341497.64308546,1306307190.6337335,949711509.2312105,-3786329650.780941,-7997749993.637084,178469738.92467532,26958484501.716698,32471572469.92352,7794065552.281426,3734882291.2181563,11745983859.010912,25662149028.16374,8460356734.381855,-6841428062.141918,-11612200563.736013,-17643567594.06013,-22332040503.631626,-20051496124.13083,-13162480534.861387,-5583245531.447634,-46976414.184004515,-41191892.82949778,-4611193.509861369,-1379578.102170613,5233775.5573776,-146503518.42958504,-40448748.87782194,176292735.5348364,-5178315765.887568,-5929297013.625395,-4843708243.151379,-6987691210.347765,-5185350289.0436735,8453457196.004912,28803865317.439636,26791193110.795166,8582003726.483379,934862960.1989758,15220431367.89263,25619649377.39436,3256744420.028447,-8599351954.13473,-17627917901.329254,-24913033774.49138,-23799105670.667343,-16632704176.55936,-9740061541.540443,-3665175198.875287,324533904.2270396,63554106.296933144,-3212508.4133764603,-5495459.1685981685,-11467112.611835508,-199282609.14427993,-322745532.4844907,-2246150882.995702,-9629420437.38146,-10147605276.592346,-7388242733.744106,-3049219319.4885826,3210284311.7336183,18702685261.340637,33473909252.175304,31994792285.780613,11705739822.86257,1847603503.1156058,18452581403.791508,19739922939.445007,6083663424.533998,-7334941457.635988,-19392689466.840755,-23384044613.3858,-19786308451.599026,-12825116194.438036,-6780085580.640475,-1621641623.6010966,555662977.1933874,-300660000.50173557,-27778795.903224748,0.15886409832101211,-36050965.738208465,-280483088.8640235,-1636538201.0124,-5564452863.162338,-12363648625.43177,-9977434626.269978,-3442884454.2663593,6639371243.465896,15556851365.751759,25053738596.65353,38152140684.80419,33904889607.66181,10492086648.62779,3199262546.486409,9727171429.309446,12530408420.18325,5573882904.073988,-7507666119.090128,-18556963142.535892,-18637598623.498493,-14245944093.583874,-10485515364.764036,-4487977153.197696,-101566302.63833715,139344769.39235747,-257633236.91015556,-20545725.1698447,-4877119.775862614,-22405711.2929868,-549730451.7806457,-3500272421.091354,-8546018472.049875,-12487370022.244032,-7540857281.552944,1976336284.3092275,12080847563.523315,19547775990.468822,27783046189.03059,32151651801.49411,20591005274.048676,-563317014.5796678,-6884243302.838629,-1117536242.0028,4480360830.324247,-3482429983.3036156,-13230044389.05411,-15916541445.160604,-12942175216.645868,-10819000079.19737,-6126166746.536741,-1702609035.130731,605492814.3419014,-493347896.7245355,-227444229.71421355,-48317585.984107465,-1396049.1747733175,-77183877.41846867,-721132228.5142457,-4573883133.992942,-10808164505.779778,-11951534559.685997,-5604919796.578331,3183762372.814323,10934816115.257885,13062290425.389105,18296298710.00922,18514859660.001038,6225235236.360092,-9089488312.517443,-14248461265.443409,-6501742137.157914,-4924096846.500486,-12696330930.236923,-14512391886.169706,-9691467892.524551,-5942756694.485927,-5461885597.318384,-1638359052.579551,1659254928.0226939,576601510.962933,-989713266.7502177,-356793641.19951946,-26749660.128200013,0.9867985880485115,-77068573.1880021,-853110477.5780401,-5028566465.100966,-11598418002.106674,-11974454308.661177,-5666701815.499548,2311364242.0923705,3379558773.3107977,2768917741.65201,4158699782.2067676,1938492799.6367133,-1838140107.1280174,-11865020219.750088,-17009359032.085896,-14161237606.218184,-15981567540.197702,-18730093822.7184,-10142715517.433655,-440829493.2057514,962055518.5064758,2291720219.384631,5447195140.122396,4280364350.3452334,967111545.5805881,-415469016.7108515,-198358810.82429254,-8510579.449190661,-1401377.7128755667,-50108632.21980813,-865786454.2369361,-4344929064.251748,-10679195414.899565,-13696510032.46923,-9978928509.485138,-2125062517.7117925,-1821686159.5096028,-3879220625.966257,-6214160548.10118,-6277051774.362885,-5762637320.933027,-10199047106.910307,-17413360633.579426,-22106371070.633396,-21548373289.21283,-13770969328.62033,-1184982992.7689748,6501200317.61334,10481309181.769672,11130985307.055897,10169052727.969751,4897516799.181243,868546847.3010504,-51316607.55687738,-100563934.81162132,-1569521.5259261427,-1357584.8763783204,-4172824.3747983207,-687741436.4018327,-2733805457.9089065,-7761187750.564047,-13945736120.782696,-14113058459.671696,-10843731963.147772,-9148766629.226355,-11021155758.408918,-13336841583.954256,-10197760290.242464,-5206026412.691354,-6802634820.581881,-15166808682.627213,-20445126293.116062,-16357976550.328983,-6098376549.347871,6091010931.455008,10934580304.774181,14474709734.854689,13843002449.152498,8756454277.42361,3454885720.8372407,896793111.2652315,127730744.61201951,-71403694.29577684,-2897578.1300411853,0.8344003070090147,0.16374033425127144,-259734159.1724454,-1190899650.084245,-4773094117.522046,-10112198838.438324,-13867191719.135994,-14317554313.495626,-12535774975.796997,-14421064785.563015,-13704451923.84756,-11884139831.807611,-8725689152.582735,-4627512256.712987,-6853575462.956967,-8622354288.961895,-5521493525.382153,362003927.7583811,7837213239.54569,11976901970.054178,13172602700.599192,10330642798.571175,5757224031.433647,2126400236.8735685,355938789.4468081,107080861.19520687,-78031549.20266405,0.1093627570849881,0.2550795682020365,0.1425102265390733,-91307517.46637495,-589811014.1924349,-2118879415.4652197,-5392542685.814922,-8772554557.355915,-8771072891.71317,-7779341634.603122,-5964475468.852278,-6355723742.374633,-6871242041.589138,-5614113959.743506,-2195814756.3431425,-2949561146.145346,-3992382520.9596977,-2824715810.225596,-2438910002.2018223,3197010409.749636,7026298461.4896555,7218612846.593615,5119508746.818153,2956377299.061484,1281310583.258581,197807259.0412347,74404465.86023447,-19345690.139712043,0.4388443948535782,0.6637665126977713,0.24594405786059803,-2414416.276379873,-87429959.22662461,-178706513.02465197,-936845494.8414494,-3019176279.638858,-5560826182.826782,-9747668861.299463,-13363833107.945614,-15780855322.669453,-18243585666.03234,-17960653027.36365,-16538763795.031507,-14483898406.058897,-12186569912.560144,-9370819117.82677,-5301892120.493884,-1300142921.8527553,1456908667.6153872,3404799618.881277,2436787264.711975,1184797037.7403693,538083192.4614645,25069310.128721792,19436015.821692023,-17590103.130112663,0.13949507675955708,0.30707831566180954,0.26552520784842415,0.43298509128424767,4465360.365706295,56982211.983013816,-260464571.6930496,-1213912351.419392,-3186936374.6960335,-5646186347.160136,-7968565941.869378,-10693710247.158821,-12182848360.260372,-11453699234.099035,-11541315143.956047,-10832850971.68452,-10024385601.963747,-8021774044.014987,-5719048316.538991,-2984665753.081892,-736948597.0877547,675233950.4211557,300166393.97915804,6603384.9693798665,12846298.33794152,3919807.5348207005,-3326135.096394432,0.430967553232389,0.01573935954756045,0.2358895153651681,0.738609356440372,0.26134749197312945,0.2406367408922394,-9964213.376665115,-52919452.78015946,-95091285.64810497,-218580810.03158274,-376699422.1798253,-499130642.90129775,-744651011.7672039,-1099078624.3694203,-1552462128.0556521,-2111452772.3503456,-2461818788.7020335,-2431718121.7078853,-2201103137.4401183,-1835300799.2761943,-1107845970.0192738,-394987581.05522466,-66722624.22335826,-61912158.89990645,-114219431.276307,-24656659.01643222,0.985610826443893,0.8798896648018589,0.8465531294664381,0.9465277416309245
5,0.2618176514542154,0.7480949991117529,0.22128892028230818,0.5591547323772071,0.6820909215634774,0.16108540512135772,0.693456808723049,0.6648342572612458,0.03179880301141624,0.2514318009377703,0.8943951827887614,0.8672138531365619,-1762430.7926229427,-24133110.3746146,-22561074.80085184,-940043.9688494432,0.3474706896295082,0.08143238569040612,0.937330839454524,0.17863653703569493,0.38832001565931007,0.10773184235722921,0.5383616250004061,0.9962459737550784,0.9466931955961471,0.24600514513023441,0.7238323476965424,0.6459376915166998,0.12276323806888412,0.802687400831676,0.198430259780919,0.4410002422252418,39588.507374006054,-38590.538214683984,-6125404.514941417,27976370.167724866,154716357.70824113,205530605.77334845,460926651.8859802,261887005.30815694,78673656.79739998,92844673.7870318,323658950.84259015,180245099.774942,166821936.05207404,315626880.85819125,259801037.3413308,138177653.59033796,140499575.22229305,159325006.33584774,51820103.22031842,-667700.2912301987,0.38686491204566387,0.42627507663552133,0.6526577335553431,0.5784112314736409,0.5858615565822525,0.26707800879416277,3931385.5698132673,-7579053.8039556,23010081.269923523,37179098.08137606,308065782.7205494,446767121.95167655,883392961.6535037,2082421359.4254673,3385816481.8643155,3916853215.5627375,5710913320.6780615,7595584372.168357,10353594399.126728,12047627187.982212,13790809956.740845,13907754877.593588,12855717420.178051,10672084944.55689,7613817174.12765,4592691636.132501,2408855097.740948,697206303.8482013,231723626.78795677,45526853.63816873,0.5751538001856632,0.7922091481908963,0.1083493925411364,0.9719617180583106,4859047.814663998,7864269.776326854,70019899.2982038,178691920.34395674,620027409.3981721,1135637986.8760564,1815302431.6480982,2948360695.574629,4047063262.6072035,4794176469.799219,7015865928.8442335,11017120678.628326,18658677374.468628,24890030418.311123,29508459132.17572,33029641439.95833,32908667125.955154,27480864022.79885,19806785107.82373,11752698142.8957,5801805792.57936,2312237709.8496647,993382048.2633108,88722669.49044533,15922770.73401665,0.3550861217215696,0.40725800316719274,139855.3967603928,-12096761.490033757,3622014.488867256,328499965.44613504,840641135.3847327,721488616.6507629,1234363474.0360792,1219100461.2792027,214983115.04309714,-2492314826.420542,-7446221268.71482,-12367990881.101784,-14917593618.911453,-15358824157.570011,-15436239690.231365,-9147563478.021332,1235316796.7700448,8899383157.779661,9733874120.92949,7799847865.65828,2865889194.149532,-213303055.9808515,-282544593.6262103,-450649981.72500426,-313042584.8474353,-114381079.28257042,218513.35900493327,0.5849507110444809,0.43589421492229674,58215812.32695816,-10725981.003505955,786358455.3734995,1878161727.9850008,2050029495.9793968,1503612730.0230222,242471933.54876962,-6091004081.793386,-15761433891.732079,-29186066008.02352,-39848747756.480804,-50364791137.93172,-56498119619.15141,-60409493321.19751,-64956996568.01045,-63610728768.56425,-54249853625.49934,-42215569201.20174,-32846557999.012978,-27283406342.73958,-18831074320.162266,-10513516668.0999,-5271158082.320127,-1730590130.1625612,-158459760.62065092,-7396611.703578093,0.8607977205360928,895606.3419232712,-33155904.422296077,-35665168.682040974,1106038900.6144664,1427532109.4813004,1379600238.4690766,-297619943.37855566,-5609712380.515955,-16294293762.868584,-28559471265.21937,-40006277937.39957,-45879152771.18736,-44938988937.11194,-37402258601.4252,-33418376076.527576,-39498428131.25994,-53332143637.29476,-61923200685.607605,-63521673612.00488,-60311589332.01754,-52486835167.915886,-41008012199.316154,-24437383809.567215,-12181264845.91719,-4426577753.413091,-821922240.6715447,-70189883.46516345,-321799.1780904409,42341219.90032394,-18665224.01028077,114662614.31993936,812632737.0237134,529981079.85889935,-299233993.47928345,-4169842021.6169243,-14274736689.395906,-28576448462.422867,-36733260927.45705,-35622790938.32871,-25758785271.69667,-8830496532.25217,5697329372.881678,10317360305.15263,-2549914686.641623,-27846182163.893375,-50910961442.68402,-61211788468.65615,-61040978096.594666,-60894666416.06422,-54372955358.22578,-37922444585.919586,-18944999607.087715,-7605010861.091552,-1527465528.5025373,24846804.42116432,-41655456.318440065,-39670297.06557012,-209671687.41472587,-234468762.4841529,686417956.1248223,-1050588957.5920606,-4366626179.701806,-11484269265.189604,-25066839375.763832,-36777018882.5458,-34828384000.77567,-25631162578.964336,-14938856694.58171,-978350938.7207668,5243159442.910986,2592997470.6481714,-11579538569.263195,-27996120398.71881,-45578944049.66456,-59998125349.03824,-69690825231.36543,-71661643860.8392,-67971366411.41091,-51403845865.98231,-25831787623.45073,-10015016173.742674,-1979535272.0091672,-26889702.7367832,-19494076.666529234,-85649918.88347562,-405416402.006972,-807042831.1924496,-317193122.5315268,-1545681832.8622346,-6226440178.182876,-17672598775.026623,-30263347452.539528,-34592410504.90652,-31598167403.965355,-28207838888.737198,-25461090557.359104,-25416501865.451523,-22753129938.630833,-22533277731.516407,-27170524498.835533,-32343703960.63192,-41849885129.07721,-58041417512.92088,-71960492245.05333,-82657200998.44664,-80017049223.37053,-59634524587.5772,-28956032477.38657,-9502710216.834337,-1873115716.304376,-176386942.9663959,-28682568.22724165,-84247130.73159519,-506409739.42882293,-665928457.3652804,-40026177.79244041,-493423913.14060104,-6474557718.467809,-18022262940.837635,-23655159042.315914,-29853492829.449635,-31325214609.45905,-45274596443.05402,-50777157183.4903,-48162599036.360985,-35122580643.97502,-22514951907.180088,-15815703699.456392,-14323442059.417578,-18613277458.246815,-29343861844.482037,-49575800745.967865,-71119446811.57486,-76867207816.73004,-57077278202.38515,-24371718577.682262,-5407521542.707518,-1240553026.542602,-88859710.69814402,-11050375.646750947,-95760161.80359834,-264762528.77528507,262988886.16392738,2344412929.4254856,2562240933.3352013,-4681441973.087537,-11841888258.622715,-16035716744.65804,-24711698393.37937,-43489484803.03166,-66869157892.54596,-70639640692.72212,-53660512968.591354,-19481325242.228466,7431057905.358623,20548840814.62412,22832801800.935116,24600008692.893406,15070771023.794827,-11946839928.992422,-46061697706.59004,-63693836897.700584,-49221986887.76887,-18223892084.154694,-2175772069.7521334,-533886905.55717516,-7698998.020153918,-12822754.655144494,-48801820.702297635,-71388784.24430752,1511293527.1975293,5470574819.21942,2814077428.964971,-4118298234.27389,-4493275620.556471,-7580844541.545213,-25443880614.15918,-59097903132.77209,-79632834380.98187,-72568629903.58096,-34250841959.47414,8712232754.322525,35040914563.3664,45989030758.74602,51524376991.40744,58126110803.23868,49136643738.053024,13178236715.90896,-29470954387.444492,-52948055653.61543,-43297395312.23297,-14974369149.855946,-742876122.0480745,-475188151.41673845,2658015.7633852004,180725.1800422357,-27733749.186717443,-47565091.40613247,2214249078.7036614,6968754208.451918,172223667.413755,-3535145730.9225245,-1324828782.607122,-1920105876.6754427,-26513358107.733215,-52892072073.81894,-59895358356.26531,-39758440394.92369,-645009972.8061967,32561057981.725906,52451745966.739555,62114687207.164444,72819703308.61012,76442627592.99498,60086813851.13437,17682297279.43378,-27613297647.917408,-47413002441.14137,-38002887158.92038,-12868877992.962584,-291015651.73370343,-411547541.2911753,49884637.68701782,-34964252.28608275,20858191.568184458,110208816.38854848,2554436024.092424,6466064317.261482,-4808384187.043117,-4456050902.303275,-1281728022.5750618,-4096127291.798643,-21092479989.65629,-32692332058.608395,-17730909807.274296,5573623082.912258,25526911652.02977,44128195890.078384,58107918123.35275,75306846330.47171,84959592099.4086,75991417456.62552,45199169909.371765,1329321044.833753,-30462086621.690117,-38760957456.71978,-29758060466.69866,-11847635135.773792,289404261.7223033,-411175972.37536234,-8782750.349250905,-11445193.183408128,30032398.593644585,144544269.8455385,2445149574.2519417,3140996331.2683578,-11439838549.053211,-8979158249.81797,-4079957286.2147427,-6426531150.9849,-10875584413.541723,-5827762876.705039,17731111245.44917,29903538439.49155,37730449500.80126,48690326915.5034,64243760181.12143,79820499719.81834,80915750173.58319,57069571187.56792,18016305457.574387,-11716578011.656054,-25589028182.132652,-27349586908.75083,-23181808960.569878,-10980069352.379156,231567617.96742132,-456120875.5804066,-93380632.7586222,18733.21643087718,10113430.398639793,319114739.1443296,2555047419.5640306,-1371769016.9501438,-21484110242.945232,-23373951666.427876,-13274490754.051722,-5647148706.829753,-749528504.6664078,10965922322.95991,28742042304.243504,33577084649.452503,41106931801.156075,51721184042.40489,60705050409.16441,64090899072.26675,54639792374.15807,26671310511.794853,-4561427756.761767,-16959896484.069807,-19063094614.961025,-19881180308.448338,-21164108299.45392,-10294768414.104961,-814594116.9691907,-836474442.2996446,-84412198.4328873,0.9557621173075244,27634642.544201087,498151575.65825135,2600188990.712634,-6934788292.753788,-35915796975.61258,-46495516409.38237,-32905804907.57228,-13046290782.78124,-620396849.079937,14254136887.82139,26931127340.12724,35140876487.14667,46711831295.163895,51575588755.31975,48841428785.047844,36665905515.49093,23863487780.915382,3396641815.7162757,-10312128129.864227,-14246771998.087408,-15944415635.56165,-22232224195.376408,-20259991158.535027,-10861517065.617758,-2132583876.3079536,-1005044630.5689425,-138621860.34608462,-688308.6676699795,8830857.274186464,770125500.8276495,3665089721.1190643,-9496642391.301823,-44134187745.622345,-67677393728.68781,-60074718235.30289,-38197103421.14291,-14427822105.228678,9117151084.462326,26717303843.934242,38022477637.545815,43750862743.27369,42251287538.34441,32321754447.328648,21790927674.83526,8091039778.444815,-2922893918.4011016,-8399532135.05059,-13344162485.963753,-19550343146.904152,-24344665731.565067,-17794275898.329933,-9275803194.686804,-1908673616.4624465,-465531695.50972134,-50179142.982937634,-13558.04747893688,-51035252.6355436,1243301033.0573502,5077363505.361005,-8159805752.791907,-43737882775.587776,-77765435070.30156,-86562527018.3413,-71993635251.35475,-43978834751.45719,-8132008631.948996,21379881248.13913,33706227791.567593,38231741879.89926,34559902528.44874,25120857651.452396,13579667119.07742,771942484.4072043,-7515764254.162258,-9740773503.923454,-16574126616.546204,-24447606962.456192,-22733635710.508656,-12558218679.09968,-5544098365.4399395,-1852708520.3067856,-388933091.3473474,-16299201.415467665,0.283647406959706,-86220994.59155755,1123285734.0460894,5483749291.274148,-3657490229.295262,-34273323266.909794,-69990322323.88533,-93305707248.24284,-94455348452.96184,-73728708408.01883,-37589049278.13943,-1934458805.8159509,19113114936.8369,28437979821.806393,26131188268.92473,11629617629.148594,-691617007.6142125,-14826892889.716026,-17283296933.175484,-18672259439.79518,-23822943978.988255,-24143280373.238396,-15097173517.831636,-5950960135.532278,-2579691315.9880996,-1051400661.3153224,-209665897.49938935,-10463352.064165905,437410.57400600886,1880737.3502609693,878395678.0382115,4648734497.380649,55013742.54117586,-19641659780.476906,-49204328640.47635,-76546204864.12663,-92615690017.12267,-92806805437.57639,-72997919377.61676,-48013609806.13277,-24290222447.695587,-12140196012.827637,-15048352449.490425,-26132514981.90251,-35658020236.26334,-37644944860.36722,-34627228456.00656,-30237399510.27655,-23237178338.478844,-12939626341.631226,-5378157609.045377,-1701889093.7652314,-681186096.789792,-465681040.3306706,-192411852.392265,-5286297.935739608,423742.09305174346,-486598.67251132074,602166487.4687139,3386302161.560624,4679207494.055739,-6286827641.338506,-24896786065.267296,-44373025499.45334,-64467402946.86324,-86087162507.3261,-101219512841.04936,-110515330296.59775,-106412799832.23912,-99254476982.09715,-89250101557.75189,-81518651815.16208,-71471892767.88747,-55194580532.24452,-39947077205.61955,-24162282046.886196,-8814520047.192955,-477165539.8800148,764716414.6897596,417521227.92695564,61763720.509551264,-113200246.52172084,-58267122.67866759,-9759319.540594276,0.6096433600793884,0.7293279102350512,200116142.66374052,1448830479.0148454,4080433361.99372,3422221252.598866,-2160558133.0328455,-9715923152.473886,-19233837322.486835,-39353015971.99755,-65606768095.83468,-94363079901.09958,-111461237270.81677,-109344067100.10484,-97858456945.04208,-79870599386.08948,-59011490323.10449,-37369477908.32973,-16403034190.625153,-3179342145.52892,4162268998.996759,5993835941.131842,4124399643.689221,1161843987.1372042,244245358.21069908,-91598873.0584041,-9995236.837333934,0.02050336814724585,0.011137608621760386,0.26597317179369206,80629486.13310476,176587405.0565801,1707033094.2977583,4633772037.542668,6472228454.591977,8745837287.440578,8921567574.045923,4376564521.230058,-5019748943.667334,-17314445002.737255,-29622523990.176666,-33510682801.807617,-32299381926.784084,-25020151568.200684,-15295361587.2142,-5597394962.001422,1528945642.7266989,6171073455.197086,7717002606.677516,7044413212.599521,4309123606.398758,1892313594.9105287,183388399.1212694,29852380.536331788,-21246387.331861842,0.15776735560004673,0.15912889944908826,0.313827054948288,13651218.738576917,-35766369.3583355,670065670.4753977,2725254781.958909,5435168563.177849,9283376423.792604,12917590268.89585,13156214651.346226,11356278327.608822,8195342572.244696,6524973725.986504,3756614750.1978564,2556981771.9232616,914707645.6168685,3162288257.8379493,5492645128.358082,5778538181.641702,6253113260.531535,6901356440.803767,4743110329.139604,2501134492.4180527,1088911097.3981788,31834247.51021026,-709353.1549050218,-23418098.512552615,0.9522832292700479,0.8764598946457721,0.6455587770944717,0.4520004910458362,5315784.453757311,266897593.00863445,697699122.8210528,1602047362.5408535,2434162466.1634336,3190702542.9045086,2352540784.456647,402676327.7006522,-735512742.2571225,-412836821.9132398,-709125289.3450432,-40363980.64941437,-344126991.590698,59173778.95398885,379440894.3147507,1178739048.7118719,1439887899.5111873,1906026777.0326388,1248061093.0366201,448909588.83218217,116876760.98850997,9288455.737669518,2797426.9052229193,0.5579517304990546,0.13020395022433062,0.5163152870132354,0.32462736131741854,0.08892262951006469,0.39648594075677923,-3477602.990637415,-10268358.883676047,1887848.0111265185,2720943.869872215,-67220083.05598085,-134423951.70577368,-263686720.23133567,-384614570.63849336,-374260740.6696096,-483461789.5861261,-467258625.5866405,-530072232.8770612,-359512786.0248441,-378612934.5411732,-178131300.47764164,28117966.398085244,137832333.0975977,87505425.90955068,86014416.2744801,12365944.31899116,0.7890218454884431,0.4197694199600287,0.028815040079137266,0.04782497632312599
