,0,1,2,3,4,5,6,7,8,9,10,11,12,13,14,15
0,0.04678650285783681,0.7316107675317441,0.6387463653733253,0.0911202489711106,0.3302627324084435,0.868955347633725,0.5846708656681981,0.8099924002372942,0.7505676046968471,0.8403039154521432,0.2590739330316525,0.8848005652097423,0.4129489735515741,0.8066738210306836,0.43119400344317205,0.49380464144986225
1,0.2824083898704175,0.9419501414929097,0.6644293453535334,0.615720612421802,0.08224244479261633,0.9535349149739426,0.8095077673317816,0.6761043987205553,0.043380242423908366,0.23401831467016754,0.6395487438938352,0.41489541339279556,0.9675581706073839,0.2940722455394438,0.49556443821765006,0.4908031352778507
2,0.0029869353587003156,0.5502924610259942,0.18962682503217765,0.6880961027414703,0.9049975201171948,0.6281709945423866,0.2549927200531612,0.8762511067893013,0.029979478375452007,0.10628325211524758,0.6204096288248093,0.11229405068316145,0.4506495782561265,0.9536605124081421,0.5875965824923673,0.0789539599051412
3,0.9179417389057319,0.32309578046470355,0.683823470989119,0.4051382492188429,0.5203003679230163,0.9456319403867839,0.11507775892214589,0.6475565595927322,0.20204023201135968,0.49277509089680804,0.6227846903235498,0.3977528110292403,0.8333357579306192,0.6441797710354222,0.020638349738930417,0.9364077835686189
4,0.5835923892637223,0.42286543057056414,0.3030126317505295,0.7515280105879902,0.6160586389894236,0.42990307498652447,0.9621786833314043,0.9506565467474242,0.4298012500315267,0.8388145262448391,0.6821045571131362,0.44901962161299225,0.12953148589351793,0.3152349096399375,0.2615596234052825,0.12439470233261152
5,0.2735417619834689,0.8039766934595255,0.9349594076349865,0.8602551334689439,0.46971873304160394,0.853353323147317,0.1247523019991863,0.09654396487535799,0.9544582250615051,0.42704507333816266,0.8058715261290351,0.9166511352834872,0.5412061868685243,0.6492027668274101,0.10673285262522691,0.33230284577855873
6,0.2825358433331945,0.4074072353833367,0.8836023202044968,0.5027537293342007,0.23015158391783086,0.7077897962675971,0.6074858481710484,0.5353074513497987,0.1825974077233714,0.5927799959676614,0.4734076174030908,0.4199785369282807,0.030684165255431495,0.070023081445996,0.2186798473649466,0.2333719492177927
7,0.9609274978670524,0.8429415049096757,0.9452884277450634,0.877763109781514,0.46822434711666583,0.7428724991141322,0.43744625874874055,0.8851702001552582,0.5073155980520916,0.009136316046208348,0.07080144765365048,0.846146739944918,0.61529064351523,0.8953589279210045,0.08463502191949779,0.5079587701111725
8,0.8438042392807563,0.21881192026124174,0.6302197843963353,0.5077120342407048,0.998942393287534,0.32693550339787303,0.9401111543975772,0.7253292878704878,0.9862493455160789,0.49519009832363203,0.384082468579069,0.43597684272312864,0.43823417520075303,0.3067077737628495,0.629062775826335,0.1242201738398977
9,0.3848198759973128,0.454228611749931,0.5526882079477369,0.23304206450078846,0.8351532846503436,0.7997357548825694,0.8481175146395173,0.4101209640744351,0.9776658367263313,0.1228149200476496,0.9700223289713072,0.2788688488883667,0.033455421376042516,0.9017530101057408,0.391318431624604,0.25244561971440616
10,0.6071810356968179,0.16755405060727913,0.7276079621643029,0.8622719117963897,0.8980247668580589,0.6876078627214879,0.07826744558392573,0.2483825574082137,0.5310509814300314,0.7997982866543871,0.5011420053189459,0.5809127187280696,0.7594925787550334,0.08228842828172112,0.3259065009764551,0.6265548091481755
11,0.8679805252607531,0.9346073394424017,0.8459937255721849,0.7863530484635215,0.5763619892773965,0.7619494791496442,0.04712095379474157,0.5503745413567245,0.4834543932081258,0.5607037311138829,0.4319870472946511,0.5768651784715929,0.3642520220992741,0.29116957415224376,0.9068839153753185,0.44853555799393297
12,-27380969.531967998,-194298187.83889565,13147199.806031529,-37283468.62156122,4694571.315454961,23416332.4524496,-82018066.29498442,-8881881.49098889,-62901655.162341975,45421115.01565279,-49492043.47353265,-48165496.616839625,9000185.79251152,7598930.363711913,-210449285.66114777,-271071114.1559566
13,-42042244.85490369,-397244019.4692893,33165815.67339163,-90448085.24224138,11827211.072334006,36030778.42614173,-151012929.3669109,-1604463.344636199,-120532921.03258242,83731323.79283977,-109695638.42213234,-113527621.27260111,9977262.554119026,38822584.66165078,-415672721.3841906,-558755523.1587808
14,19933339.422817156,31383444.50931148,4871858.23352048,-9804005.225857101,1722315.792249741,-16962446.05305099,31802241.173016414,19856730.74460033,19140325.711315613,-17499201.15789829,-1474613.931386241,-8971231.252004554,-10827673.834756209,24686044.40529384,50230677.425742656,38722119.36613402
15,830556.3229415534,1307643.7212895195,202994.89560999686,-408499.8951357823,71763.57685312133,-706767.8433938442,1325093.8508046477,827364.721648587,797514.137764392,-729133.2325685465,-61441.60635275138,-373800.890297078,-451152.58829603274,1028585.5753407937,2092945.825992603,1613422.4320187576
16,0.2054321682619764,0.10824112655710716,0.30143470362798364,0.5425286688611001,0.9096327267684037,0.5109235453257246,0.6238075983930236,0.7643141839184122,0.7530952828633453,0.9907996169522181,0.9368381220574277,0.7388637165551248,0.8728271080219293,0.4640042508587088,0.6793138414101165,0.8961241101439529
17,0.13095108605360162,0.7010710950653705,0.7797152388414873,0.47892257942174343,0.18555812128074523,0.3508771289164282,0.1685803983578249,0.26164631408375727,0.13897525881892236,0.9751231098764772,0.9323573839836617,0.45245025547623785,0.8634047811416872,0.9125862978078788,0.5330869286022913,0.9564016569286873
18,0.8133352280268779,0.4255278277265748,0.08098765483617754,0.7216574276885112,0.6210120006866069,0.9494369707402945,0.548552770461508,0.12351024181114756,0.4514076971471699,0.2183202283291108,0.0812641508939258,0.41340845028358786,0.6410614518446873,0.1103964830270805,0.38843330239120366,0.7494932353849031
19,0.14452081996882815,0.6268235723140713,0.04651562749042237,0.41232429782086244,0.625602344384413,0.723581809506888,0.7560857271198664,0.1656724177649408,0.9955923227856127,0.15633721633265962,0.025111387782864814,0.9881977040057801,0.6382172044353089,0.44830299795659656,0.7470804824535423,0.19219955372005837
20,0.2987186376413099,0.017840826266675713,0.9836117311632507,0.5590988373030149,0.5736445813167845,0.07051975792070408,0.05045583569604817,0.35543141686078117,0.8862865717610086,0.8091321395252136,0.8338388721839907,0.16804687614756308,0.41401353736010205,0.2620586041908506,0.942684934527326,0.8232819384338135
21,0.19321516412913087,0.2404136969991304,0.1153046405109549,0.37619956280722133,0.13956254094423393,0.7049937176147061,0.09814304999842394,0.4234929341918414,0.7314841526456587,0.10959322640362978,0.2816620284332394,0.424881499738588,0.2835956317114925,0.9806045951446719,0.6911581118966513,0.8938030221600772
22,0.30049980125897136,0.40284409997750725,0.753743250203408,0.840951855119914,0.3326350837046579,0.3049630308584754,0.821024461162708,0.4529953960473351,0.9659829091542887,0.063990818060781,0.3841056418932063,0.3278420017828947,0.2877329241660235,0.16486759646767846,0.810859175889341,0.5626606813237446
23,0.6959903557609101,0.22688835743322833,0.2474721038586568,0.7466319888863822,0.052469841325395894,0.25960691400057245,0.5240867646207599,0.7059629561477851,0.9313186236032485,0.8588961814408065,0.13570786294084536,0.9892819813731187,0.7400354956464176,0.662128947072932,0.25008999347040006,0.2554321269057366
24,0.42452904045496687,0.41771679208316626,0.020921454280204532,0.10970369314081663,0.18907401815010538,0.41734352524264207,0.6752049248097471,0.10066336431173695,0.09073178930345183,0.8275850836858717,0.014799004065378152,0.8219653693174004,0.4649869697999548,0.9093955596605816,0.33383903821957006,0.8754577704152069
25,0.19286748016044708,0.8000595007612205,0.6132179782121837,0.8865544216132356,0.916424859113431,0.6698483820375931,0.6785572261594417,0.801562500684997,0.06584924869967113,0.40039064613638387,0.9694102041467705,0.1915935323403457,0.8229174608923536,0.5348343726641233,0.10014072002557894,0.3693092171075102
26,0.8884716570180902,0.22244314587472291,0.2842308139966333,0.11179943639554846,0.18787988800553124,0.9170065162804742,0.3284039617620911,0.42687436839162995,0.8993872397367018,0.1664996672739122,0.20531568677718603,0.9138348758880857,0.9795704312397757,0.28369083303536125,0.11559917843876055,0.8441300511323426
27,0.2794940181107586,0.8720686272310364,0.7297589223741735,0.6612878676509886,0.7235169926408015,0.21004408799280683,0.4219892916087825,0.1139501320559757,0.5065746259892414,0.5205957036385932,0.5339057448874027,0.9877015284861764,0.6192898391472469,0.31984330443824804,0.14004754881283832,0.06779783541614903
28,0.007818354511187842,0.6402183685502253,0.5339011397675278,0.5976618990564742,0.11328930974914486,0.4743910253882312,0.46747517126581406,0.15833461847261443,0.8418995309607233,0.21292131206506992,0.2841715405523595,0.6651459221268705,0.9914013952505542,0.37458370999766755,0.6932683823279147,0.9720056675000149
29,0.4864975225269389,0.8434517294765544,0.8291463621858906,0.6402722567339928,0.5151864997465218,0.1405639175534571,0.012975788405693134,0.9538794103112839,0.020608570633294798,0.02870243497485503,0.6279670501203273,0.43566452279198686,0.34616695307678025,0.4052362438332838,0.9812463286508513,0.3756846084616213
30,0.7022301382771587,0.3599258695629409,0.9467474786192149,0.90417272748289,0.3251557804443872,0.4263916784028352,0.8544889167750177,0.46019930331737646,0.8368911585852219,0.7349836409253129,0.7923158551486372,0.06622852338176333,0.041967519248380825,0.7453369280970816,0.08636537818547763,0.7326514654814609
31,0.41176312183917163,0.4339129861179759,0.7720562136661895,0.1464232623137146,0.5671106803078364,0.6029123335784397,0.68772437880036,0.5857572235334692,0.8651261927055867,0.18793194805153413,0.7846300865384661,0.6813686557947664,0.12931454718826252,0.5605408418653012,0.22637244811930812,0.14496610778657015
32,-606947.5611815602,-3764248.4204522055,-1110159.232505767,-1052321.8532856433,2099518.3204416945,1438496.076935854,2910358.8379236376,3883814.9159611915,-201860.32127699745,5575618.253149441,-734265.1872527377,-177534.53155248522,1504416.8977644418,3255119.9837609353,-1610729.9220924776,-3706544.481645531
33,-2218665.9178194776,-17677790.494611543,-3648483.4183899215,-4953089.639212131,6568391.701192478,6206276.62345749,4678969.522816091,14260330.709295416,-3492352.4187340685,18676520.900436442,-3112997.2126373863,-1906521.4451435371,4817804.919083224,10585032.305862363,-11361414.68605248,-18627649.66234872
34,-28813354.33811683,-599362282.9356548,-23828724.458599944,-148857115.81531632,47999977.60104325,187758028.37814274,-363242302.3362907,196974971.17205548,-309499635.51950103,201760142.46804664,-86619952.17004758,-111235105.13235918,37897651.505813695,65328159.24437324,-613566638.1081903,-690523045.5498551
35,-93140845.82297814,-1357114529.2839158,-65617576.206627,-331430499.3298145,115678498.39226332,419705567.75710183,-781061254.5334333,404129337.42778665,-697335929.7009624,506530259.67234665,-214792281.18032226,-240594983.89536977,101635144.93497145,144781814.17192805,-1376890143.144223,-1576494942.6642559
36,-339759954.6035581,-1956181261.2505302,27271378.05844576,-349134825.5368531,89188952.9268716,443378442.52523476,-964168315.1041151,183997691.82772878,-866852038.3576809,770033575.2155291,-375143106.8872217,-190241690.72760165,288175037.66877425,72750896.59286104,-2086765815.1971366,-2521480998.116199
37,-558301996.1780493,-2956867227.0826764,32950534.70805818,-485249493.8372787,149361463.73557276,472726737.2868144,-1357838780.461339,-13503550.844626779,-1172864969.681211,939633335.2831845,-637980471.3501346,-467525761.90942323,336069658.2426492,17163601.140374508,-3240035296.4807677,-3994990576.9887986
38,-810803106.4138664,-4860425803.074822,-19550792.888531864,-911480888.0304273,277750112.3142519,603793664.1462728,-2343675509.4578013,-122966399.27292094,-2008716956.3135893,1286272759.740576,-1182590177.1966045,-1068807209.953605,357897414.9033665,42740121.83274565,-5224873556.200869,-6464637692.580226
39,-761752839.2325032,-5973012964.621652,44723176.94717224,-1399668630.5798576,239750319.60083544,690012647.7008975,-2818492553.5179434,39778795.83629919,-2496228631.549562,1761313621.0498438,-1696675771.2467597,-1367312638.9505208,363392807.6016861,258862476.55422363,-6229240134.859762,-7853674132.450337
40,-906204620.6118826,-7142425790.029045,-41020043.748386435,-1610447971.1120956,348383042.3022438,947059981.3574024,-3214634682.122241,119380903.88149023,-2951857078.60528,2178259429.5200095,-2022669557.1243417,-1669615271.878735,347632413.6702814,313518714.3208382,-7490598314.61431,-9438269212.106731
41,-666820169.1248318,-4852634741.419191,-103337758.54758434,-1207808311.892685,178312431.99887812,516750539.42874086,-2165430435.978892,-41117728.4733676,-2182122302.512321,1562304099.5834224,-1591369791.8419623,-1281192129.1551156,217035455.20221987,145183502.83785644,-4852362444.364011,-6162777017.328868
42,-494235950.15456444,-3686218794.903908,-326561257.66778386,-959650097.1052961,412510571.52046853,405350959.8156007,-1339226903.321011,204937370.2540162,-1368312826.0314047,1152690251.3841696,-1129455934.1316621,-1341275643.5301814,-31239678.149280943,212093768.17404974,-3580466166.9848385,-4618370639.023122
43,21274148.276012253,-2723926620.4306164,-251217770.71175152,-849577829.176821,426340988.58251,335096015.22039974,-636172501.9736222,732991878.7132795,-897670110.1210302,880710443.7083539,-880854246.5721596,-1255791541.194423,-149746472.24787384,481292288.25398505,-2428185783.935348,-3224534669.323342
44,584475226.179465,-1365378364.8405886,168782075.81537268,-670808007.4763411,-112304248.57910874,-149308747.11951324,-25981833.407722753,861238875.6483179,-873216946.574857,472788560.8883595,-882457801.8614368,-774143155.8326017,33812429.60944796,542738989.0210372,-850994221.1307156,-1439560160.5467098
45,-221615831.38757405,-2685395848.531913,21305105.639142096,-601104736.7864383,73146655.024125,204204047.72833657,-984614462.5534987,196349360.70480412,-1280444134.7287407,866384226.2373645,-883392778.6769673,-721717782.4225014,241267839.91012657,122673714.85948952,-2656124429.8490987,-3398878347.182798
46,-442144287.28927904,-2617520425.3917303,-60126745.53698096,-435067559.7184498,311162986.931319,312788257.0992618,-1106199525.9271438,-34570724.684899345,-1060559052.5712454,816102041.5116888,-646144444.0596044,-634970697.2822526,260625161.83906335,44326933.88563637,-2796274002.185843,-3504816142.90069
47,-330099139.4560038,-2303452440.930151,38302288.83243552,-404007992.10629433,227127236.24602658,221834985.73766044,-1125665158.903751,-167075980.7604809,-947844315.860686,553431952.8095363,-643882067.9374789,-595737506.1119078,180665085.8024898,-8840826.542028535,-2583633986.3255334,-3219527064.542885
48,-233577791.99029073,-1578530664.6514277,96355809.31498379,-279414065.86325747,84462244.23983078,119317982.58548856,-911877692.0883819,-225819693.87381455,-704546016.9159712,379013030.2983966,-480912940.0504188,-372912237.0032184,169921547.05890706,-83025447.28373209,-1835470322.9597464,-2253008600.3844867
49,-123256776.52638397,-931683292.8905772,231731936.473235,-77774964.04533494,-9002496.673126927,62168859.804401,-575930408.3659389,-139958282.84108287,-453920097.0063426,291422441.33120203,-241422655.5201612,-57190767.327337794,250442913.4737047,-70938190.23493789,-1118554476.7618148,-1427375929.849863
50,-87254465.4560599,-674245029.3154826,62378745.31950205,-98180251.55911945,26197191.45384225,52285319.89076384,-378706513.38071567,-71287401.59573627,-320898908.910431,143866848.03609648,-170937683.19388402,-131630323.949051,57439488.35131276,6782076.895334508,-754586730.240473,-991487075.7772251
51,-20432551.49076199,-205335969.70471948,11486550.582954397,-42992502.340325214,7570325.531225032,15917747.631588444,-95534749.70794372,-3826326.11613982,-80440388.75269173,48576383.52230837,-58006493.990495756,-48508119.99485993,7752804.087430799,16726186.755496548,-214989961.71455458,-291541600.8930917
52,0.6177227804563048,0.13791189842607998,0.9573374582433396,0.9206689228143156,0.08728776706297292,0.6401591514334282,0.7685721515517296,0.5032842336194929,0.3938246139498658,0.6125678686685845,0.790572770017201,0.21752481884810693,0.5640750568852488,0.8220956975087782,0.8525434616904093,0.8082865650384317
53,0.2712620313997173,0.548060992838908,0.999422749315518,0.5477123141339155,0.30813950324619976,0.12256324199871627,0.15833145532560366,0.6230145674237785,0.5382048494958289,0.7042043004390606,0.8298844044793781,0.16576839581479696,0.4172967681640576,0.8870204643373836,0.20046065107829558,0.628148995838498
54,0.2649909820393681,0.7995245630793092,0.5689627062371598,0.7214136419010323,0.5026685803013103,0.5773049536510664,0.21537896717790084,0.1341506081657975,0.5397958750423587,0.8627001733587795,0.26187067822131105,0.6887173479988827,0.1551463733202304,0.651828415472732,0.5915095545810101,0.3430919726992999
55,0.9181944504624563,0.9165570820500409,0.8013727805508053,0.38901134218882927,0.9248235310195987,0.9277547057631866,0.09721083394958818,0.1522714847109331,0.3110817773016876,0.02224095547529359,0.8801310149867121,0.18821482181368554,0.6136814272838363,0.260786084514012,0.5274298988007246,0.6503952173921821
56,0.6088140767680966,0.12656722664410736,0.03667978813093753,0.9850022416020314,0.5365466564469248,0.6017811871182283,0.6377457886493498,0.2046836492261659,0.9330929956783242,0.5455008576812241,0.18714194732704614,0.978266457483551,0.6095758872166098,0.9504231411338795,0.8148121194356666,0.0997203217168664
57,0.7832664730496843,0.1305171652970918,0.2209682687664768,0.08464631609182216,0.8549280404050497,0.5929478432642707,0.9060543169914498,0.9034650614547175,0.2584976290614811,0.4811014084873826,0.4668105427459479,0.2647955781036392,0.6213896612717723,0.29355204465842166,0.14650473827092692,0.8404651306815024
58,-1025594.5441829541,-12055082.760602374,191268.75279648692,-2024259.410274338,1085076.8893794985,391661.5845152143,-8155113.458651219,-2982758.5953968815,-2924515.81507432,101285.6872846145,-3197023.8754341574,-5109466.300539627,88901.4669956629,-1666866.009870994,-17839757.9539395,-20101795.66687418
59,22876796.6676957,33559105.190901816,-7767798.185288776,-11602073.923172142,-36636466.998830356,-14507568.226521898,31695985.07904941,7263788.115588718,-14771613.601765918,431819.3442644796,-19425901.023585487,3990169.9992985018,-17974386.29053911,-15497360.016742503,43504081.74558383,46206463.16848935
60,-26866862.98131498,-202458473.08004588,-3920110.316346674,-64514338.4679478,3621068.0240193657,26209311.024910185,-95914557.77805653,2468055.1940519637,-99695524.9845778,105666495.41398178,-64467930.7114134,-20539213.118572533,25310595.847368542,10954820.79080316,-197687717.7712246,-249563166.04979876
61,-24340953.494518187,-134331254.5922149,-10904472.750652172,-24441516.77813908,19145660.860734552,30370585.97015956,-79765075.9185141,9590441.811980618,-49398112.47057708,33883157.34896576,-20609443.23194201,-30958095.22287512,9223757.125555186,-1157551.6456562672,-152853188.95020702,-176880494.62097478
62,-255056828.77001363,-1599301542.711324,6925589.432611822,-300311508.9716006,162301907.09829083,421394006.553991,-1005680883.2993541,142006541.16071275,-627172575.7293717,510019628.87625426,-224199789.1724112,-210112932.6179099,206354574.33934882,-6743142.114112694,-1819269975.997158,-2145188634.4415698
63,-591373696.0078639,-4757848927.2167225,130847316.37975612,-1009000006.3471712,452256575.7814815,1222981352.7516148,-2670147572.7365746,615182925.2582016,-1930000127.0380218,1754391622.0505972,-814095159.1034548,-574249907.3569889,634410087.66218,301838435.7412336,-5109669529.023848,-6086900097.040048
64,-1479051774.0281954,-9378939552.865763,735746918.3527694,-1553925043.234953,912633510.3206904,2334520636.610161,-4713555063.198825,767684548.0804093,-3251909798.2556453,3443245100.0582376,-1648986731.8460045,-668527637.7665962,1537403944.7559698,748583951.830372,-10068669845.16101,-12208046416.697342
65,-3161075916.5414433,-18373788368.19855,1913913616.3502524,-2323687202.859745,2153374108.0895057,4271757284.183331,-9090508237.842537,296056536.7084271,-5206752668.316836,5752623777.080648,-3045245319.9372935,-1510570720.0928946,2818984255.4947753,1279443757.8838089,-20208054751.11031,-24487965893.832283
66,-4814068800.298237,-30248737222.028023,2595276700.3324375,-4489510854.502874,3187361047.623274,5994472250.257896,-15356463057.367123,531301858.63792104,-9647387501.084402,8921747678.297682,-5549882297.110877,-3925338458.52958,4248461604.010504,1828648091.8578143,-33235272156.549423,-40745730315.48537
67,-4764918209.815552,-36334036082.87124,2066695436.001148,-6898217583.5581455,3290044663.3960633,5561924985.17746,-18506796937.02613,1636121397.7629316,-13473455108.774523,9936425760.46553,-8002929494.757281,-7322953186.197084,4183391638.411565,2373718914.9770656,-39165029973.55915,-49024320028.99827
68,-6937026874.676625,-49095875851.609825,1179883640.1134725,-9398278877.314123,4494406821.3921585,6859662225.816853,-25392713465.666767,722711419.9850745,-19419042661.26625,11955807798.688229,-11399345152.984648,-11784742712.68879,4140729748.013675,1896879021.6188736,-53005480927.499756,-66105168398.93492
69,-8854881533.459896,-58410267956.25668,347600403.7133911,-10856761211.43906,5886698494.467201,7822472850.233164,-30415678560.70417,-760353257.7103012,-23501763441.21866,13593581920.351309,-14010414783.51447,-15386054790.450531,4254207646.5889964,738905656.5001006,-63220765212.99066,-78128383980.38649
70,-8921500520.346603,-62030242515.47532,-723273326.2664999,-11566324518.7867,6398948665.4477415,6741553699.894804,-32477926159.0909,-1867946096.4059248,-25563649360.919373,12580727428.364202,-16135980707.362474,-19340067514.137363,3548166322.4065013,-794336563.0720093,-67911796686.91528,-83254877982.65259
71,-8797149538.747374,-61760536182.11378,-1397960718.9226758,-10429473337.925331,7802353234.732211,6446289971.448346,-33067702120.36173,-3420600783.522223,-24771972332.845245,10169139942.942276,-16063386380.67896,-21514905072.603943,2869765881.4934373,-1777547903.953459,-68749877280.07173,-82943381401.74438
72,-9729509983.892565,-63361863638.95331,-748421963.2943318,-9164862695.5724,7859345817.623653,5890939067.606286,-35106079476.66664,-6518198636.764043,-25437077906.029724,8792926900.372835,-16144893319.174637,-21599515689.130142,3821141229.707376,-3347443308.0009,-72830953411.07173,-87185083260.95622
73,-10121065261.905598,-58963425716.49882,-341490210.5190956,-7987029539.2802515,6597173785.895107,4887375147.169314,-33367719330.025757,-8552748077.077211,-23776043020.48094,8058588856.21532,-15438668780.000704,-19437502898.551662,4432394584.309299,-4273559425.651024,-69187605396.21643,-82306482779.7867
74,-9842365232.669153,-51381826539.37414,-210042971.34095672,-6565172632.267727,5462063340.001286,4585644451.882906,-30426082242.13135,-9404420242.46598,-21295840341.445,7855454632.197137,-13712046780.86465,-15794865969.576057,4634709436.755367,-4610634965.190007,-61305426738.69365,-71993423287.9836
75,-7991206899.263483,-39671439224.02538,658082533.2393253,-4577533926.697625,4262491947.162266,3783257489.4226336,-24832940008.17067,-8667402548.602556,-16195181226.949453,6385566254.756827,-10520469737.20375,-11091456327.261799,4485088346.12575,-4547466661.316957,-48985003679.0764,-56435817176.971664
76,-4642557810.739976,-25858257888.904892,1665014590.283945,-3075934572.7312922,2849917981.806321,2688852577.355697,-16455078674.827818,-5504126740.008683,-9743691776.531929,4844289030.107719,-6812443793.74851,-6205036867.935056,4005634967.6591954,-2566303576.6917124,-33198795671.3696,-37880283209.584076
77,-2636636935.5066347,-17338940715.747772,2235478018.931082,-2190528489.382669,1626071258.8010993,2042997382.0785253,-10332593533.54816,-2542589480.5421405,-6048767592.572429,4406936096.828858,-4303520048.865764,-2882356778.160089,3473202350.9754896,-958083951.2213472,-22271519041.945732,-25865051498.147476
78,-1572389225.654269,-11106470227.132586,1745185509.6941662,-1345567831.06614,817339975.2404814,1297070174.3545983,-6346118090.737119,-1197774597.0359623,-3910276550.1162786,2855745200.7420597,-2523462732.2983046,-1478366444.1300354,2222638831.9984384,-259559323.88354665,-14119283346.12787,-16820026910.054749
79,-541661071.6663755,-4548747722.833253,1006160887.1684501,-519458717.59094894,219118576.1243468,480129664.0756503,-2524530056.958074,-394401433.83109486,-1613788223.8689287,1159585350.6312315,-1047831201.6123224,-435645994.709848,1028336371.3325988,9645910.738766277,-5781992425.078371,-6989662783.943783
80,6596204.119572639,-1418818179.1861765,576081535.6164544,-165642346.86705378,16996912.12936667,83517783.08028874,-728239591.0536249,-41731275.997695826,-524475874.8368066,405009034.248426,-404082262.3368109,-65355296.24825726,467275916.58442885,102927135.15046382,-1843672828.4268336,-2292821086.721976
81,58115190.19214993,-176050202.74358597,140595294.42410767,-2573855.8083458105,-3598118.345519287,-38950673.80176,-67447597.67435528,-10355862.328775376,-124257356.9574816,28349234.176520593,-91999863.35439575,-30097874.89621789,73359459.90585297,44794747.05598109,-207207984.23371902,-344756023.6588746
82,0.8133946150932565,0.3437390398829605,0.6772173553789524,0.18407689572047292,0.022878173913168265,0.12792785716517086,0.1730102833394468,0.35911625984995055,0.7709309081775438,0.7053097960694049,0.7306834061462756,0.24848393970728955,0.06138686896874146,0.29230498867769084,0.17402579609521462,0.49681121522301896
83,0.5032458002121162,0.783386338543084,0.9091397954769865,0.8374489548663817,0.5587667820866083,0.6092932779483103,0.9297446512514198,0.2639768208962231,0.12234320636359308,0.3967108058110188,0.35713029255676465,0.10171656361288861,0.12579668289712942,0.672477796432893,0.35649813549547404,0.1024821694221637
84,0.5158890547951527,0.9575474325186868,0.9531874944039337,0.3976075833156121,0.8846567151468918,0.890144462508352,0.19483425849079639,0.9539429923616817,0.05187443277016135,0.8021897452185218,0.6791480211810424,0.8315444843476187,0.6346836103239202,0.7394374252126568,0.88305415005121,0.6473924331343576
85,0.09580302974600075,0.038212696024866544,0.1589983957045179,0.674117026923862,0.3341345708660012,0.8206039771987211,0.7795266974807225,0.7404900168729712,0.6678375185734987,0.6936246764224757,0.7452014638481022,0.6909257718194848,0.15867550301919353,0.5659969741340053,0.8823170452006778,0.15424673087716845
86,18021405.437730055,58459048.23589278,-6847744.880515828,5134667.785938686,-398765.6108743464,-8116701.597224767,35802213.546429366,10885282.647832027,33252052.83006516,-13598149.589309711,9087144.631575083,-269865.79506723816,-10409223.258935722,865496.9311796777,68181233.46923874,88285921.73582086
87,55291994.867987595,-9135881.681330621,-17605134.351019066,-46119009.89233702,-80499798.9514073,-27813457.475982007,44665510.643258214,24542734.669301137,-76189141.44569525,22036185.09917539,-75616509.05615772,-18165808.831927072,-42335678.72745306,-32865014.121988118,6002615.678303936,-31123030.841306437
88,-100816859.04369159,-323234097.510843,-52111430.915846586,-55061377.37304068,-11282105.834391532,63569483.64766918,-172477348.74406016,-48623901.423602656,-172421018.19629171,88274897.07330458,-69769345.44778833,-51577863.85539964,-11407128.450934412,-76728290.64970309,-321093552.6849649,-388868737.61214405
89,4913770.087273257,-128216365.31090732,-94777741.46697481,-170350400.1830686,348188803.85815746,-266016346.0760874,-372125141.5906605,301568996.87597185,83615239.49887918,-54477715.37030881,240690880.59653458,-530461935.64273995,502269229.438201,147194414.06993973,-507162589.8944274,-546714170.3466157
90,-387233335.8658066,-2872091257.5136886,532566319.4309871,-334848034.3557123,866726944.06763,230834530.14867607,-2000431054.9207392,594890259.2345853,-686257881.9105552,569597723.2368454,12245115.534772813,-834702957.2888141,1256482348.2522352,536110529.18079424,-3618829104.1810174,-4566995592.945572
91,-556910237.7505807,-6111280781.225242,1521334663.231155,-771603083.3329413,1378094125.1295812,408758956.8227928,-4149236205.0015936,1184225161.7369072,-1906133953.5319571,1361855060.1284122,-614404260.0816405,-1480850138.861189,2542128677.118868,1107192325.8891098,-7227528441.594147,-9306931246.021189
92,-1654927663.120222,-13771482412.160563,4198710951.8980994,-994634754.3471124,2525146825.910058,1032389628.7297814,-8720117838.323269,1379139461.7329772,-4500208436.34866,2717068559.896614,-1935291127.2930484,-2249625824.20871,5107756606.649978,2466341842.6782775,-15261811337.719948,-20824662255.810028
93,-2071480979.056216,-25606679378.579937,9003614191.95633,-944049304.3892004,5398885222.297592,1404454411.609632,-15446227447.638842,2109843064.7468822,-8070423129.8388195,3456391556.8215737,-4094757208.6902113,-4887599946.072617,8610769835.350632,5233346504.274907,-28078033198.67441,-39240840764.66162
94,-1013132597.9972821,-35409500617.29329,13381206434.289389,-2313468165.247188,6875450543.506507,483627045.7443329,-19988973349.8959,5418677915.592248,-12169186857.286644,5812367360.422883,-6952353230.955318,-7130833380.382585,12253514174.861498,8122004747.4091,-37433252154.00811,-54530838627.62309
95,-300490572.49903446,-45397943217.89672,13248327578.868341,-6651229530.627586,7576770910.325016,-3579047413.9890547,-25675898122.956688,9678321509.550259,-18490594768.460445,6287586171.071452,-10470165174.52683,-15162499249.364063,14471384944.27192,8888448554.062569,-48430699873.275894,-71719749810.72867
96,-3254811242.5139728,-58987548106.72321,11232415039.674404,-10795707662.575146,9318984896.40979,-6721056551.51378,-33339093717.376656,9589929306.951706,-24830237428.768246,5997232322.369264,-14148422838.531006,-24805012305.31003,14780811184.687489,7628296854.824112,-62351527340.92166,-91942214265.91603
97,-6617289619.156896,-77939956355.98296,9245145403.549898,-14074617058.368538,13321544793.473722,-5065249655.62262,-42327015311.45149,9231251834.984701,-30571875889.38813,7956776103.751584,-18569242082.34705,-33817374115.715515,14207015356.504938,5600279168.278919,-81952836907.49113,-115809305230.47876
98,-11609271707.063568,-97363187731.00331,5217367741.532417,-17002559302.902683,18217391461.84814,-5021882230.492146,-52807934370.583305,7794709242.89015,-34842848262.34849,8682408334.221704,-21022579374.414413,-45167926765.966194,14930723063.72317,1838185950.204614,-105743665374.84563,-142746568818.65997
99,-15372706315.726812,-110633858973.92386,1806987747.181039,-18501553248.444027,21336934298.206173,-3658441264.9715457,-60065684889.78695,4708602870.02218,-37427735699.68318,8519007711.208104,-22899470695.16154,-51428114413.13663,14660545459.704224,-926854646.7462318,-123428166181.12256,-161152842710.51645
100,-19779656788.939465,-124759280565.5963,4485104187.955584,-17332582020.073597,20745066663.42045,-1105266444.8252137,-70898367167.90717,-4606810166.1922865,-43319755713.30131,10197252058.94407,-26569095455.5911,-50897007312.66102,18264781253.69786,-4737732188.186738,-145743603845.47162,-184417263007.94608
101,-24685881708.360832,-133128341041.39594,7128575162.07316,-15893651018.014524,18591413877.00723,1591248595.6362953,-79694827493.11198,-13958180113.681185,-47201532760.009766,13338579009.6394,-28890865031.98884,-46524418245.35456,21883741814.20425,-8824533229.16883,-160622451612.9899,-198112318553.38626
102,-26001626898.69068,-124541717902.46812,9659084003.051174,-12398639363.139772,17311508607.909058,5420646887.045758,-77805654703.16498,-17107922896.02128,-43271979080.522446,16490744961.849237,-25407802265.75148,-35158027687.30797,24851741784.359955,-8421029208.841449,-153846467860.78873,-185999135176.89658
103,-22742633244.73109,-105328959544.83775,13834887294.763933,-7665237354.915244,15062260603.029884,9278822040.393316,-66934455968.152885,-15117701559.676228,-33146606644.59682,18702912853.786594,-18970087766.26535,-20349004279.18438,25479787689.658222,-6330789976.39552,-132494235411.27028,-157869405504.40326
104,-16217060989.336948,-78835738596.86479,13698066282.55329,-4470768703.221042,12015662772.135342,10187180581.45024,-50109660850.50672,-10338596137.526918,-22535128303.343845,16940222820.551529,-12032711537.076988,-9912950300.962484,20691651824.139355,-3237863802.607639,-100500349886.92531,-119060682981.60777
105,-10550302837.359575,-54745510475.62788,11348833583.840847,-2317095385.6993685,8782927053.080563,9742749077.361794,-32637262573.80668,-6590403813.086024,-13794749475.004227,13608352759.126532,-8060574391.110292,-3117762104.892968,13122679270.240835,-836669792.0472404,-68461047394.43174,-81253810283.1255
106,-6377579916.743172,-30730089248.97895,7108387342.31659,-761150528.4873625,5169221329.122379,6273086044.2600765,-17767718422.02641,-3315323877.82432,-6945006365.522743,7968095989.95149,-3802718079.618596,-535683169.87300414,7513052201.341121,56829321.84518023,-37982284787.806595,-45338636355.41907
107,-3176922889.7656865,-14581561463.909792,3769028209.713703,-449505779.30185086,2056997714.7755978,3101177053.838349,-8327542300.482105,-1381066065.8796816,-3403160432.751624,4271105297.307985,-1744691752.9156656,284259248.8912287,3997971669.8370667,77023495.91280693,-18093219925.060013,-21618748263.35359
108,-1150372955.1268306,-7104631535.429187,2377424703.840703,-308498340.11427474,751071470.1064204,1465573588.6019406,-3857346985.7313595,-510891980.85530984,-1714946048.876395,2447371161.449401,-1073577184.6143613,385505191.9673511,2211734620.0666337,150075908.954471,-8767756972.601173,-10616886457.731783
109,-99656958.61675467,-753455530.4779428,385778049.6439672,32692210.988871388,18609623.900644124,60934566.61243374,-436797169.14770246,-92664587.96884963,-261297669.10926992,253553613.6273657,-120021811.26647785,75952162.35053462,279896107.1587228,-46064484.57330573,-913888760.6636885,-1277770321.316937
110,-71797049.00530484,-289785034.87712824,70555639.74597396,-22334465.764716446,-28530723.1367623,13452101.004245961,-183850243.98950973,-53880913.79520588,-151560086.53822124,63196138.509102575,-55023972.80170388,-8785479.582687706,71249248.83376324,-30019334.217862565,-342554882.2783847,-448303230.99854904
111,0.3267949291903761,0.511996349020521,0.5010964999357611,0.8093281006396662,0.4283557733694523,0.08422133870613613,0.4907544664115969,0.07501469678378392,0.34183320327223565,0.41141991092922114,0.6399087802358768,0.9075080365399659,0.2019528690664435,0.9262340305150598,0.6648564951675837,0.4863369999848829
112,0.5742823475648685,0.39288486770893427,0.6353888792618919,0.7706405796149258,0.4554108042157904,0.7877253611116849,0.23482229385930153,0.9545946809769984,0.811294725341884,0.1905278559023803,0.419289661976483,0.23491827198138326,0.9575407204913914,0.8726538569415404,0.573588305347966,0.7856728669897504
113,2188849.037829683,3457119.665464105,-2999446.278815174,-2377874.8942865734,-566369.368936069,-6716511.06678889,-795992.6262127038,465497.1524138959,1055023.156120525,-2739247.8720956068,649803.0179251689,-6581204.229770338,2048309.3913210046,-1853348.0584482865,-1934904.5461790387,-457610.0280277036
114,67587148.58495429,312858473.87547207,-33955074.16578673,21532543.32524756,-18162767.858236905,-52355535.05400467,184246214.18371528,58254309.93142019,137476807.8687617,-53919679.96557115,59430054.37331268,32744389.06172807,-25466648.538602747,9804034.816918857,368697121.5844537,459698895.28477967
115,336473.2720128156,149699401.16911674,-80829382.0290118,-59080702.55703687,-30397598.620329924,-198085616.89214763,48639738.6231019,18306314.534909032,12843391.69152768,-60231372.994461685,31960943.430494927,-141410035.15387493,54208670.63301805,-32789677.951511543,117822374.77009498,100786766.95247142
116,-62032725.15768783,473688828.9783443,-511438934.7361273,-188203730.57752377,98298588.93614711,-958749150.1551741,-464026287.5888977,-113862811.42389004,-132117829.31249504,-486679269.6994701,359536695.81979376,-983312496.349702,493916358.50157154,-497171753.3850354,-300976584.8984598,-178768615.0795782
117,949369617.5521494,2904293006.908816,-554776744.2848108,7264555.307993374,1454798894.035928,-3252861926.202482,-1123334009.8492455,776582767.6102544,738378654.1560277,-2277286388.6065354,1924169753.6420314,-3476985095.1408486,2178857490.544705,-441462628.4866452,439965370.9973736,744616860.3042486
118,2439054788.4324913,6007270840.223858,677016167.2919395,218573266.03475797,1899719241.146216,-7027998708.175006,-1570437580.4605966,1374693946.3799326,1205888220.7794409,-4826235518.213317,2620029143.5207634,-6036367383.192013,4191455642.1900353,-496372086.00978786,2152684953.0316954,1732084963.4463499
119,4245256673.436259,8304655051.329717,3475752041.750004,925910380.0398363,3206340535.971507,-12409355958.217113,-4677167218.684668,2232106978.384567,978967225.3311512,-8579507506.0400095,3833756432.8582997,-9550852034.2169,8889986699.806143,-325189022.36467963,1519220745.40091,8641708.625772953
120,6879339905.241358,6119364084.970564,8722849653.429672,1625259410.2526717,5975499801.419807,-19280728644.979874,-10778001367.804863,2820717798.769219,-791878650.3028395,-13270509764.507303,3748154255.118525,-15689142021.179918,15143236763.443771,915184272.8527704,-5504419506.359511,-10500334576.349724
121,11530613803.132664,6653210230.218014,16237170154.479057,3213850842.6557484,7936376331.259527,-28693837041.061966,-13830615961.042753,5701701815.15392,-3244478691.869096,-19715781486.744705,2843496707.4765205,-22098850280.828705,20101695297.670036,4172346453.6620784,-5246330454.339217,-17055096543.420618
122,13985762195.204075,5678073363.340997,19448986808.62203,2145576204.3499906,9873652528.050259,-38650171416.073685,-15986710214.388058,9077573709.693521,-6155979030.5013075,-25818987634.33143,1496449815.1222422,-32546906313.208294,22191182781.501743,5985791242.170307,-2932581392.008879,-22805442635.647907
123,16473808187.000658,11956433934.277466,19487292678.18544,832912975.4260124,7164865589.722467,-50238468881.79221,-14664271297.155361,13122303214.586977,-11171101200.22191,-33922816955.944412,1174992914.5009873,-41128653220.834656,21918032520.1716,4428140967.050111,6389328363.824627,-19527571046.304462
124,22054450929.9586,11676433311.627737,16603171472.519657,-1754143492.6762247,5133270974.844583,-52409022533.14366,-11285498503.101192,19703823045.983578,-18163792736.516285,-37305930156.25284,-2006828331.2489336,-47201350850.95121,16377376276.276823,4320461092.8103895,9459770286.85439,-19714824937.73003
125,26841743908.45703,4287672483.798672,10090735164.028605,-5191270344.77983,5496448655.440662,-45804208082.51993,-8958899307.12986,25745495623.215096,-22913926948.777355,-34953067268.2426,-6102239982.906614,-50408189288.61152,8455445761.814048,1744113203.4354632,1487775428.528119,-26942340563.278233
126,23031110964.027695,-8667355232.075918,2541495241.1495867,-6380299304.79691,7843994551.861461,-35220710856.912315,-6617320212.342566,26693863099.313442,-26775751394.260128,-30496061797.626537,-8533925927.814976,-48616236969.73819,328661103.4995832,1645612993.3901207,-8076752954.913916,-37522758713.83522
127,12815177341.346899,-26888846875.03898,-1599812170.5453472,-7548877418.89553,6017617407.36993,-26653695184.648205,-8659268814.951508,27025526659.52878,-32889756620.727337,-19881882608.580578,-8712181483.650726,-41178564028.820114,1553863456.4036086,-1771521861.999582,-23939931421.462917,-55567838659.71239
128,-6151571803.996171,-60795978541.147484,10069202384.675175,-480033280.7609247,9500334790.118208,-12764463463.878172,-24781416634.978653,18028659565.316467,-37343960016.62936,-5131937093.106439,-8341396246.848136,-24358110973.979416,15964687735.697672,-1612297828.5767574,-60125632990.67231,-96732392595.84346
129,-18877642411.31308,-85785751624.50845,17183611873.573174,3628186962.338122,14468637516.87743,1286659608.6949718,-40052628271.898224,9024648236.254444,-37059518121.815926,8622534734.229166,-8947518296.344658,-12688429794.852774,23471464885.973362,-4023116122.5369663,-87618475076.46455,-124212321726.19522
130,-23526430630.228107,-93245328031.42647,15329100872.947556,4750042327.84424,22766672083.584152,12096001760.664196,-46185323124.95766,4965822621.3289995,-28840763322.534805,16608630463.089188,-5520946713.245504,-11437388966.181986,22969812640.192657,-5131745757.992798,-97161311894.6028,-128845893310.1604
131,-22927225866.202595,-90373050836.86613,11227848475.573889,8575704555.799749,32001681517.012886,25203584200.653477,-42908265017.935585,-1828281003.3028774,-14960084483.403639,16239146464.852306,-3146346932.148398,-12898397135.423973,9947730665.051199,-3863353696.5148177,-94032263692.14194,-117082926212.31125
132,-19962677892.110447,-76213829105.26923,7732702775.581755,11892481109.199614,35150167665.59874,32047224417.46419,-32466749535.8515,-5073892898.441961,-2991482003.6019545,12304696825.99112,296322478.0119482,-10177036888.692947,-3365327855.8388934,135567733.07290736,-74425339198.52156,-89692062438.0626
133,-24242060914.940483,-62595891364.26237,4479079562.792396,13274232773.084215,30357114947.924213,31795806845.775063,-21918260183.49492,-7131930366.187461,1745901766.2474594,12419030110.392447,3311127196.5001526,-2488457580.541449,-9523282913.60342,1709595434.590755,-48674096423.21844,-61344772732.832954
134,-23214449490.856045,-45327839876.46872,1264898571.5481994,11385027916.071825,20741664300.32646,23430255567.614815,-16238201543.980375,-6626168088.667253,-1325062449.4072733,9693191558.738947,5108344202.555819,926015793.1323228,-8959637327.684591,-723614575.4539161,-28621225514.09354,-39398285597.81792
135,-19219113612.688313,-27429987168.252953,693988937.65678,8699170990.140274,11369160722.51465,14489329825.05447,-9267528799.725676,-4994943588.933247,-2430347234.314152,7193083091.516624,4949642853.189601,4283726511.218797,-5361547823.121989,-1025048444.4807057,-11017193830.03163,-19501286457.98293
136,-10216073140.26519,-10601899368.388826,335312202.1536864,3846347515.3998623,3712316967.4792533,5163114497.40636,-3334503972.374164,-1000201189.3799336,-1971907120.9095361,3771126941.4471445,3566898023.0336266,3382802941.6788154,-863955361.5466962,331953357.4619246,-617140822.0250272,-5471207832.020823
137,-2671130303.6075006,-1634837846.4083614,-90347600.35635705,667336837.3053913,410487503.9093522,252999974.905847,-442376517.44378394,-50545102.73489318,-659074918.3259665,550729416.9634738,1065688042.8447671,424092015.48223186,82316664.83704554,312961207.3334256,1315590763.7169123,-299364852.148961
138,-344984785.70628446,150511275.12071136,-230168578.149526,18132160.63725342,106748690.94471602,-55228364.72342458,124406380.97251227,21541205.798764855,73183717.6783923,-131778888.98618305,252265863.2287991,-128043502.14550932,-71945835.16610986,238542757.60561052,643018286.6225243,530496925.06821436
139,-28898144.810837813,-177799690.3082045,28065384.559398875,-26343790.13018233,-17956795.62357056,12062957.951130893,-111157162.45633301,-45668912.386251524,-93840341.1883932,31478493.46457624,-47574607.666670345,-17567598.58204838,32095068.908570986,-9681490.616473792,-229516823.29982445,-278057685.5035565
140,0.5425276870171705,0.008107457186815381,0.5138390450822673,0.2701681568067006,0.391377084852473,0.5992494947428605,0.6793132024810028,0.14823549122786472,0.7844889638822266,0.6446142177119871,0.32659679072371317,0.2785593202087202,0.4899226968859651,0.6050536618931881,0.14415997917656254,0.7904055856327689
141,0.06582119451679647,0.6371212713572681,0.7874204159190323,0.746758534511478,0.6294228985258887,0.6937866278216861,0.7571043380983588,0.43191094952858244,0.192101186802754,0.6420538528915471,0.2586598180121502,0.8252090511980333,0.31017788439136096,0.09247428948935299,0.5678829242500744,0.1644464894967772
142,21471196.42928119,3405512.292104738,-20431984.9301563,-5047013.519865272,41850260.41419466,-19165154.518272668,-29231736.09759519,-13986695.909273019,15474939.009143041,-46515833.08759139,-3247612.36605722,-67156912.59629574,-192224.8273159318,-12200583.795596285,-33025011.997399975,-26509295.335753463
143,177094000.34025612,1154527811.683968,-647486135.5993546,-350287544.3039605,-109166631.60610044,-1168477533.7311647,81310598.71063092,207785907.14492875,65549101.901032776,-522633484.5953963,361604117.59832805,-1025035405.1680497,293969535.7633593,-409882341.5481441,660639065.7774737,890285712.531351
144,1310808619.65851,5137316221.046301,-2192596841.9812803,-719233520.1942675,469366345.8662515,-4992824925.848987,-515411324.6420317,436713285.0997335,842379910.4856273,-2836282711.5085735,1969436921.2906137,-4497679376.918298,1990873656.8573768,-1802560505.9904895,1460699944.838833,2996906407.356164
145,4534798703.592732,15336279917.82452,-2457503692.2684097,490632200.40687525,2428033675.275456,-13578815930.891445,313241413.92026997,1949106963.2885835,3599777036.002434,-8120450740.239497,6200611473.925382,-10513894824.628023,7265089665.909723,-2996208638.359114,6559853666.533237,9277143435.97884
146,9335600465.186333,25887013977.052914,-1554306314.268265,2423945696.389678,3016301681.5954204,-25946665789.181515,-867284793.9873073,4134850722.658686,2111763282.7950282,-17488052959.610893,9917465391.61794,-18946555135.61486,12596758411.6384,-4885921138.232082,12590049101.550358,14944035596.701378
147,13466102565.346424,31229550176.20587,4301180512.615151,6530507935.879812,5281456195.80829,-38682553300.67308,-6367422554.09898,5945230884.282049,-2649707184.549941,-27974983493.332264,13278503969.678825,-27375039519.430866,20321561107.768425,-4969177518.966551,13879995014.312445,12759056615.660378
148,16397537495.634901,30204050899.979984,13863949761.809706,10582712369.825779,6610678748.444998,-52690732045.18949,-14518391887.874062,6254760897.911151,-10810431112.700026,-38183185459.27529,14370225582.00168,-35170027557.9454,29228463433.55249,-4736826917.417975,9476810118.061075,1580383106.1457834
149,20064739424.904457,38562755876.63513,18567999457.496483,13308649156.85629,2272014248.6619997,-70676274532.90553,-15130140686.27993,9924840006.690548,-21017908448.900608,-49895437952.6159,15807941541.28865,-42581590729.86227,35179696123.66192,-3983945116.9303284,20087421209.823586,6699990700.3586855
150,24697193813.375546,44300554357.14707,17790856646.81162,9595201528.030699,-5455968654.803581,-83482531225.54724,-12567684373.275642,18518774527.999268,-32764438654.494453,-58925203002.53287,14135111664.732851,-49677675485.178024,32996310103.884117,-1563378285.3254175,36063875585.29468,18291905493.098854
151,31343024261.19115,55219497410.52297,11776447205.954102,2961556364.5012016,-21598680927.962486,-90057760398.53784,-4899345137.722238,31883459650.23893,-46552668571.32584,-67223639877.891464,12579404954.191313,-45527164471.36825,26629775418.06401,2881873083.160599,54458169295.72756,40138816871.60426
152,42170422664.66441,45707633682.83327,5930885525.848438,-3607649675.344773,-33474897592.775993,-83830804057.61472,-1464553468.6272237,44381567943.90334,-65377224538.96719,-63900223323.34128,5700968356.017693,-40462742574.8823,21668069973.48493,6954731104.600686,39403979353.08512,26175796527.372715
153,60304216484.788246,52503433820.50776,-8122633175.329493,-10587569591.22943,-43678581525.20641,-75359533843.08571,16591823443.555351,56957994297.132225,-74674136795.12898,-63568930240.98133,-1525484868.238688,-37648711356.07831,5437077493.892558,9501528432.888372,43629235170.113914,36092809872.685585
154,66603807242.167564,43603043518.768394,-17099260681.572096,-10205028786.792871,-42911473496.2465,-57707494931.03301,25116893347.31676,55871196302.825615,-79865394130.70868,-61303680913.82333,-7916059052.050558,-32007608634.31084,-7080685356.739967,12892499770.42207,27402172466.412437,24292095840.62574
155,63488971957.086655,32945103846.309788,-19103599787.660633,-8263523693.92047,-46977961499.07063,-46086088309.538025,29412324067.544975,54952792527.27893,-89833035182.63327,-52680088941.88826,-11509596743.513987,-19825318273.227043,-5158646126.283624,14503221025.47659,10888959982.998652,8149971871.149437
156,44951304306.83819,14869565606.542938,-11425670840.470484,3380442412.9702125,-53304361491.957596,-32108754222.76013,30070318867.265488,49434114496.03701,-104847749554.7364,-33061485132.069187,-10223308481.273884,8477782438.778362,8842883225.407778,14524203037.070177,-2415389757.425373,-11807888856.61185
157,20877279196.570995,-12323490860.633293,-3094928447.4846087,16299441720.438133,-38372504106.70893,-4023926879.5015764,23004696332.573402,40913226200.451904,-98174297976.67255,-12903414330.892653,-3169435888.083466,27194675376.911118,10250246926.232159,16114137099.37679,-12443094042.177917,-26470376464.399593
158,1367560007.4681122,-36703632359.46545,-8618131853.098309,25063180908.242474,-5799490315.433542,23921710041.43125,13127856915.293564,32120182387.541946,-73847360207.33096,-3551922707.433168,8243234092.45535,16680467471.374556,-5725917288.976404,14780980489.458195,-20382928298.109756,-32774745744.341526
159,-14328219811.966845,-48911857971.25212,-17940799794.49914,30792747577.370934,23544612426.905975,43171786341.747826,9187584798.840944,19622023148.09436,-42893352496.45277,-3788150071.241477,16225725225.581352,-883342856.9299018,-29552975034.946022,11484726188.550861,-15016695991.543787,-23694545589.873253
160,-28915243573.060097,-55299006560.99864,-21492384889.3575,37014127441.6231,39367007614.231476,52200136391.64794,9756747883.936754,7883579611.958637,-21654381230.193306,-4717262002.325723,20402138355.669594,-8201216181.656546,-48425694699.677216,9409152971.599123,1299530846.383221,-9855823754.209385
161,-39776593977.01487,-54670088735.44761,-19367234004.35135,37352919452.22615,38624392076.88948,51685539687.65501,10072150480.096027,-4458879520.369113,-11617385240.61574,-1739413500.6646461,17525703650.78264,-3050867485.950158,-55646605021.1379,5931783971.201754,14879528929.123981,386588558.57712454
162,-48344381490.37557,-46284727962.93683,-16010299536.788359,35820945734.714134,29631740486.375126,43267380330.52479,5377324966.075023,-8878728968.783905,-10578384675.09485,3396326512.6053476,20114223315.389915,8652894637.887304,-45057496086.04503,340695402.4721029,24891627223.705887,9556004778.966553
163,-48412729885.20162,-37024062569.39938,-12420324331.019833,28307951502.569893,20669644229.94253,30251180931.10388,-717796119.1361418,-8439870807.597124,-9080352400.90464,6305197994.465954,20303841700.814476,11520572505.824242,-27425389881.015358,-2334609771.9487486,22349468827.027973,8036843857.332635
164,-31980434851.86765,-21369097640.710938,-8624356161.439308,13251153592.571,9410560132.711992,12535131351.840384,-1239485118.7780912,-2318618116.481127,-8095782423.94628,4399698224.597839,12692997570.026613,4233415286.9005833,-12691488726.967499,-729504608.3694235,18041464867.839954,5420604032.389761
165,-10534098180.701458,-5075838365.09531,-2812129760.59631,2755031975.413626,1079837142.552177,1543048506.048592,524596714.8245645,1137724555.7432911,-3809291013.3431354,1422713840.7934895,4329466157.573101,1025365342.9712622,-2535895944.9605417,744830741.1341468,9419984875.061893,3783989991.034298
166,-2229683958.092836,-1607213369.7786312,-904001399.75781,183118336.2844093,416343980.4801468,148885817.1586229,-274172177.88123864,500857185.4375277,-1066317049.6370883,116708796.01765443,851114666.0967302,-569557617.8079944,-445918569.3661844,310358991.267944,1316656884.9059348,-171006214.8421019
167,-134343681.86432037,-314529867.57737684,31659881.504263468,7488093.112686988,50187038.160299264,44279714.09550018,-205833831.16537988,-59682936.99443021,-121207898.22011007,49167293.4790595,802875.9390969273,-45043853.25242629,69586273.46566075,-10781411.406106226,-317717385.7343508,-413422815.30414295
168,0.3821110646922431,0.7274976979013839,0.3115979532883909,0.8344551785414099,0.558454834025371,0.8599426015043582,0.523645653774309,0.8300231996521962,0.5514593810640555,0.4945076349347449,0.9905930287070892,0.36395806863220403,0.7477072420993326,0.4640321835885358,0.6530302319592403,0.26539669408998323
169,508448.70275382244,1113864.466497028,-1595904.779750907,-1389366.0179244203,-626944.9342642796,-3810209.006903509,-1255658.1637982246,896398.1433951516,-1645989.211265501,-977871.782723962,765024.2454082516,-3112048.0610684203,2369217.2841121606,-1617242.27785666,-993410.3089609526,-1009256.9676420512
170,-251348368.04173532,-8679219.152243696,49477810.77170935,48192106.993997164,-90996768.30796984,-316693884.39453894,204646218.90116706,-507310135.595525,27790818.66859664,73478051.32796763,-188188779.28924996,-61671882.01523843,112563544.94262226,-93877336.47330062,19440617.03087953,-213984411.65582362
171,840036407.7552981,3940868743.3637505,-1791884344.0344324,-1008637066.7287041,-338151265.0482656,-4472602895.142871,882356799.2479353,198931248.69533354,372660122.7026809,-1681348621.4221673,835379356.4776896,-3597393520.594066,1346171929.6716802,-1004590410.6733828,2088063458.4023726,2502933351.577168
172,3587559009.750407,12850481007.922249,-4233010199.924436,-935758861.5014468,793126100.6930932,-12512430505.876509,919381330.6055285,526789975.5661591,1496960951.6238015,-6187474568.675617,4259409494.860268,-9790862175.561874,5442683604.135798,-3415246289.0492997,5102337520.937244,7777924207.34234
173,7779048225.182674,25954971773.237988,-4666269128.210647,1935935639.424958,1375236381.1521091,-26877715132.017662,3604984224.0334353,2235290621.5702033,1397284054.3957627,-13945760547.35152,9158855185.297112,-18681074895.04282,12575961683.235794,-4923469230.690183,13291719217.82185,15702425618.996103
174,12924583366.064749,41269023151.107285,-1686790752.4103153,7937142461.278091,1875239008.6268778,-46112693681.44782,6430425825.22265,1129400129.1265638,-1952728220.8918412,-27021472633.047356,13299564497.431795,-29421693464.879623,19877621488.478558,-6348594768.709202,24672283936.43408,24084472263.8226
175,15768603145.404451,43782024800.905945,6281969357.466752,15891526789.76432,1499562559.4228022,-64185900877.76439,922917325.5866833,-1954081152.026601,-15623594475.927317,-40047149573.70805,14921887343.31115,-38447500286.904915,28711867656.74172,-7108250588.818951,23031248319.793694,15251485950.651463
176,13430773137.404655,50643141105.587685,10102318363.529829,18549908324.825222,-6919363147.749758,-87987448510.28621,478597003.16001236,-2734972216.3962603,-30026943870.95305,-50746643849.61276,16184013998.65691,-44364480504.24001,39539106941.30683,-6287415373.242341,30733052422.836002,17125894124.70684
177,10523912075.140747,57370675535.585464,11827782137.79341,16812479492.860184,-22170973572.337418,-105211287769.80905,466448538.23750144,2570058082.9482975,-47681413179.67324,-58014212229.17126,16301407520.691908,-42006252475.33983,44637704827.24907,-4343812834.065771,45564001667.12785,29719850122.225937
178,9676697768.369173,58238307176.14211,6523655597.633639,7039226742.129917,-39860397447.93822,-111753531405.6561,4031751546.8928585,11986000321.787106,-65226767459.63145,-59886367218.59752,11200023325.02633,-38141660612.08261,37855149321.47751,-821198314.6882992,61501122559.95144,44691066462.56416
179,11800299333.274445,50558670988.77774,1727915861.5660625,-9513525373.547861,-61173506766.37971,-104924339811.1981,5323795492.635552,25281038670.00113,-76081209617.5519,-56773141119.87085,1836483780.4651463,-25533311741.71702,25826767368.909264,3016910531.5567956,64105168763.64439,50837739821.31733
180,24106952395.85379,36088900781.20806,-344390989.0036685,-29390447025.612045,-75186647864.39363,-89522787637.10828,-4903209278.541108,45522862216.60076,-78689509789.39784,-53492772993.27167,-6119927755.027941,-18283503093.72568,14371901685.264542,5375729590.8621,44593501383.78776,37126592569.80351
181,46412444739.838974,34259836045.102016,-1151351161.2597978,-56303637441.26983,-88302487098.93471,-74989463368.41751,-19128181880.548923,70939418544.81212,-71013571579.35097,-57596799835.42965,-15590510025.620958,-16540430545.171114,-3762905823.7236857,1779896584.6179929,34739218507.74979,37411238761.67649
182,63642251068.52544,32675959597.69368,-1362087044.8126864,-79115406787.90852,-92054118458.61865,-59072452945.21704,-36389577537.0875,87833117381.79758,-58459403905.28236,-62788052390.07316,-25261454580.489445,-18140454523.18159,-20895335807.319935,-660286511.4379349,24178394209.595673,39989178866.2554
183,74790653195.57098,37356603306.41701,707767692.8801589,-90635594771.71481,-100731015866.3638,-52458097253.45759,-42069984271.06572,94985697485.09888,-58217146388.558365,-61875997516.2484,-33762643502.09479,-11937066803.41256,-23156914493.228706,-4900037015.934569,14200204630.96826,39007510127.9245
184,67986159505.61645,46361721425.54145,7193308673.087287,-73020542293.74098,-102146847330.77704,-42487399914.33215,-23291750261.373955,90371346536.03128,-61661386626.56625,-47217649148.50601,-29523262734.30266,13682604305.970724,-15716844812.59502,-8936235291.482397,27475978455.255806,53600669523.806274
185,46368481436.30125,35438083962.48032,3378633739.288313,-45532387371.80395,-89910244313.16438,-21454324501.173016,-1463029012.4237518,72109417873.4077,-69985311134.5528,-32439046893.818398,-21609376952.673294,26440499009.597313,-24057983582.566185,-12298551056.612923,37466501520.110535,55690600506.1289
186,22763504156.596195,15285583275.687775,-15290423612.331877,-17267107968.753613,-49961315815.628914,6120009590.731871,12516793286.598934,50636478822.235916,-59518430226.65026,-28978778531.40273,-4581703489.952411,6903882890.203295,-47252118866.163,-10200329720.281784,39496847562.040924,54308775882.42935
187,-2144514930.5063736,-5223976630.63638,-27468066160.533176,11677526612.296616,-13883943688.367067,29663708486.23622,25272327885.210476,25968383321.046665,-48262784216.3262,-25297232914.157387,8476838544.434492,-2096167819.5715084,-63689629994.96988,-542881741.483912,41907858268.64703,51149878637.090935
188,-24597508210.906895,-17230576630.79437,-38066164942.522964,27149922540.26589,4163448631.0945864,34756850817.34648,32553896035.27826,9956902143.360807,-42409471899.93321,-24052204996.248997,15147311003.639797,-9660277491.926388,-75976215117.23068,741235980.184464,54437759872.5384,54326836439.66951
189,-42011405857.30302,-27552475341.798027,-33973408154.554256,40272846344.845474,9202271992.054625,37968723398.93046,35539949584.32285,-4049307129.891052,-40597177916.10058,-15451948423.783121,15534277394.22736,1501195889.2310064,-76586917178.46097,1440147802.602637,63996108580.90153,51584680530.19197
190,-60543065172.85118,-35836820412.40797,-29125800598.17247,47008913828.68057,9634819813.538437,40424328381.86092,28213338205.229088,-8883481094.809336,-38140370661.046684,-2708530854.714864,21873371708.045628,18241408741.927578,-65683897368.42141,-1108598899.0253468,67007425931.36982,46057917304.467064
191,-71296942506.23524,-38805685697.56148,-28385579979.273026,40728673126.095345,12568999188.170729,35910496093.69434,14173285691.17503,-4486752358.066633,-30672179214.36266,5738720130.095047,29941786904.181843,20345463958.96225,-46971255501.02755,-2442027642.9848456,61996912158.635765,38946549388.05821
192,-57488679407.73431,-30189331280.056297,-22281186981.074753,22491181354.866764,10672604938.302588,17768446206.416912,4159291135.313688,2361903759.657264,-21746757800.113735,5098852728.20349,25137558753.540432,5113112870.046861,-25031212806.40129,165209237.59996885,47488419011.14532,23841348208.328434
193,-24386288106.46686,-13524569044.311928,-9715938283.69821,5674115793.333572,2450535330.4094567,3922526836.9003177,1460370833.1643255,6331768560.21599,-12359563238.717497,2953739906.3565125,10855373628.673094,-930776804.1521535,-8007998781.952435,2071147778.5751219,23177235978.02635,8933323786.822008
194,-5218681283.093756,-2946162007.2253175,-2898278478.0587673,735600922.0653908,770141675.6352904,318285391.38516283,192875266.14079574,2753689258.897815,-3277403705.355574,384739960.124573,2981874248.562168,-1540340843.274748,-1636058615.7217329,952545637.8546422,5648500303.7683325,2037427691.3695009
195,-472521251.89167476,-344867717.6904774,-178251818.83800113,94288362.59944266,138264505.02501914,39477329.88987147,51845554.915074654,304418336.3577786,-334010200.4519288,89994132.68885383,286143747.9299473,-154915020.10169888,-14420324.97377338,255477710.1228844,467456392.45181525,73518085.94250956
196,-5778606.676041075,-694469.52311652,-1465768.91804425,31612.988018444354,-2097341.824556908,-3290586.933018993,3421485.0291362344,-9305388.787369797,790038.3315999127,1112833.1888169306,-3649847.453226016,-574178.1853489224,-1080809.4094819962,-3092063.5848487318,592060.9273220905,-1647974.641504747
197,-21880231.00851126,31528786.498525668,-46531009.019274965,-10269510.712310104,-40420278.83609208,-190297895.87858325,16323233.91919329,-44811898.3288756,-98311540.82681057,2712107.299465282,-1670415.5244722525,-105104903.53259543,111494917.2610163,-69399953.82492305,-23013376.32332896,-78596550.9254971
198,-643919104.1052172,128105963.1103313,225098635.61002615,453136560.06582105,-41806575.415140234,-520475548.74989897,1015802281.9116536,-1903968817.6505435,433567928.28423655,164102892.87669638,-757246737.308393,59821699.93135173,-135183015.93706435,-172256726.60973614,283911372.43107426,-172277962.6057399
199,175864389.72852513,5960219180.744495,-1980740324.9832428,-121459159.91070324,-603159678.8864319,-7278939230.522063,3903518359.4380546,-3276611925.9465823,1318344512.2853942,-1919168075.9673414,-197998859.71724644,-4546275367.714943,1775670063.9579766,-1563187781.497486,3811536168.2033486,3661642209.694426
200,3406296483.0204964,20105559301.703384,-5824986638.097396,849384686.2853684,612086847.5719976,-21676363615.58661,7629046265.996617,-6200103751.206597,3099986186.205554,-8748331405.521702,3103752772.280214,-14932173941.91757,7529007932.529481,-3550816752.2718344,10285476322.373938,11802822849.819092
201,4687074569.304238,36697181510.637215,-5471956136.862149,8032850422.718839,-460806565.02266353,-41572211840.64433,17837850435.95631,-15196678182.609682,2464171466.4206743,-17149044044.766977,4780638605.205613,-23845303405.21131,14079744275.283777,-6272784661.556503,23762435258.676662,21299828123.212658
202,5843484082.224419,49815913919.82207,997500458.5935032,18128033798.126385,-2080679118.6652107,-61998337136.23677,27328246308.610134,-24166690143.7315,-4233505568.401096,-28422077682.00952,4816388196.481192,-30108323257.10153,20875663273.69792,-3570802347.2364755,38479061669.696846,28923871385.903946
203,-4511010896.621655,44308329822.30634,4235799641.4277,26011100075.571003,-6935496001.996468,-75522365139.00285,28123203739.81784,-36079365891.520035,-21129394919.861427,-32512068271.6187,3281543258.343296,-31203584628.544678,27843009935.493973,409794036.983916,35552553733.27372,16803429534.371702
204,-16015003224.61329,41903796763.86639,8721556200.367336,27982903141.362698,-22699859214.125317,-86987137753.43182,32996317192.971996,-40675704031.63288,-38588353601.689316,-31225780616.641373,-650803237.0899895,-20430802666.21413,34513276786.407684,6893991443.826268,44529521948.204796,20313205832.15066
205,-24459537914.925457,40426114697.38963,10463866247.85245,19955217878.89419,-48465510341.95955,-94706126248.18474,38272068420.482,-43000880774.79575,-55064542789.57223,-25667530681.846157,-12227258039.357084,-6068028737.638345,29938240047.54181,6130448182.038714,58565565910.27989,31407805060.29187
206,-33600528711.735336,36581987549.46689,8541818790.733806,4349223413.964374,-70542839831.13638,-95806214044.27344,42547180264.487045,-42736521296.9883,-62624428262.533264,-21355828920.115883,-25513862193.817913,3388939642.136376,15681251078.588078,4759439640.393718,77018192294.36604,45114213646.99972
207,-28911557193.04074,21707600924.193363,9452263372.732685,-21604371819.193176,-82595459327.4367,-85414988587.51253,29382250033.24687,-21853700283.866356,-57136805475.23639,-17850271798.63099,-35912977497.551346,2911797428.47523,2309999413.151409,5918799286.037491,72160518174.21951,38527011822.13669
208,-9651882437.52651,17515827340.22039,8747585114.914038,-59184035607.33352,-90742024863.61087,-72952932457.10258,2462488477.2415824,9283478876.30814,-34914441295.77397,-22189707059.628876,-43549818110.35817,-8081154173.966573,-18133491012.458046,-1420503098.0463696,63873717542.791084,40054853132.040184
209,21420360452.204037,23845503485.630512,11758165300.50811,-91005922737.93845,-93009620795.2275,-56103112599.29878,-29986550608.583424,43246814072.69656,-12675450943.614624,-32514909354.434216,-50025107841.62145,-17757986974.320297,-40890536412.37553,-9774649246.032747,61387781184.58071,55122482578.61142
210,51995027629.78907,23903979440.03352,17853238030.121777,-119810770449.57393,-95506258320.86977,-45363420585.395546,-62996549369.298935,72320055566.36818,-172137589.3407094,-39620508708.25578,-60809424343.42663,-32356509293.52923,-56946928864.26628,-21500702376.34451,48824968418.45798,56725338977.85829
211,66360657250.700165,39574385481.56693,23367785078.571636,-131411384070.05103,-107307775424.89644,-44352399386.48756,-69516045529.97003,77349008179.83887,7739521040.146906,-41025035193.76041,-68779181064.06587,-23227601217.37809,-58685117533.41476,-33570048900.072514,44290126447.14045,67275123812.54438
212,59762936786.73705,48414981785.385925,20040206884.176514,-110997241265.25017,-112854070604.73386,-40217780649.506935,-47985031132.6716,65358802402.12087,-1961076466.3386762,-35592539979.22711,-64114355026.56392,-2842083405.5058446,-61979164069.53566,-47320014643.73037,51120700373.59726,77514133398.59734
213,43951984536.55731,53905191741.87485,-3133925838.068806,-75839780929.1316,-107455656625.6381,-36097043690.08673,-5302248754.993435,38755161340.9207,-20668353189.204517,-37207196817.13376,-55374577837.22889,-3295191481.531489,-78062293375.58232,-52690599726.337654,68120085892.973045,90904275745.00441
214,28294966445.259617,51894888277.66906,-21968700577.016785,-39035665123.5372,-86271028856.14828,-20205868702.634388,26379954623.007767,12688841781.472425,-35098818972.33211,-40532801110.71903,-39051131732.310585,-4225332889.518065,-86195669276.38893,-38244150010.93359,73380223973.37856,98106234782.69429
215,6330077850.504499,38761191418.93247,-34495449936.56257,-9994676357.57881,-56192632294.317184,-8403909176.869636,38456609038.204414,-8642573120.846567,-38707927233.45915,-40240154527.79497,-20155107561.240395,-11020371612.983967,-81981177764.64278,-25984057337.501827,67556362535.72826,91868696016.06998
216,-15151487440.209936,24880239008.486485,-38594244750.10818,10841158423.266363,-36671514664.36656,-3145375390.4671297,46085454920.20691,-16576760208.798605,-43566621692.610535,-35605906204.19407,-6120441971.888067,-10118572923.738478,-71985590975.30075,-10840988909.194351,70146317406.66876,83489665126.91449
217,-35309260611.803604,6200023031.136554,-38181642104.719864,29173892475.941544,-23030070372.68599,8447548181.966674,43726404739.83533,-17938648837.537525,-49435089897.82008,-29934504033.09107,4970302324.937016,325951921.0503256,-69897820352.50987,-2690741146.611504,75291002111.85048,75980006757.69902
218,-52959600919.95077,-9340736538.434828,-34667005282.67766,41920927734.31088,-13391106429.157919,21940617957.9343,38900425183.69179,-9764018789.520817,-50879408471.421196,-15687755677.219976,17975528485.049435,17479752388.75454,-63184530457.47462,2153840178.988264,84025289932.09964,72267830610.96819
219,-74214532539.4025,-31437283557.36868,-38782828223.13954,36616999424.49685,-2558953484.6721992,30111407294.922348,24438923260.79963,7852154638.128939,-47781318348.10849,3401404163.3121905,31727789059.677944,21034197547.693714,-51179489986.80453,6384607454.961836,85497875113.0431,60559633690.56572
220,-70800823269.13852,-39286252906.187195,-31797419713.152554,21395211123.94966,6112851991.382963,20807181673.22367,7121927600.354945,18786640052.632374,-39330135553.64887,9376560238.819946,32872684044.300262,5982145421.655546,-29848900953.52571,10067424555.943247,68112775417.606995,34526808065.82438
221,-35544247663.157814,-21774664881.226097,-16099200186.482489,6830768197.271295,3849468309.4453983,5815000439.535546,1290279487.308677,15573587242.415613,-21698259077.789375,5108320731.488911,17858923371.56257,-3869019944.8375435,-11290741821.95051,6002015338.980096,36365840262.69535,13711435132.672953
222,-7155526578.62137,-4115495945.4503593,-4295991705.184296,894795755.6220677,1304555864.1618533,651296699.9385948,73467613.8082054,4530033426.072301,-4891940310.360737,378887992.892731,4496128936.886849,-2502407589.017263,-2205144251.869568,1969833087.9020467,8263216716.733011,3345630624.1558247
223,-328145428.3787792,-106782519.90249935,-146333187.17909896,51713614.23593993,-33967392.01469379,-22658720.64275239,84520908.43940227,371328559.9370002,-301765022.7737167,76048736.70796008,281039657.7818272,-35785810.34434247,-12669583.201964173,141649046.88990715,545144710.6806468,283498841.2852541
224,17405304.57859308,-5921130.384699525,-17386181.474534977,-27874785.880804773,-77791235.50553443,-32175410.23379668,51029241.34487754,-6802286.726879816,-57993409.13095525,27997996.26816366,-59683672.12465327,-2247223.2854150096,-34204059.55785371,-34329935.7683607,16552720.160411328,-13516546.3831077
225,-443871523.5668891,-76562334.89216322,48190580.33100192,249084773.4597871,-96151797.1330067,-281201490.66758794,657993080.990267,-1030498521.6637889,25756409.655540068,172788897.08603564,-431429560.75342673,5918076.72890408,-114889261.17867853,-110298403.10629003,138761800.74987552,-273183776.9603125
226,-2744106886.006274,-100769588.6911885,486923890.85248107,1515810176.3513136,-386759834.07561004,-1616705816.8459861,3627952447.4499345,-6895347715.134715,1450802598.9368997,651464879.548499,-2743636294.2984724,234103102.8075325,-835752994.7178711,-842671494.0862699,707055200.4522567,-1064391608.8952433
227,-4077261439.0837054,7024534547.103894,-2101755514.2112753,2310073009.079037,-986519447.8649901,-10880544056.089785,9907866594.84292,-13941165177.59468,3552869116.293056,-1500394041.790789,-3971872050.363783,-5091831913.411232,1038227735.111382,-2360570494.002719,5661162402.7612295,2893358690.4609866
228,-3006256257.684486,25803156173.327076,-5984188174.154803,6109312279.221192,316663595.79147387,-28319251769.000206,19711866017.16606,-23916764562.67419,7978006390.568549,-8566955140.032622,-1765083144.1473339,-15044391967.032104,6973941861.207862,-3916002930.5667243,17249283504.74863,15442410420.094645
229,-5541996501.96226,41626207224.875854,-3736776658.634913,16099967829.444983,-853139776.9413157,-45690679226.634636,34004267189.55297,-39663839879.68248,9559482839.284992,-15459681259.8724,-2241259111.6030073,-18519068448.885086,12062046838.253397,-2273539153.170989,33639603817.639957,27100527595.65082
230,-13885257936.925137,45621099073.14804,1391683376.674023,24354855342.25878,-5757457308.379617,-58019970571.14471,45994328384.70254,-57317957096.80334,3560347169.7797112,-19164226202.7768,-6626558342.8065605,-15269819130.237766,15441279491.338251,3927046938.1052656,43430401001.91228,29563319544.85518
231,-35384415908.969955,28913504665.84976,6897194494.996461,32246435291.500996,-15875531175.017595,-59674457379.27917,55734215348.81843,-79263095956.4226,-11587531058.319519,-9033123108.379984,-16601771686.510452,-1469832801.7001467,18891985298.27598,13613105327.045643,39844422247.76512,14447996326.75269
232,-52583516201.87814,12580887934.241106,12856267132.652098,26050950991.562614,-39363234506.75121,-57045677755.38058,58573778439.722984,-87468958048.60852,-28727023112.450836,3759714294.4371114,-31581358020.095608,18214769975.070747,13279772735.086237,17112994834.423204,45983337417.74357,13101383076.91623
233,-59531708705.858185,11527860244.236252,14776308401.503313,15438654150.618858,-64808916838.217766,-56111618509.15404,63710874770.33418,-93004117028.16869,-38202168275.320885,10562517127.507444,-46986978254.65981,33504834327.32021,2382942829.41151,15868088716.803328,60844080505.311844,25587992369.503864
234,-57299925098.45204,10202181424.553097,17723805400.35266,-4790589350.5750675,-81442434051.22176,-54764932257.93478,62624840954.91391,-88199852108.91458,-36100457788.26355,10023910315.9999,-64403039039.4049,32329951066.580475,-16990938885.305325,13871117181.663677,77290136653.3502,34744277551.98023
235,-53114549297.11383,-7882818903.338032,20004257721.64513,-27914740670.060837,-85318575285.4015,-43660161396.98665,45636405926.09056,-71279735490.08348,-22637603609.921757,11954462261.819181,-75702422857.17773,20916149188.097862,-36100643255.79197,4653086362.442438,71072023585.09099,22669276094.77527
236,-33291224525.908558,1127295496.555376,15450737509.564999,-51288656827.7713,-88302825357.13351,-38753596848.87491,34089220895.111168,-44365762806.227715,-94700260.80219242,8634177539.767973,-78308223035.43387,7519931539.357761,-51459413988.68553,-3976008049.556662,78332789717.71732,37794420357.94326
237,-1445995831.404324,13126989811.22296,8799914470.533106,-65526728504.83012,-73439882941.27031,-29898890964.088936,18218970383.97498,-23850093806.583485,23568269441.560707,248486298.9335506,-78949169782.79086,-19282068226.294678,-71155376701.60846,-12479446971.123203,80696581672.93666,56473832039.88708
238,30992666401.10944,35056208437.73579,9565208346.79893,-77184881641.10059,-64436221880.363625,-37784627416.69488,17408531573.532063,-10213149085.813696,40219151854.79979,-6094015348.792361,-86323798622.46463,-49420348044.60898,-83656939362.35591,-25301745407.20403,97020873667.38104,81322246499.44618
239,49361835635.85329,66503510884.14107,4681307638.139961,-80204278456.98416,-66394567037.79809,-49293812599.48772,22670228025.48672,2310395145.7287655,43777996530.602135,-14273375738.081858,-78454581510.56464,-54682568555.05014,-84421301128.90825,-42082412546.00288,110211788466.81448,106551580381.40848
240,49963676376.17143,89739211018.98775,-4688653024.19695,-63600632284.19479,-86819570729.43488,-59837495978.25649,38007483407.20831,-2513523031.126804,22881997941.932884,-25546362342.650845,-68175629590.94559,-33326609192.80002,-84643770987.48253,-55994095581.52816,115680288546.37294,122498140911.15002
241,40570667828.205055,99820182758.77547,-23162487732.05191,-35765241335.78911,-92229055066.32127,-58975123744.35954,52584951629.598404,-21835484373.804802,1266408879.0039508,-44557471909.19423,-54393875777.4878,-24553749600.369164,-92759451404.78317,-60408072155.274994,113478211187.97592,131021913041.97372
242,34053127355.678417,102839961947.99086,-41127900100.14409,-24844856959.772438,-94918304700.7662,-51224916489.08891,56016637887.84712,-31546764045.555847,-22733215918.095566,-53984852468.505226,-41256267985.261505,-15286357509.213844,-88159668188.9295,-50429151847.6174,100915202732.2162,135220216674.68355
243,23352699179.79023,88337127081.13245,-42142105253.425186,-13835160912.15978,-87284184744.55954,-44433226590.29651,56048102232.554634,-36492237233.908325,-39235571595.72011,-49529069038.4525,-32267907088.782486,-9212257143.397812,-65944267682.714005,-31789735703.24709,78180569942.90855,116577890629.43604
244,3183588858.8705387,69834513999.1033,-38406699398.037964,-3333266449.3707495,-76044160569.3073,-38180631757.571556,54841390247.948494,-34218940163.242638,-44513634719.4685,-38215469623.13598,-21709341813.98699,-1676770934.3838885,-46096069329.583374,-20170544431.93474,70531678866.24599,101210646653.86588
245,-18131908295.551716,47553120895.3271,-36067482544.27421,11024565469.0191,-57386531451.6446,-20645840339.228134,50777501287.13376,-26073832402.342434,-46236638589.79943,-32191612924.15275,-7456647583.189835,7663137610.012825,-41920598605.4189,-3819714181.1178713,74473815182.75862,92513534196.45168
246,-33121447730.26333,27118272236.56586,-34553005006.54927,21932925257.932156,-43451668261.20153,-1635935855.6011653,50627417750.513115,-8238758618.404082,-50334046865.44683,-17658778688.157364,5359944465.389482,21503221564.222256,-42426769719.034294,8302118576.747006,90059544224.41757,91186916180.11679
247,-54480150589.453835,-8415477561.505643,-37119366747.63273,20856238182.170277,-25797507075.025166,17810838857.67034,36329482087.33022,19719599527.41462,-53954318097.795876,4595764521.528616,21339828851.245693,26057428827.94267,-41739005245.20862,15411238960.647432,97183439763.3802,77816384333.065
248,-63375637178.700584,-27712627500.16678,-33878240425.091133,13814732372.445686,-2358663816.489848,18358562310.008884,13291963989.693495,34152610444.85052,-42296224595.553276,11626005701.097754,34873130659.208885,10033103122.468235,-26087614996.845196,19153774579.799583,83522105203.84933,52499511265.23841
249,-36346430702.3339,-21408149683.766476,-17923298450.14265,5244325104.163085,3750507900.9602003,7346322835.162473,2899841363.227488,24076499513.23332,-23878248099.82342,7392918838.02918,21453398353.42461,-2615059129.138808,-10719921222.388496,11571504458.922003,44777620428.14594,20644162469.887337
250,-6264064983.560601,-2909980476.4564967,-4452977513.593015,-37968370.068055704,485089576.96724725,531986648.8883915,1070810457.1720093,5958799764.908547,-4781427257.608369,547326345.1902274,4354067855.583304,-2088783549.181756,-2394204808.19585,3271615159.3370376,10077020489.515522,5425220354.499631
251,-355037179.19444627,-12910177.609555988,-262151592.0792121,-30077124.52060688,-17743335.786345676,-7293491.919982105,-45428901.82503698,191202736.89532733,-163592790.75195643,-93555779.90480246,284628409.683808,-76772499.33069417,-81967317.13082072,250108436.64411798,401121169.7706051,308375101.72892666
252,-37033454.99522797,-8729929.368601276,-2285255.474594526,4349957.856160361,-17661915.026309915,-40157954.08064284,48133408.61053522,-78585318.20582908,2960792.137263088,3817446.557619337,-39128767.6615128,-18222846.224495225,-10979838.645065548,-12677626.113042962,16744320.806023989,-8751799.728434647
253,-707280970.9595815,-149629229.89455697,158215079.2073449,447782160.56070256,-158435073.87161687,-365088489.27137965,1119560200.8266084,-1595329370.0568242,93605113.32729736,343125019.9683847,-690647659.3657765,155357661.35487148,-189193629.7853355,-126712002.40972146,268001970.58564168,-360010590.4589388
254,-3961803851.862585,-246110457.7654916,623593510.324758,2213094960.0257254,-617126996.5113271,-2553410476.603376,5353311667.632076,-9438469578.436003,1855850040.5569937,994655008.8232162,-3722255025.206081,244641557.38051978,-926049252.7239776,-1060187028.7017157,1242287172.9848857,-1418701096.319757
255,-8545329751.001912,7050017427.058341,-1539828377.2640867,4451039067.099676,-1449806982.6301072,-13267529992.337524,15875969117.782698,-23668684329.33463,5960498983.152833,-325252643.0045801,-7748031757.053242,-4997237667.194088,47363794.473781504,-2688674250.4671283,7912181826.350521,1600159601.326933
256,-11947411935.564917,21519812435.551743,-3457427703.887569,11056294263.254507,183137378.13060027,-27034566670.81085,28521195268.232513,-39302701480.30577,10964326440.178177,-4860980096.77606,-8221909602.614323,-10567169436.387196,4632347199.001172,-1529778223.1051748,19169248643.92744,12200120490.368492
257,-18324032976.253242,33073433817.92747,-403559033.0588793,19937850340.406086,-1662934031.387411,-37478188004.58125,42695706195.5676,-58444672880.24101,16637655909.11067,-8456352236.117376,-10654056798.557419,-7205213616.95589,7497615108.986139,2836641491.780267,33030186192.75603,24204190907.88125
258,-33466377437.830086,21756584764.976376,1902118428.325141,21322109448.65383,-8915590833.90429,-36249229646.17848,48769444277.01547,-75693331111.8802,11605664604.861624,-2335594391.39228,-18345718630.700848,3256332997.732119,6467029175.618807,12106704052.36354,31223284186.018612,16286484742.134197
259,-56257125067.32612,-9269364698.829191,4534050934.08965,19263668879.08941,-23184633811.297394,-21428806346.848125,50660860781.58296,-92239745587.22514,-3559053093.860106,15973827439.161243,-33675261262.8688,21701700094.193474,-810514829.5774158,21714345820.70611,18689365127.29548,-5364317500.633687
260,-76556158806.0608,-29984182497.517498,10444596973.101444,10957282443.49642,-47770452971.451965,-4790679947.839806,53764034799.09322,-100796826427.65393,-14904422560.927769,34192077159.082188,-51080497062.513245,47184453938.9154,-13994578340.945408,26814160159.62845,25888167758.93607,-4292183843.1298523
261,-74941450323.78177,-20963105672.217327,15975779746.285137,-2183168248.078024,-70310531476.31749,1888834278.0089762,57121666216.26324,-103466829634.9961,-10234007127.45941,33064608146.650166,-67610306217.38482,59150789609.02879,-34557083115.1247,22357796651.93212,50211835615.98323,21531911532.762646
262,-68116493069.50565,-29121483298.455555,20419051181.878757,-18825393398.908524,-87215114493.73145,5855245002.759333,47870058630.97746,-99710778887.04973,-11308945570.557732,27094280290.85682,-87548445469.4962,55104052527.75978,-58397247554.64886,7260621978.864268,52099386366.0404,18601094989.951996
263,-70259693583.998,-38376890159.50948,21755855563.926506,-22607204383.369488,-88227244392.41609,14089327751.014381,48357992811.444916,-90298051399.13104,677969964.7829974,31068352502.076954,-90721852041.33582,57932126506.93697,-71076841755.03693,-3699978793.5279975,61117858230.79226,24168621102.141968
264,-52635740409.13068,-29690688415.076828,15743558781.126429,-21734358505.518333,-79857498574.80617,9980975804.750584,53498017144.211,-79763125916.86412,14663026827.419752,38596964752.221535,-85840473501.36884,46248570128.268196,-67122281715.69922,-16420763910.843027,56902972956.88404,26717052238.342087
265,-16873004377.246359,685194541.7553381,-4137023974.747166,-23326054724.242012,-56401284182.49123,-6739882893.094252,66940998503.69393,-60819833553.78457,23980279229.4157,36507578979.42584,-75789883186.53578,-1119153977.757945,-70138626479.89056,-22270060559.563858,78351128492.88031,56205993028.13393
266,14511415759.486359,34370675608.13371,-21692883237.286057,-32908919394.972694,-24354575132.699776,-36098543201.883644,77183008213.85902,-46320066174.61631,40332821486.89856,22435660780.70794,-64835463369.87843,-69425001702.78976,-69593537265.75629,-28264683553.69784,97405461479.77219,76794313694.26985
267,33762492482.51218,92403594784.7772,-34898655703.43331,-29003833054.291412,-13206002793.458256,-68970442326.63614,83034418319.19789,-39454260259.843376,52239293011.61953,-10109510428.05298,-39282604295.15919,-96880408360.4484,-64907691733.1664,-48801027325.09588,122842205285.75294,117917706109.88478
268,31665587018.21118,140783716951.99634,-36832740044.22312,-6954493785.000712,-43779440768.191025,-92419207949.04103,90725260384.30498,-55267276788.51159,36950019943.84577,-41180253279.039795,-23546352461.961613,-62739662552.998405,-55042149938.95299,-61875053048.404015,139367971181.9688,153095424457.28665
269,29728816666.24513,152279368223.14096,-38152986491.559586,3170544209.3547378,-76906777231.75476,-92622769454.9713,82830495931.57576,-71309014491.05852,11543578072.90527,-61492332510.72877,-24316681810.050858,-26565482591.214207,-53907585899.38435,-65989709976.280914,123903614966.84727,155232608046.76678
270,40395414570.09661,145095891467.4234,-40413562780.1027,-3715924434.1201086,-93496618610.50291,-76329611687.17699,69439707943.42943,-67353902251.80163,-11801297489.127184,-63279885685.63699,-29101308033.281467,-5742514035.579056,-48810485615.31258,-53527419957.43803,94305777555.47672,143795067259.19482
271,40415255818.38644,123585103799.14012,-33004699364.52069,-12031764542.746336,-101872175383.3927,-64163195850.990135,63630751329.728004,-58332392004.1767,-25678802906.541462,-47599819549.761154,-35088085325.22153,9008652525.662622,-27395019505.181473,-28840901071.371998,63151117139.08114,115641056465.287
272,23490432360.09344,102590372742.4187,-28249587440.239418,-18236242989.615566,-103705455683.93335,-57135915470.1722,59820519981.98806,-52859168586.20749,-27688833556.247227,-31926888828.491207,-37159207932.78367,17980946355.159916,-10292941254.501314,-16469202495.747272,48289021226.014145,94175064832.7617
273,4740207880.279312,77900674615.91997,-26606509315.734024,-8911298322.656015,-90640903888.02304,-37371293755.581696,64611994787.67964,-43847672611.73897,-29635443513.046894,-21206690955.957794,-33298974484.723637,25952094852.16119,-16505782993.154863,-3126709317.2697663,56640420596.512596,86365118803.05423
274,-5803091758.684309,53899102890.51302,-27004051050.749405,-1987167636.0901787,-73255326007.34474,-15932320913.820503,62735836851.92887,-17228602995.278103,-36488702094.67662,-8874045240.153837,-20725183056.94335,31299447668.21901,-25772795527.44724,7569835830.085517,75001819315.82962,86817100220.01958
275,-20730466213.526405,15578178435.48089,-27431242035.64174,-1405350056.0967574,-49209676772.79179,4829211288.144946,45935565407.58669,19859210634.37413,-45926677391.008255,9807876756.151691,-1351289496.689496,30615930314.240524,-27179810766.555214,18078375792.810284,82474245113.72664,72278377140.38855
276,-37309303035.56516,-9260894795.328398,-26030469837.51422,1608769115.422466,-14492249592.30218,9315144945.070417,23017259958.72355,36068738654.75641,-35081501262.21359,14761538407.865307,20864440724.20599,12526050968.3612,-17274399841.354446,20854043408.03918,77862755130.93463,52153752200.375824
277,-26455546770.70191,-10294654810.727552,-14763637723.4066,2482116097.0692143,1364859276.00486,3761108621.301948,7017411509.346439,22285558602.20857,-16783231210.225494,7420083342.580229,18136913756.120552,-505871073.8693933,-6102550428.203806,11976816695.093561,43150505556.7271,23658350010.776424
278,-4791348995.717549,-519678440.9864645,-3424905218.2211695,-165978856.21055,81499430.5328009,80746294.21099772,1792381846.6070232,4399596541.309391,-2674785592.2663794,389934537.2311846,3691908274.3382406,-789170841.2814763,-1436008348.7821608,3172054596.671175,9486764619.432163,6309457355.196641
279,-510424863.73525465,154854140.6593991,-165489017.39056763,-23243100.0786719,-188819993.21252576,-183959381.22745547,354100590.4734309,-69585746.41588008,7711523.885400212,96443917.07900435,117593765.3886172,88807119.13993068,-5093485.499337124,92019155.26285324,782804009.0942463,438407174.0244239
280,-49569004.35546942,-10774133.486915087,-3813863.241130905,10002718.42924006,-23019798.497132897,-53607372.11417536,66837534.911174014,-106013334.38789862,1863565.152750339,5448867.474527004,-51557139.83688729,-24489624.275532946,-14764106.396389153,-14953476.022560682,21868192.074940138,-15216235.175752254
281,-762275125.0943311,-252559286.59709078,196686986.41936412,549505289.0537074,-140849687.77594453,-250684774.55280572,1169240672.7943308,-1761299579.3137271,110443055.76714666,367358802.80419946,-756618881.5910181,255982338.67454123,-300280417.2928036,-118849486.38298514,230468534.67080918,-419261688.76822674
282,-4293322098.981581,80086641.5656299,560922287.9176321,2411218434.4214644,-791467311.7211201,-3191569118.3456683,6596992206.02477,-10272936314.081238,1997520152.0553877,1138750450.6967578,-4130370683.505212,25117966.592201058,-900816388.1287268,-952279020.999792,1932981639.5498865,-1388236225.5459144
283,-10068219103.356117,6159776110.067923,-1261988672.340327,4868741346.2033205,-1075322039.183743,-13972386283.99073,15969901770.05945,-25951503677.27663,6513622726.432192,-385618625.64798427,-8045798555.628351,-5773777853.83624,824048830.2046641,-2941542020.988512,6798054654.330751,-804382692.9597715
284,-18522650689.120335,13884879459.718578,-2408127732.1213245,11795578332.366165,1025829843.9778445,-19212697976.085426,28067808779.386406,-44546850919.44584,14247849684.942999,-1721969734.267595,-9930968073.084993,-4379787174.225632,1741126095.5682948,363133997.69372404,15427833110.840027,7990389095.990779
285,-28782855298.32991,14218638403.551579,-171092064.79376528,14740690929.135466,-1298984246.1241677,-18047337610.200985,34173631285.633003,-62205060643.24052,22161990973.256325,33521849.878417987,-14407675691.515047,3887626423.2631965,695294559.984338,4505024466.048687,18318397041.451584,12726418582.599333
286,-44436951431.06225,-9957465238.201277,1935691668.3911865,9059809460.08463,-10830421672.559317,-1183369170.9829574,29187076336.18044,-70011217314.4032,17864039071.592995,13520800418.534271,-22716109953.871822,21291544140.044506,-4538094247.265146,14728206916.24179,4249336929.75133,-2457107431.959561
287,-64762360907.27365,-45349429714.46369,2010339300.6654656,-1082677856.6354475,-27905116380.331123,25856575593.02793,25167577525.973774,-78292702838.67438,6572480195.320226,35429791385.2176,-39924392819.56424,40704278609.12799,-19414597237.14622,22520016412.806908,-11729772424.193813,-22310408327.62317
288,-75307878561.67812,-57186947811.60476,7888538691.863862,-11926577658.273703,-49592059259.3583,50039252360.28256,20975282549.082798,-77987254799.10786,6190471675.327297,44895688366.43151,-53654717414.90053,63125459667.48144,-40954612164.363144,23395932049.827244,574927772.3073367,-6240864623.224725
289,-79557542477.95683,-53439948999.47782,9025725309.071299,-16743920189.207926,-73430225877.9904,56227160097.696266,23572134313.245167,-82654455109.48198,2782844392.331761,40053838170.384125,-67550272545.94615,72445445420.21904,-66344980530.396904,6478879264.130653,23148755926.321632,13696923044.096403
290,-82758183581.4404,-65761511980.9487,13725498477.162432,-19727768817.535896,-88732556429.81854,58507422953.319046,18938349280.738182,-85438115553.02393,-4795588554.565616,37339663261.53071,-78512180493.0284,81206897313.14873,-79621664694.43834,-11287153006.469772,18516143399.679432,7607843642.831987
291,-81982686480.33466,-72354760697.38213,14213038336.019075,-10867724274.471956,-92886087733.17816,54329826829.01125,28893691870.042862,-71692796437.71713,-14785119663.769764,49722058715.111084,-72907707857.94664,95646612429.53827,-71244266291.98878,-22100925436.44012,21029627354.615177,9531975259.963621
292,-64398520599.8305,-48827419900.88404,-38511755.12853226,-524223.8089643121,-73514387689.33202,39055352957.51835,44603043620.523,-52011399223.889984,-11882562597.559631,65820983766.00047,-47328814815.01915,85542768680.11295,-42009277200.172386,-22454927057.757534,25870466256.839436,25605168117.072773
293,-33400870184.56027,-16638408228.728167,-33494215970.07219,-9305338730.904491,-30208223265.48056,2527599435.1920047,57640102440.75033,-31777200129.357086,-2033746701.366518,63618883844.03898,-25055690024.69858,4194049371.699404,-25001371270.38733,-19696524902.20696,38761205846.69314,38353392930.38556
294,7596521253.312522,41208384520.13131,-72234728896.95589,-29112489437.49688,24237154611.0726,-40181059188.52894,62943742702.48275,-4753630552.11134,28359739653.713806,18406327352.30652,3592702658.3958364,-105424696721.15182,-32782609960.451942,-21760925644.60591,74008463505.17076,79425503145.6486
295,20389787395.148,113917862166.63803,-76656403601.03378,-17155646453.563656,34343416265.963486,-75420744383.50803,68168397054.0686,-13122132269.817999,52509167745.76129,-31333398493.604935,30490136495.344543,-122482295262.46742,-26484563490.87652,-39791215915.49676,110158612289.728,132978852387.5281
296,13251977158.040632,161531712951.7591,-46849086594.986595,8535899783.364339,-13738789589.3513,-106689426089.72974,69688896662.7394,-56283528732.904015,43722096818.836296,-62311277434.36117,27768838382.932144,-60430161473.85348,-489919454.44271916,-54169202519.21024,112908045101.40276,152798985500.64166
297,27450097570.6341,175416237686.88504,-33460868027.225304,10659655235.86577,-62464441039.15129,-112343635753.60918,62462185401.518295,-85710899347.02052,19720091733.421486,-73760374625.62111,1612094918.689354,-16146287847.59683,4912912383.3113985,-63294206918.53087,82129158424.56505,137883036055.39758
298,49049461674.55139,160213199832.18607,-22570129999.120983,-4759754774.994307,-88772098288.54088,-92295684070.35286,55693284333.79054,-89800308755.57014,6624857268.765831,-62797204952.09288,-27777770384.743557,10567631042.339733,4767167253.308687,-46367985199.24088,45048020071.00161,108666436039.7297
299,51864555708.35623,133302290291.11845,-14475394434.187498,-20596533515.864437,-97015089110.78798,-69638500903.60756,48936640912.74101,-85401186909.08669,9158467012.532225,-43990660969.23538,-44847398489.89816,22989296685.667576,10911398793.5431,-23358635237.582596,12436405985.217838,78235700371.89896
300,41828646060.635086,101806650194.5246,-8574953960.333377,-33217231135.8247,-107880330660.17235,-55721869502.57941,52876629108.21422,-81981024301.07625,6439536225.35908,-22386256814.17829,-63356573800.60715,30657741944.688942,8882595529.04828,-15894500743.87236,-5162397651.184246,49504817108.52038
301,31089789481.607502,69956138355.97044,-5982091579.181232,-31928824562.322624,-104253687523.20203,-31887204896.415928,55401532179.651375,-69720820674.29962,-1443195272.641256,-7378430486.936953,-69222978206.80946,39535466318.018936,-4374330368.15268,-7477197385.473987,-9624143096.147955,32949042371.991367
302,27997500735.057117,43155428545.82904,-8540907373.443928,-30794731760.902973,-94919100213.53339,-13405749162.932898,50843525421.540665,-35959222398.55027,-21543096129.589157,4839803251.072897,-60690662546.400024,39181072168.91714,-17724950792.2878,-2113394679.8873796,1666903623.4368064,26019472147.222454
303,17155663785.788645,16987539577.21666,-11421167507.673822,-24872975484.98026,-69214949991.154,-3114654320.576052,37804961111.49406,6916344590.220553,-37852755467.09069,14226509902.777674,-34736124085.14993,28769750191.842365,-18478959765.71567,6521331959.306785,24085778194.1303,24795618182.432953
304,-7323160665.050789,1927470196.041544,-13478912867.876232,-8252708036.953548,-23389063180.28149,989887116.4945843,19863484950.895927,20899496036.236187,-24752054613.82155,10963451087.604538,599309809.9608822,10892656260.145164,-8737931722.186813,14265623855.683844,38734170763.47454,25609235487.22005
305,-13396431252.975971,-747288309.5355678,-8746758839.247023,103680913.27418168,-708035856.0133245,477236844.48009676,7580653622.07914,13268807261.15935,-7903172636.081158,4197592758.8967586,10467729871.807154,917190482.747044,-2659985377.4719543,10020917810.70624,29207174122.231148,18088841505.770977
306,-3246919868.0261583,818285107.7691613,-2358480898.7384467,-250497758.7039899,-431744995.8476211,-396807173.96912557,2025272969.1742146,2562431169.373496,-1373119688.6515331,109748847.08854894,2377230448.8364096,17731773.187665023,-856634394.0361582,2326381707.138971,7386567808.8947935,5400588548.503674
307,-225917255.59896126,356914666.99498236,-210656524.2140762,-82009613.00306934,-205613092.35205197,-129119699.59819789,305323017.99363816,27823809.350875743,450385.157823927,-23556866.99221734,120306599.35844032,153623564.72977853,-63439644.56672099,184085082.43808022,690511447.0915753,644153411.2420913
308,-37983533.49552545,-4300755.571699639,-9141362.267220797,16864281.943352792,-12356975.739119591,-35493525.07724181,48224661.298157275,-81816890.84973425,-2429901.854933438,6768158.666426016,-34182203.291850924,-16657442.688730352,-9751626.098665375,-9969318.261071347,10568108.857926324,-25613743.077436358
309,-800062089.0057116,-114639027.11099435,128908369.37847945,458432008.3502649,-192487133.46957323,-439725909.93239814,1352046767.5602717,-1974024898.92094,153454773.2595842,331927154.7627409,-838582032.8410548,95042384.23621213,-296138556.51704633,-198421658.3960298,325118472.40731627,-481257063.19862664
310,-4520017064.77734,41245203.97042185,317204976.676285,2408608415.078671,-512749460.15847194,-3472005282.8510275,6875422007.559342,-10748176500.306044,2030221698.7503395,1143116699.677445,-4045246370.7263875,-624961175.7841482,-691300886.5126638,-859633330.2384049,1665886095.6245964,-2400330721.2636824
311,-9450605714.655014,4775539548.140195,-1107434577.400891,4654620938.228143,182015342.53327134,-10268637244.991196,13164045725.848906,-22852780006.406635,7063782809.378844,-559010684.2755657,-6118376959.456613,-4095212292.415088,308213025.6982955,-2601489814.1254864,5230513163.451455,-694146139.1347988
312,-18934500455.92728,8344853088.040727,-1689533564.045881,8388636112.523282,4033948229.6035724,-9591785987.322224,17280034772.19619,-38379579453.151596,18187232294.220726,-1860027482.9918218,-6042900421.142434,-722161148.8699065,7005548.086576356,-51173089.93673354,8350228451.555881,6121436328.066486
313,-31120635351.423126,-2598750515.555296,-2354263376.086998,3436999456.27684,388964221.9823613,6000544906.525446,10896880595.556046,-48089102643.52268,27261672701.851536,5703483686.963752,-9876387497.129808,13597264690.928413,-5481964531.32571,2025461005.5310135,-1876679923.0158436,5177645214.12699
314,-46293565436.22961,-33554888163.841927,-3906954344.209962,-9330472602.77833,-16652298491.000902,31679446532.462257,1639099476.5715442,-49290809948.72704,21133533015.007618,27303121463.78562,-22261708143.114944,34060534901.748894,-16567342639.29675,3503876614.4774613,-22733510357.01567,-12758245517.357862
315,-61027851309.43394,-65785868946.98766,-3699905011.433655,-23454190485.845657,-35022415465.16601,63637646755.9937,-7665439082.358112,-51346020609.94867,16309335885.351633,47377069652.07441,-39142531192.36218,51041804598.733086,-35921374005.22405,4915422396.831044,-39663432874.03281,-27445347883.70847
316,-71842687762.41191,-70060719212.43124,-3762950671.2308936,-27572789287.5535,-52849472811.15948,83738148451.7256,-14107638788.709707,-50274599656.39654,14960077345.193462,47443447610.05803,-44838027286.08176,65092986110.5935,-57701286188.80893,-4747538037.561111,-24763071239.873714,-6925789643.999068
317,-85166795574.76292,-75547946947.0784,-4165183240.3767247,-23070543598.555546,-70401394545.4338,82284897984.58904,-14591780502.780403,-53295761467.08225,1778897489.1583211,41075934380.58133,-46577407285.09456,70016114611.97519,-70590756419.48323,-19833716031.7848,-13316121577.874125,-1273575437.640777
318,-95144690233.72528,-83063635470.66344,-1444208978.917457,-11827192167.267849,-85321540440.38315,73585476427.79625,-3158258131.9999113,-53394358409.15961,-19071357857.136784,47196835963.92848,-44061833393.75866,91054995021.84935,-65752183382.1129,-32678677889.59252,-7621551772.012083,-127173377.1754277
319,-99741639921.78537,-89411230112.6781,-3958196962.9320197,2044571302.6375692,-86141194724.24672,57516192696.93158,8823873452.48267,-36722051515.45833,-46713330856.39201,72479544306.85207,-25903586665.19115,114002022412.47617,-27072844896.864037,-29560683090.57975,-15135187558.0317,-11801755017.477814
320,-88249821606.29907,-62057910917.88875,-23796614126.509506,3813364182.0991607,-63255323401.75606,30010268042.901516,15859232642.01343,-16345579129.354994,-49855951856.959404,88777007261.48277,4297291042.75093,98602349686.6812,19708431811.37491,-19170817540.794586,-11874530567.528223,1446116146.6189585
321,-52769954979.81788,-17361034332.44699,-75321940893.84824,-27039611508.98003,-5512338259.5163965,-2720045104.5736837,17462144329.02365,17124465307.60713,-21164358586.999126,64409921468.33916,32216105713.01298,-6741464358.068274,18257933363.23958,-7451664076.044964,17529812776.521614,40150370155.152374
322,-14120553786.57019,42996663014.11113,-123689956874.26112,-45054092754.57764,66570845398.633095,-27652462525.306915,9459318424.647951,37514149959.284874,30386631716.719326,-8520354615.751642,67273437315.77189,-124935047991.07207,-14564494311.45684,-8771653919.787096,49538658576.23795,90280359369.46277
323,-588753717.1965036,105183838822.21667,-92332707483.27872,-19925407070.2156,66202514638.82397,-50550266657.72539,4899366289.552606,17070346257.235851,56149766480.565155,-59378857710.97138,84382872959.01823,-106071716733.63013,1829240096.5126066,-19429888253.08593,63830393454.53147,125178899833.41121
324,-9305276684.346092,133824024143.35738,-33986120272.979656,12522126824.525286,15003016132.469997,-77160254893.59451,1752012113.0552933,-45483523714.18284,48073728757.14239,-68793154720.84554,64921386314.74201,-23708266189.659153,49284136360.560616,-32564311854.603275,33801075309.57878,105663666750.31703
325,4993949309.575873,149442669838.24472,-14999877710.753193,3864056935.3420167,-33697616441.309444,-95018039455.09644,1346786414.636983,-91871975522.03134,43210778151.73544,-68035500262.03768,23419318040.449993,7501055561.713251,60844061543.63951,-44007118807.093605,429640565.5420477,80699446541.8767
